-0.07094904035329819 -0.2576381266117096 -0.14008834958076477 0.011736870743334293 -0.06814365833997726 
0.016567880287766457 -0.13986213505268097 0.38213616609573364 0.28883859515190125 -0.12176866084337234 
0.36755773425102234 0.17408132553100586 0.22589461505413055 -0.14710375666618347 -0.40389013290405273 
0.1208820641040802 -0.09064366668462753 -0.40293553471565247 -0.08133856952190399 0.04826701804995537 
-0.2987692356109619 -0.09068769216537476 0.032498009502887726 0.1515195220708847 0.2893075942993164 

0.09901169687509537 -0.038257963955402374 -0.1396431177854538 -0.1674792319536209 -0.0026524008717387915 
-0.1711256057024002 -0.2988058030605316 -0.18876679241657257 0.042472705245018005 -0.11961134523153305 
-0.2977971136569977 0.06473188102245331 0.11693162471055984 0.05246874690055847 0.050558898597955704 
-0.1541650891304016 0.26788628101348877 -0.03206600993871689 0.13083651661872864 0.006538680288940668 
-0.0036100654397159815 0.06664599478244781 -0.046555839478969574 0.11129049956798553 0.0118799339979887 

-0.08394059538841248 -0.16620999574661255 0.020434856414794922 -0.017549868673086166 0.2124735414981842 
-0.08191505074501038 -0.25777456164360046 0.14713269472122192 0.20945927500724792 0.03249853104352951 
-0.09024147689342499 0.0018888721242547035 0.11259497702121735 0.405864953994751 -0.2557160556316376 
-0.020809367299079895 -0.04223957657814026 0.3694698214530945 -0.14150460064411163 -0.14942073822021484 
0.026247717440128326 0.01906406134366989 -0.03458331152796745 -0.09825772792100906 -0.11425748467445374 

0.003962374292314053 -0.0887458324432373 -0.2189246565103531 0.3144626021385193 0.1912464052438736 
0.08728836476802826 -0.2714388072490692 -0.37427112460136414 0.2601942718029022 0.1991470754146576 
0.1307174414396286 -0.15464185178279877 -0.2503949999809265 0.02587065100669861 0.26469871401786804 
0.07653070241212845 -0.1813802868127823 -0.06112295761704445 -0.03193594515323639 0.1981523633003235 
-0.09475152939558029 0.031171027570962906 -0.09152150899171829 0.030182313174009323 0.08158864080905914 

-0.046549081802368164 0.16403810679912567 0.22907325625419617 0.2829698622226715 0.16697774827480316 
-0.18855582177639008 -0.14595025777816772 -0.2403966635465622 -0.10744044929742813 -0.015586432069540024 
-0.12220726907253265 -0.15920427441596985 -0.08005228638648987 -0.13463489711284637 -0.056023404002189636 
-0.07288523018360138 -0.004641740582883358 -0.19308499991893768 -0.10532516241073608 -0.00016954158490989357 
0.20460884273052216 0.012119791470468044 0.104494109749794 0.09460797905921936 -0.07411355525255203 

-0.2201327383518219 0.28684428334236145 -0.07179392874240875 -0.014712879434227943 0.17123112082481384 
-0.23443503677845 -0.09329217672348022 0.06085111200809479 0.097046859562397 -0.10756516456604004 
-0.20836105942726135 -0.15020665526390076 -0.1631505936384201 -0.10743466764688492 0.059584882110357285 
0.2716883718967438 -0.1886175572872162 -0.13046114146709442 0.04788226634263992 -0.15568684041500092 
0.04391825199127197 0.21166826784610748 -0.07725626230239868 -0.05338951200246811 0.018483316525816917 

0.34804829955101013 -0.14180488884449005 0.02838227152824402 -0.1969165802001953 -0.03776446357369423 
-0.07523481547832489 -0.10386816412210464 -0.08350181579589844 -0.0615072026848793 0.10296732187271118 
-0.0618819035589695 -0.11701125651597977 -0.04463133588433266 -0.038311734795570374 -0.06577262282371521 
-0.16188281774520874 -0.21661195158958435 0.02653890661895275 -0.026274299249053 -0.021457688882946968 
-0.041508663445711136 -0.06851325184106827 -0.07035870105028152 -0.06638555973768234 0.011710161343216896 

0.09975937753915787 0.25287267565727234 0.13965313136577606 0.18084141612052917 0.027483109384775162 
-0.24031329154968262 -0.14334410429000854 -0.1607038527727127 -0.2587503492832184 -0.22969377040863037 
0.06908630579710007 -0.317981481552124 -0.30462005734443665 -0.05317886173725128 -0.1112891286611557 
0.024815356358885765 -0.055601831525564194 0.09131953865289688 -0.12215589731931686 0.025733105838298798 
0.28963351249694824 0.2405119389295578 0.14680805802345276 0.1464833766222 0.13499604165554047 

-0.05236518010497093 -0.000658430450130254 0.05725812539458275 0.05830791965126991 -0.10745415836572647 
-0.17228825390338898 0.2409546971321106 -0.045920733362436295 -0.10885833203792572 -0.08019571751356125 
0.20568592846393585 0.04477401822805405 0.03810224309563637 -0.14136257767677307 -0.07339852303266525 
0.20062504708766937 -0.2468094378709793 -0.2318979799747467 -0.16048038005828857 0.29608795046806335 
-0.15542590618133545 -0.33706235885620117 -0.03139777109026909 0.3936214745044708 0.04586232453584671 

-0.04670878127217293 0.28532174229621887 0.11587638407945633 -0.17849649488925934 -0.25370317697525024 
0.09414158016443253 0.0764160007238388 0.4288468360900879 0.32042574882507324 -0.14086918532848358 
-0.27281466126441956 -0.2954808175563812 -0.018404241651296616 0.37860652804374695 0.16098980605602264 
-0.37867191433906555 -0.32024532556533813 -0.20485202968120575 -0.15067726373672485 0.007754288613796234 
0.29088419675827026 0.03220095857977867 -0.19566120207309723 -0.023349205031991005 -0.009786134585738182 

