0.03843274712562561 -0.030497606843709946 0.02240748144686222 -0.04743478447198868 -0.05106329917907715 
0.00378718925639987 -0.10526920109987259 -0.07899719476699829 -0.1519603282213211 -0.03217557445168495 
-0.010900798253715038 -0.08301062881946564 0.056909359991550446 -0.012058459222316742 -0.10624034702777863 
0.07622582465410233 -0.07874707132577896 0.01097735483199358 0.03807614743709564 -0.028305741026997566 
-0.00943421944975853 0.03389838710427284 0.0593663789331913 0.09676413238048553 0.06278692930936813 

-0.018553363159298897 -0.04199647903442383 -0.05682411417365074 -0.0611301027238369 -0.03494169935584068 
0.011706824414432049 0.13067619502544403 0.09520094841718674 0.0758666843175888 0.07240275293588638 
0.016885776072740555 -0.01177491620182991 0.002687932690605521 -0.05500483512878418 -0.11629654467105865 
0.0024123978801071644 -0.04843829572200775 -0.03478744998574257 0.00668751634657383 -0.024559739977121353 
-0.029933929443359375 -0.06148787960410118 0.005614736583083868 -0.018413567915558815 -0.045681748539209366 

-0.09999602288007736 0.006149080581963062 -0.015863046050071716 -0.01027926430106163 -0.08399119973182678 
-0.05450277030467987 -0.04246353730559349 -0.08604608476161957 -0.07259999215602875 -0.0722375363111496 
0.041667427867650986 -0.022197844460606575 0.00988458376377821 0.01061923336237669 -0.013061106204986572 
0.06046471744775772 0.03873855248093605 -0.005937645677477121 0.05130944773554802 0.08214051276445389 
-0.014207580126821995 0.016767948865890503 -0.058753933757543564 0.052900128066539764 0.054471492767333984 

-0.07912630587816238 0.006159662734717131 -0.038394879549741745 -0.010092063806951046 -0.09591308236122131 
-0.018480928614735603 -0.11903303861618042 -0.11411783844232559 -0.16642582416534424 -0.006519161630421877 
-0.09930191189050674 -0.09510721266269684 -0.08038235455751419 0.02035779133439064 0.04554877057671547 
0.06929664313793182 0.01982395350933075 0.037273433059453964 0.07502412050962448 0.022292740643024445 
-0.015201808884739876 0.0026037145871669054 0.021219681948423386 0.1260497123003006 -0.023091929033398628 

0.09430469572544098 -0.006945659872144461 0.09309524297714233 0.08989492058753967 0.03717537596821785 
0.06907718628644943 0.011000397615134716 0.050718311220407486 -0.05348752439022064 -0.12467202544212341 
-0.007165464106947184 0.011308632791042328 -0.09452073276042938 -0.0846090093255043 -0.007869754917919636 
-0.022795211523771286 -0.009389602579176426 0.03337559849023819 0.009692462161183357 0.011486719362437725 
-0.10239887237548828 0.008933383040130138 -0.00036699912743642926 0.10205641388893127 -0.06473516672849655 

0.021549846976995468 -0.010119780898094177 0.07602100074291229 0.08741220831871033 0.03454224020242691 
0.09546805918216705 0.018342161551117897 0.0018898916896432638 -0.025721384212374687 -0.017934339120984077 
-0.047318700700998306 0.053443703800439835 -0.07915223389863968 -0.0421481728553772 0.039624422788619995 
-0.04505881294608116 0.013290472328662872 0.06851573288440704 0.0004442317585926503 -0.038676533848047256 
0.04009578749537468 0.05811864510178566 0.09336546063423157 0.024519210681319237 0.041297152638435364 

0.04828961193561554 0.07508360594511032 -0.012321623973548412 0.07259437441825867 0.07522886246442795 
0.041985440999269485 -0.0016768729547038674 0.02179116941988468 0.006292160600423813 -0.08544411510229111 
0.016864055767655373 0.020037205889821053 -0.0689249113202095 -0.07299879193305969 -0.11154580116271973 
0.03757811710238457 -0.033961862325668335 -0.031388815492391586 -0.06767374277114868 0.035033710300922394 
-0.03088950552046299 -0.010041887871921062 -0.06104137375950813 -0.005775457248091698 -0.060356881469488144 

-0.04221915826201439 0.009781599044799805 0.013430202379822731 0.03184071183204651 0.16164334118366241 
0.0980253592133522 0.09489351511001587 0.07803589850664139 0.05927368253469467 0.026090823113918304 
0.024621685966849327 -0.06224341690540314 -0.005631762091070414 -0.07958416640758514 -0.01376519538462162 
0.01406044326722622 0.0060938638634979725 0.01984558254480362 -0.002375915879383683 -0.021369528025388718 
-0.07078178972005844 -0.035164229571819305 -0.03977074846625328 0.007093209773302078 -0.014009229838848114 

0.05478411540389061 -0.07567893713712692 -0.046020377427339554 -0.05215568467974663 -0.020998608320951462 
0.08550242334604263 0.03647516295313835 0.022365886718034744 -0.010785610415041447 -0.0037594595924019814 
0.0008889493183232844 -0.006978597026318312 -0.05407791584730148 -0.004824991803616285 0.03276026248931885 
-0.04354037716984749 0.007576248608529568 0.04347282275557518 0.06362713873386383 0.06398153305053711 
0.013164812698960304 0.02574869804084301 0.0235905759036541 0.053605422377586365 -0.013248608447611332 

0.05251704901456833 0.0975411981344223 0.16588805615901947 0.07003502547740936 0.06179562583565712 
-0.04595791548490524 -0.1027490645647049 -0.06979411840438843 -0.07901234924793243 -0.0049880919978022575 
-0.12933051586151123 -0.031261295080184937 -0.014956219121813774 0.061623431742191315 0.06830443441867828 
-0.013382766395807266 -0.045876551419496536 0.021365150809288025 0.024769671261310577 0.03766625002026558 
0.024131374433636665 -0.0034772539511322975 -0.0748189240694046 -0.027563078328967094 0.07069733738899231 


-0.033285658806562424 -0.06266956031322479 0.006470855791121721 0.041950881481170654 -0.04009133204817772 
-0.04876858368515968 -0.01935703307390213 0.008838136680424213 0.09753642231225967 0.1675020009279251 
-0.002498653717339039 -0.0944594293832779 -0.09745416790246964 -0.03275236859917641 -0.005622169002890587 
-0.02179565280675888 -0.03852655366063118 -0.08154890686273575 -0.13370674848556519 -0.1006489023566246 
-0.022883472964167595 -0.02145395614206791 -0.08762994408607483 -0.07142414897680283 -0.08328407257795334 

-0.056575872004032135 0.08232133835554123 0.04981638491153717 0.15357738733291626 0.19238290190696716 
0.004171381238847971 -0.007414997089654207 0.02642699144780636 0.09614678472280502 -0.003431161167100072 
0.05098659545183182 -0.007845000363886356 -0.11448755860328674 -0.10770775377750397 -0.0813319981098175 
-0.016479600220918655 0.020631344988942146 -0.020009923726320267 -0.02481541968882084 0.0061591318808496 
0.008051599375903606 -0.035062555223703384 0.043864015489816666 0.043748024851083755 0.005194827448576689 

0.0238670501857996 -0.0043722339905798435 0.06078946590423584 -0.1340545415878296 -0.004580140579491854 
-0.04213329032063484 0.02012498676776886 -0.05951830744743347 0.0020118891261518 -0.023518916219472885 
-0.00468633184209466 -0.06067575514316559 0.040974974632263184 -0.033013105392456055 -0.02576749585568905 
-0.04434850439429283 -0.005937720648944378 -0.03550441563129425 -0.01666254736483097 -0.05297502130270004 
-0.06963711231946945 -0.05482764169573784 -0.11115319281816483 0.009284165687859058 0.0002039496466750279 

0.0004144887498114258 0.008388986811041832 -0.05961959809064865 -0.02650926262140274 -0.006996563635766506 
-0.0677783191204071 -0.033775683492422104 -0.0770125463604927 -0.04780969396233559 0.009163735434412956 
0.018742775544524193 0.05511019378900528 0.05134032666683197 0.09385470300912857 -0.019895341247320175 
0.05599110201001167 0.05441026762127876 -0.020247526466846466 -0.031469836831092834 0.0020450688898563385 
-0.047171708196401596 -0.05351170524954796 -0.035642921924591064 -0.05156605318188667 -0.039090607315301895 

-0.031723592430353165 0.007664421107620001 -0.04049115628004074 -0.0038508542347699404 0.000500441761687398 
-0.06785915791988373 0.01679971255362034 -0.04327923804521561 -0.10353945940732956 -0.05367671325802803 
-0.011200033128261566 0.034842025488615036 0.074234738945961 0.0465933121740818 0.05139891803264618 
-0.03153049200773239 -0.016468819230794907 0.05234459787607193 0.10344146937131882 0.02141655795276165 
0.05284596607089043 0.06301555037498474 -0.002075240481644869 -0.03142368793487549 -0.043670136481523514 

0.026472650468349457 0.04169423505663872 0.02195635251700878 -0.05788761004805565 0.044365447014570236 
-0.05303240939974785 0.003944460768252611 -0.05025796964764595 0.02191588655114174 -0.016662413254380226 
0.010628280229866505 0.008890700526535511 0.05501328408718109 0.02578319050371647 0.056989818811416626 
0.026435183361172676 -0.026350634172558784 0.02912781573832035 0.061215464025735855 0.04731926694512367 
0.049881722778081894 0.08070915192365646 -0.004790975246578455 -0.0005059961695224047 0.02712501399219036 

-0.003843507030978799 0.006102084182202816 0.019616764038801193 0.07168133556842804 0.07718408852815628 
0.014921334572136402 -0.02114160917699337 -0.02506612055003643 -0.04678918048739433 -0.06097482517361641 
-0.045194968581199646 -0.039747003465890884 -0.07521756738424301 -0.057795386761426926 -0.0229023490101099 
0.007731968071311712 0.08919528126716614 0.09391142427921295 0.04120592772960663 0.04200603440403938 
0.043825067579746246 0.021559175103902817 0.019854705780744553 -0.004275023937225342 -0.02926197648048401 

0.013244315050542355 0.032710228115320206 0.020131513476371765 0.23892439901828766 0.20980268716812134 
0.007694094907492399 -0.03414492681622505 0.06914197653532028 0.001974518410861492 -0.09211727976799011 
-0.04583066701889038 -0.12731394171714783 -0.14076882600784302 -0.09560851007699966 -0.032276783138513565 
-0.03238490968942642 -0.06385421007871628 -0.042129747569561005 0.009199210442602634 -0.07079944014549255 
0.058053065091371536 0.06302895396947861 0.03075350634753704 -0.07452696561813354 -0.01261951308697462 

0.03742695972323418 -0.010465818457305431 0.05187348648905754 0.03478694334626198 0.06626550108194351 
0.016301102936267853 -0.0017550034681335092 0.06630353629589081 -0.0018316401401534677 0.03667977452278137 
-0.0036132936365902424 -0.03485002741217613 -0.09087738394737244 0.00653122691437602 0.007326873019337654 
-0.030872946605086327 0.028779054060578346 0.08653494715690613 -0.0539359375834465 0.0009655901230871677 
-0.051710378378629684 0.03938012942671776 0.05052953213453293 -0.03270077705383301 -0.009884217754006386 

-0.014989195391535759 -0.06511860340833664 -0.03969292715191841 -0.05687091872096062 -0.10798726230859756 
0.039744652807712555 -0.12221457064151764 -0.10714492946863174 -0.064628466963768 0.08258461952209473 
-0.0015488186618313193 0.028983958065509796 0.1792045682668686 0.14178743958473206 0.20058882236480713 
0.06521616876125336 0.048105642199516296 0.016349757090210915 -0.03571050614118576 -0.095029816031456 
0.028538528829813004 0.007696227170526981 -0.01055916678160429 0.03130409121513367 -0.007654624991118908 


0.024949340149760246 -0.034815192222595215 -0.02851766161620617 0.03605283051729202 -0.0014775918098166585 
-0.07265171408653259 -0.016937334090471268 -0.03268403187394142 0.002185440855100751 -0.027528638020157814 
-0.050807274878025055 -0.08740713447332382 -0.07249245792627335 -0.08986932039260864 -0.09699419885873795 
-0.005784785374999046 -0.009126606397330761 -0.005809054244309664 0.027428042143583298 -0.02137010172009468 
0.08116375654935837 0.01411303412169218 -0.1033010482788086 -0.06839811056852341 0.00777868926525116 

-0.09332288056612015 0.028958125039935112 0.013666456565260887 0.04328617453575134 0.02925315499305725 
-0.1167418584227562 -0.046016450971364975 0.09429691731929779 0.04217006638646126 -0.009713997133076191 
0.008000191301107407 0.06255871802568436 0.10189219564199448 -0.030137160792946815 0.018280750140547752 
-0.06856227666139603 0.02286936342716217 0.02796899527311325 0.02968616783618927 0.012579980306327343 
0.06141497194766998 0.07611693441867828 0.054343800991773605 -0.09324000030755997 0.05371543765068054 

0.07004821300506592 -0.00983143039047718 -0.006342943757772446 -0.002087448723614216 0.0686580240726471 
-0.09247054159641266 -0.09637119621038437 -0.03665327653288841 0.02458684891462326 0.04005783051252365 
-0.11789712309837341 -0.10953553020954132 -0.10517740994691849 -0.06193089112639427 -0.08171349763870239 
-0.08577326685190201 -0.0716734230518341 0.04546235874295235 -0.1345544010400772 -0.08148662745952606 
-0.02263732999563217 0.06181842461228371 -0.033079393208026886 -0.02391335926949978 -0.06847470253705978 

-0.10458240658044815 0.03225299343466759 0.03953753039240837 0.03397323191165924 0.04999525099992752 
-0.06781935691833496 0.0071146441623568535 0.05264727771282196 -0.029949015006422997 -0.11151158064603806 
-0.06894432753324509 0.009060628712177277 -0.07271185517311096 -0.07086878269910812 -0.08980422466993332 
0.0013760901056230068 0.014244909398257732 0.005969091318547726 -0.05184675753116608 -0.0868157148361206 
-0.06300894170999527 0.12012603878974915 0.0105519350618124 -0.06430409103631973 -0.09074899554252625 

-0.052446216344833374 -0.022641465067863464 0.05149951949715614 0.030154481530189514 0.04415469244122505 
-0.03845108672976494 0.0743393525481224 0.10822377353906631 -0.038040097802877426 0.014536665752530098 
-0.04817222058773041 0.04928210377693176 0.04832747206091881 0.016580700874328613 -0.01554058212786913 
-0.015297460369765759 0.025400996208190918 -0.016637759283185005 -0.01908537931740284 0.04868889972567558 
-0.006863449700176716 -0.054310161620378494 -0.002708593150600791 -0.14364758133888245 0.021614475175738335 

-0.01730354316532612 -0.01596073806285858 0.001620859606191516 -0.010545494966208935 0.020583685487508774 
-0.04989371821284294 0.09643755108118057 0.021563861519098282 0.06816857308149338 -0.005439837463200092 
-0.043714214116334915 0.05092202126979828 -0.003084433963522315 0.014820484444499016 0.094144307076931 
0.0029470764566212893 0.05757157877087593 -0.05341677740216255 -0.05101816728711128 0.09480911493301392 
0.025225773453712463 -0.07386568933725357 0.009555298835039139 -0.059111591428518295 -0.03151242062449455 

-0.11312077194452286 0.04994157329201698 0.012030959129333496 0.07472898066043854 -0.02798624522984028 
0.025071127340197563 0.07426079362630844 0.11339658498764038 0.10237935930490494 0.06654959917068481 
0.08827552199363708 0.1095925122499466 0.05441896989941597 0.058872707188129425 0.0625704675912857 
0.0058745271526277065 0.08292359858751297 -0.009139173664152622 0.026077354326844215 0.06800343841314316 
0.11461950093507767 -0.01316783670336008 -0.07256226241588593 -0.08760716766119003 -0.08801249414682388 

-0.03695625066757202 -0.09976379573345184 -0.05682026594877243 -0.011373387649655342 -0.18205572664737701 
-0.07253197580575943 -0.029127933084964752 0.0501047745347023 -0.06761809438467026 -0.058412063866853714 
-0.0552002415060997 0.01526683010160923 0.09190455824136734 0.08526730537414551 -0.0443970151245594 
-0.02614949829876423 -0.009884783066809177 -0.039340510964393616 0.01247280091047287 0.11425615102052689 
-0.08282798528671265 0.0049505229108035564 -0.026232359930872917 -0.006884769536554813 0.03357468917965889 

-0.03623445704579353 -0.018019629642367363 -0.03445788100361824 0.0015509359072893858 0.02025575377047062 
-0.12287790328264236 0.009141005575656891 -0.01608293317258358 -0.018575172871351242 -0.06597308069467545 
-0.05519814416766167 -0.0036480578128248453 0.040666330605745316 -0.013337655924260616 0.016751587390899658 
0.04430195316672325 0.025020278990268707 0.05587257072329521 -0.10398145020008087 -0.009073222987353802 
0.08932896703481674 0.02805802784860134 -0.08382347971200943 -0.050894949585199356 -0.0047120447270572186 

0.012746523134410381 0.10396233201026917 0.02179649844765663 -0.06310687214136124 -0.037876568734645844 
0.014983758330345154 0.019133958965539932 -0.004743736237287521 -0.04774562269449234 -0.053978435695171356 
-0.09788785874843597 -0.0747251957654953 -0.06606400012969971 -0.0638073980808258 -0.025900909677147865 
-0.11752638965845108 -0.0677906721830368 -0.0017141614807769656 -0.10271427780389786 -0.06382638216018677 
-0.0004592978220898658 -0.05556587502360344 -0.05971657112240791 0.004137595184147358 -0.0046005044132471085 


-0.028170092031359673 -0.05716512352228165 -0.016502203419804573 0.055854376405477524 -0.04084128886461258 
-0.0032848957926034927 0.0814550593495369 0.043757423758506775 0.05062633007764816 0.052604299038648605 
-0.10180728137493134 -0.014053884893655777 -0.014501507394015789 0.16662821173667908 0.13341152667999268 
-0.16592267155647278 -0.06422000378370285 -0.037419259548187256 -0.049159739166498184 -0.07106135785579681 
0.02810136042535305 -0.03391125053167343 -0.12634283304214478 -0.13430294394493103 -0.07726531475782394 

-0.0507628433406353 -0.09440230578184128 0.0006126583903096616 0.11546765267848969 0.05980269983410835 
0.08585532754659653 -0.019275901839137077 -0.00014910343452356756 0.09463752061128616 0.0837363600730896 
-0.04900278523564339 -0.06761348247528076 0.0019630345050245523 -0.03912152349948883 -0.05541451647877693 
-0.06080176681280136 -0.01483248732984066 -0.04023129865527153 -0.07941572368144989 -0.052615657448768616 
-0.03173349052667618 -0.04220664128661156 0.06864527612924576 0.1529259979724884 0.004762257914990187 

-0.08547171205282211 0.03305592015385628 -0.028187789022922516 0.01662048138678074 -0.02861465886235237 
-0.053884901106357574 -0.07154479622840881 -0.01812477968633175 0.03958545997738838 -0.01849682629108429 
-0.004412148613482714 -0.03680795058608055 0.03282662108540535 0.06006697192788124 -0.0408516526222229 
-0.16800391674041748 -0.003901997348293662 0.013388720341026783 -0.08312910050153732 -0.027927236631512642 
-0.1651851087808609 -0.1721312552690506 -0.10099877417087555 -0.21528248488903046 -0.09628643840551376 

-0.06699135899543762 -0.05070444568991661 -0.07788007706403732 -0.016097385436296463 -0.017243247479200363 
0.005198061466217041 -0.08073839545249939 0.05777299031615257 0.08272207528352737 0.07379687577486038 
-0.1044912040233612 0.006729270797222853 0.037488728761672974 0.00956934317946434 0.05832215026021004 
-0.0685531497001648 -0.07174307107925415 -0.030686281621456146 -0.08892036229372025 -0.08277713507413864 
-0.09010406583547592 -0.12169867008924484 -0.14922282099723816 -0.23250381648540497 -0.1778053194284439 

-0.05014309287071228 -0.020970944315195084 0.031753428280353546 0.006661678198724985 -0.03771103173494339 
-0.0488053560256958 -0.06819193065166473 0.002672168193385005 -0.04068049043416977 -0.08838585019111633 
-0.03051445633172989 -0.05439905449748039 -0.09625360369682312 -0.04275671765208244 -0.023086288943886757 
0.07054220885038376 0.09552349150180817 0.09843369573354721 0.05602152645587921 0.07421691715717316 
0.08378931134939194 0.10994666069746017 0.10955296456813812 0.018064415082335472 0.016374366357922554 

0.006431363523006439 0.009450490586459637 0.036071572452783585 0.03738667815923691 0.031185666099190712 
-0.0008530871709808707 -0.061191875487565994 -0.03796401992440224 -0.08254332840442657 -0.05060325935482979 
-0.017002612352371216 -0.09823032468557358 -0.00671306112781167 0.05589896813035011 -0.11252497881650925 
0.040503405034542084 0.0072701601311564445 0.08445233106613159 0.03158092871308327 0.015744294971227646 
0.05268388241529465 0.15897759795188904 0.12338018417358398 0.08853285759687424 -0.01962839998304844 

0.03188388794660568 -0.06656715273857117 0.11010201275348663 0.08770817518234253 0.014167172834277153 
-0.06828288733959198 -0.017545392736792564 -0.07495569437742233 -0.06899276375770569 -0.07428070157766342 
-0.036369238048791885 -0.16274462640285492 -0.09768856316804886 -0.08182287961244583 -0.05864551663398743 
-0.005204405169934034 -0.0012714442564174533 -0.0438694953918457 -0.06391347199678421 -0.060843825340270996 
0.06760521233081818 0.04649820923805237 0.057741403579711914 0.07534683495759964 0.01356599759310484 

0.041404545307159424 -0.008363759145140648 -0.04993610084056854 -0.06354468315839767 0.060415588319301605 
-0.03999112546443939 0.061161596328020096 0.11245470494031906 0.17191575467586517 0.17164379358291626 
-0.10620187222957611 -0.039139918982982635 0.017653467133641243 0.008005490526556969 -0.0728163793683052 
-0.060124631971120834 -0.008535999804735184 -0.033723119646310806 0.011453776620328426 0.0030853687785565853 
0.01923956908285618 0.0087840361520648 0.09559144824743271 0.08479343354701996 -0.004762791562825441 

0.06959211826324463 0.020962141454219818 0.05425882712006569 0.05593358725309372 0.060734715312719345 
0.05727776885032654 -0.03690072149038315 -0.046777091920375824 -0.009417831897735596 -0.044696688652038574 
-0.04140967130661011 -0.06872022897005081 -0.07580554485321045 -0.08184855431318283 -0.012043138034641743 
-0.09972953051328659 -0.09288116544485092 -0.05531803518533707 -0.0298763494938612 -0.035952381789684296 
-0.02652282454073429 0.1510026901960373 0.006956047378480434 0.03179589658975601 -0.08992781490087509 

-0.049801163375377655 -0.09286104142665863 -0.08297711610794067 -0.10896650701761246 -0.05141621455550194 
-0.026384787634015083 0.011274890042841434 -0.049557287245988846 -0.04402580484747887 0.012629909440875053 
0.03708858788013458 0.20882396399974823 0.14736951887607574 0.04554356262087822 0.028734711930155754 
0.028123505413532257 0.18464604020118713 0.20027010142803192 0.07280422002077103 0.0986783355474472 
-0.034236371517181396 -0.04237288236618042 -0.02855224348604679 -0.034493587911129 -0.1373981088399887 


-0.008264097385108471 -0.035082876682281494 -0.07255148887634277 -0.04332493618130684 0.021671343594789505 
-0.03331565484404564 -0.0647520050406456 -0.00799207016825676 0.0683717429637909 -0.043271202594041824 
0.04693746566772461 -0.004457341972738504 -0.03675594553351402 -0.06579045951366425 -0.04730043187737465 
-0.054942965507507324 -0.08804383873939514 0.03292622044682503 -0.02088521607220173 -0.08882531523704529 
0.009323558770120144 -0.039923544973134995 -0.06733212620019913 0.07579901069402695 -0.064457967877388 

0.07544484734535217 0.05989233776926994 0.02310975268483162 -0.0029115898068994284 0.001365188742056489 
0.004052744712680578 -0.012175598181784153 0.016861537471413612 -0.07003790140151978 -0.015698743984103203 
-0.039013128727674484 -0.08499880880117416 -0.06775785982608795 -0.006675976328551769 -0.08094727247953415 
0.05562955141067505 -0.03538447618484497 -0.1309058666229248 0.06994648277759552 0.009688564576208591 
0.09468517452478409 -0.06540320068597794 -0.045082658529281616 0.02315676212310791 0.0688261017203331 

0.009392241947352886 -0.05589424818754196 -0.017313051968812943 -0.012911214493215084 -0.023371605202555656 
-0.005016473587602377 -0.13408054411411285 -0.09597303718328476 0.05869966372847557 0.005569832865148783 
-0.024661581963300705 -0.07785386592149734 -0.02876027673482895 0.01772177964448929 -0.12313036620616913 
-0.03505329415202141 0.07163242995738983 -0.050426121801137924 -0.04760134592652321 -0.10037432610988617 
0.022269360721111298 0.06801976263523102 0.037554800510406494 -0.03201950713992119 0.03264343738555908 

-0.007217239122837782 -0.055473849177360535 0.09099055081605911 -0.029130015522241592 -0.02719697542488575 
-0.03563109412789345 -0.10617661476135254 -0.049366626888513565 0.04931703582406044 -0.09378053992986679 
0.03968372195959091 0.01730823516845703 0.09385208785533905 -0.02412942424416542 -0.10137004405260086 
0.11010800302028656 -0.0024574981071054935 0.08664973825216293 -0.0015308146830648184 -0.14457860589027405 
0.18224197626113892 -0.009396099485456944 0.0741138607263565 0.09203130751848221 -0.13429909944534302 

-0.11028259247541428 0.06594221293926239 0.025514941662549973 -0.06189170479774475 -0.03112947940826416 
0.04541916027665138 -0.07420800626277924 0.030274976044893265 -0.05693068355321884 -0.06277380138635635 
0.028424540534615517 -0.08218881487846375 0.07247398793697357 0.0431339256465435 -0.009867915883660316 
0.006133169401437044 0.009530595503747463 -0.028148967772722244 0.009687189012765884 -0.042593181133270264 
0.04870130121707916 -0.06128324940800667 -0.06471561640501022 -0.018397415056824684 0.005896617192775011 

0.022305892780423164 -0.04941283166408539 0.09102074056863785 -0.02266324870288372 -0.04427338391542435 
-0.02324836142361164 -0.010197877883911133 0.055334627628326416 0.016525723040103912 0.0204898864030838 
-0.002014527563005686 -0.06415124982595444 0.001982077956199646 -0.04212446138262749 -0.053000159561634064 
0.0781780406832695 -0.027631422504782677 -0.006841459311544895 0.04678238928318024 -0.023553919047117233 
0.06506279855966568 0.06796104460954666 -0.01287065353244543 0.029859552159905434 -0.04658501595258713 

-0.010600516572594643 -0.017724275588989258 0.05028805881738663 0.03383677452802658 0.008096163161098957 
-0.038705091923475266 -0.06962853670120239 0.0032969049643725157 0.0003249394067097455 -0.01741383969783783 
0.014199462719261646 -0.11678005009889603 -0.04052358120679855 -0.058999817818403244 0.007539334241300821 
0.04763941094279289 -0.08383316546678543 0.018664708361029625 0.008261000737547874 -0.03283734247088432 
0.004763316363096237 -0.09832131862640381 0.07045087963342667 0.051113199442625046 -0.007588718086481094 

0.036461830139160156 0.027737867087125778 0.06643377989530563 -0.03071018122136593 0.006936608348041773 
-0.06401226669549942 -0.03303522616624832 0.06233495473861694 0.018301982432603836 -0.039199236780405045 
-0.04755498468875885 -0.09397947788238525 0.003207111731171608 -0.01747259870171547 -0.04888258874416351 
-0.006384311709553003 -0.14625826478004456 -0.04516330361366272 -0.04380543529987335 0.013583929277956486 
-0.033647630363702774 0.0018701363587751985 -0.01947248913347721 -0.020324831828475 0.018266914412379265 

0.03934689983725548 -0.07653811573982239 -0.03705476596951485 -0.008141561411321163 -0.07757582515478134 
-0.05943731218576431 -0.025920646265149117 -0.027242813259363174 0.054907895624637604 -0.08265242725610733 
0.06328104436397552 -0.023932073265314102 0.014774122275412083 -0.045993294566869736 -0.05347533896565437 
0.05790085718035698 -0.024554863572120667 0.0735967755317688 0.0623558908700943 0.0484178401529789 
0.044934339821338654 -0.08592424541711807 0.0007846707012504339 0.018154479563236237 0.007521523162722588 

0.02903040684759617 -0.04437856376171112 -0.010253766551613808 0.01476654689759016 0.012289199978113174 
0.11420270055532455 -0.024886323139071465 0.06355363130569458 0.04819011315703392 0.03392642363905907 
0.015649082139134407 0.06321285665035248 0.025940610095858574 -0.0077948239631950855 -0.013725935481488705 
-0.044987551867961884 -0.006705008912831545 -0.08566398173570633 -0.09818340092897415 -0.04345317184925079 
-0.14527003467082977 -0.021150624379515648 -0.04058342054486275 -0.013260142877697945 -0.036397844552993774 


-0.05064339563250542 -0.06402367353439331 -0.012073718011379242 -0.03098035790026188 -0.1267254650592804 
-0.0713203176856041 0.05426700785756111 -0.024938909336924553 -0.09475784748792648 -0.04784330353140831 
-0.03388851135969162 0.011518809013068676 -0.05161098763346672 -0.07324396073818207 -0.05760122090578079 
-0.010993572883307934 -0.1213841512799263 -0.021549900993704796 -0.01572585105895996 -0.047664061188697815 
-0.030357763171195984 -0.08309336751699448 -0.03870576620101929 0.020799078047275543 -0.0054104565642774105 

0.051311470568180084 0.05976090207695961 -0.005974951665848494 0.010298840701580048 -0.03955893963575363 
-0.007821357809007168 0.008352693170309067 -0.02228408493101597 -0.17926961183547974 -0.015027814544737339 
-0.021977389231324196 0.10075551271438599 0.05500414967536926 -0.19351783394813538 0.05688288062810898 
0.0123544717207551 0.040232740342617035 -0.13216422498226166 -0.1045362800359726 0.005560691934078932 
0.11047694832086563 0.0959945097565651 0.010651018470525742 -0.05297298729419708 0.014942251145839691 

-0.04894348233938217 -0.08657462894916534 -0.060329608619213104 -0.04487590491771698 -0.05185646191239357 
-0.034276675432920456 0.018004965037107468 -0.10039456188678741 -0.050641290843486786 -0.08248408138751984 
-0.055877622216939926 -0.09693197906017303 0.004501304589211941 -0.00928327813744545 -0.09280434995889664 
-0.06281004101037979 -0.02178260311484337 0.11753015220165253 -0.07142700999975204 -0.019322983920574188 
-0.02108471281826496 0.04858341068029404 -0.009293794631958008 -0.028459861874580383 -0.05463901907205582 

-0.040595073252916336 0.09454260021448135 -0.08847534656524658 -0.13315127789974213 0.06961453706026077 
-0.04154544323682785 0.0002218297158833593 -0.07399792969226837 -0.11958950012922287 -0.030979933217167854 
-0.18090665340423584 0.09112518280744553 0.016310811042785645 -0.2104632407426834 0.02519519254565239 
-0.03550826013088226 0.16750405728816986 0.04107092693448067 -0.08960326015949249 -0.025724735110998154 
-0.03292093798518181 0.08108000457286835 0.0569390244781971 -0.08656345307826996 0.04804282635450363 

0.03655033931136131 -0.024082064628601074 -0.005239799153059721 -0.014470100402832031 0.041977737098932266 
0.0411512516438961 0.07167382538318634 0.05238369107246399 -0.08360947668552399 0.04331257566809654 
0.014973709359765053 0.041135698556900024 -0.0644533559679985 -0.09759502857923508 0.06657728552818298 
0.03166486322879791 0.03742453455924988 -0.10673514753580093 -0.13601891696453094 0.0002326327667105943 
0.012137760408222675 0.04871850088238716 -0.0017082429258152843 -0.07669704407453537 -0.0043272296898067 

0.04788924753665924 -0.006464076228439808 0.0292283296585083 -0.013323784805834293 0.0036942746955901384 
0.11535815894603729 0.07363936305046082 -0.06382222473621368 0.021701106801629066 0.025882506743073463 
0.08016644418239594 0.042120736092329025 -0.040281858295202255 -0.008938858285546303 0.013628734275698662 
0.021900372579693794 0.018643641844391823 0.0058684563264250755 -0.08968482166528702 0.074969582259655 
0.03878841549158096 0.07143980264663696 0.10417817533016205 -0.06324126571416855 -0.030091436579823494 

0.12339182943105698 0.08962391316890717 -0.01005435548722744 -0.06077343225479126 -0.05984463542699814 
0.032679419964551926 -0.00809432752430439 -0.14290127158164978 -0.11651595681905746 0.050196755677461624 
0.09537423402070999 0.07123834639787674 -0.15434984862804413 -0.11070101708173752 0.06281747668981552 
0.17658738791942596 0.04728108271956444 -0.0834927186369896 -0.008790248073637486 0.07280987501144409 
0.11577152460813522 0.012448017485439777 0.028744317591190338 -0.011454609222710133 -0.035415925085544586 

0.07563509047031403 -0.030873872339725494 0.011897935532033443 -0.006637282203882933 -0.012133649550378323 
0.06621408462524414 0.07842618972063065 -0.05506223440170288 -0.09435492008924484 -0.1648961454629898 
-0.08021751046180725 -0.034202780574560165 -0.07268695533275604 -0.14079929888248444 -0.06583850085735321 
0.026694495230913162 -0.06929630786180496 -0.1347278207540512 0.006259152665734291 0.05602264404296875 
0.09288835525512695 -0.05751609429717064 0.025931470096111298 0.028068214654922485 0.04168921709060669 

0.02998194471001625 0.03262162581086159 0.05878978595137596 -0.08340040594339371 -0.0635637417435646 
-0.036378052085638046 0.031116630882024765 -0.012199877761304379 -0.06731408089399338 0.07258844375610352 
0.05525672435760498 0.10359074175357819 0.011462909169495106 0.027179956436157227 -0.06350982189178467 
0.11015403270721436 -0.0015729768201708794 -0.039805106818675995 -0.012981707230210304 -0.025454388931393623 
-0.037153199315071106 -0.04346546530723572 -0.044070273637771606 -0.06818540394306183 -0.011453812941908836 

0.025734100490808487 -0.02596661075949669 0.03590426594018936 -0.05047598481178284 -0.0873921662569046 
-0.00281873089261353 0.02834630012512207 0.06523417681455612 -0.03153759986162186 -0.02751011960208416 
-0.007205408066511154 -0.05323093384504318 0.025505341589450836 -0.09655635803937912 -0.15166860818862915 
-0.07026516646146774 -0.08952546119689941 -0.05062256380915642 -0.08631739020347595 -0.1455654799938202 
-0.06006399542093277 -0.060537099838256836 0.1268836110830307 0.006958468817174435 -0.06917186081409454 


-0.0585213378071785 -0.141057088971138 -0.019182251766324043 -0.10295070707798004 -0.046559542417526245 
0.001068468322046101 0.00612005265429616 -0.15044109523296356 -0.045904647558927536 -0.01950746215879917 
0.03209859877824783 -0.07776860892772675 -0.037715379148721695 -0.12250000983476639 -0.009543691761791706 
-0.02732725255191326 -0.03493405878543854 -0.1608138084411621 -0.1173335537314415 -0.023056697100400925 
0.0678291767835617 0.008619057014584541 -0.04752625524997711 -0.12640222907066345 -0.09927044808864594 

0.05928892269730568 -0.029818220064044 0.01721397414803505 -0.038129985332489014 0.01801581308245659 
0.0120368842035532 0.0479729026556015 -0.021509241312742233 -0.024965276941657066 0.14554424583911896 
-0.020833011716604233 0.05768003314733505 -0.11143246293067932 0.005664363037794828 0.1661578267812729 
0.01039817649871111 -0.1303614228963852 -0.03722905367612839 0.01442909799516201 0.04139525815844536 
-0.07544834166765213 0.0811617448925972 0.0034242263063788414 0.024606334045529366 -0.08643650263547897 

-0.007851367816329002 -0.02234518527984619 -0.06696507334709167 -0.06559740006923676 -0.060622356832027435 
-0.012539313174784184 0.044381026178598404 0.004961359780281782 -0.08142475038766861 -0.0071386126801371574 
0.03931422531604767 0.009231670759618282 0.05138185992836952 -0.14071646332740784 0.13093358278274536 
0.061547499150037766 0.05761764943599701 -0.06431280821561813 -0.051347341388463974 0.1308988332748413 
0.011072762310504913 -0.10731619596481323 -0.09728819131851196 -0.0494549423456192 0.026991503313183784 

-0.034150730818510056 -0.01847679167985916 -0.013868091627955437 0.02805795520544052 0.11375917494297028 
0.05292845144867897 0.0738426074385643 -0.041474420577287674 -0.023681020364165306 0.23782023787498474 
0.03233414143323898 0.09416844695806503 -0.1038818433880806 -0.05212505906820297 0.2578246593475342 
-0.011720318347215652 -0.04352478310465813 -0.22499211132526398 0.04602977633476257 0.1403244137763977 
-0.06353504210710526 -0.06061752513051033 -0.16005858778953552 0.10703237354755402 0.2032121866941452 

0.021074624732136726 -0.03847315162420273 -0.0872180312871933 0.0263550765812397 -0.002258028369396925 
-0.010326541028916836 -0.1244993805885315 -0.03040541522204876 -0.05661351606249809 0.011948458850383759 
0.008899779058992863 -0.05876275524497032 -0.01898539625108242 -0.08996198326349258 -0.07492560893297195 
-0.09813835471868515 -0.11494948714971542 -0.027980513870716095 -0.008954646065831184 -0.0178231094032526 
-0.07776522636413574 0.05032467842102051 0.026259224861860275 0.0280605498701334 0.10247773677110672 

-0.01164242159575224 0.02498077228665352 0.08370628207921982 0.0502111092209816 0.060058992356061935 
-0.05383477732539177 0.036733269691467285 0.03792928531765938 0.047219276428222656 -0.056511446833610535 
-0.05880233645439148 -0.03496797755360603 0.03409682959318161 0.04091322794556618 0.007818627171218395 
0.016530659049749374 -0.04890694469213486 -0.06553557515144348 -0.04914836585521698 -0.009484284557402134 
0.00435952004045248 -0.0345972441136837 -0.006651801988482475 -0.05095537751913071 0.06499601155519485 

-0.050246644765138626 -0.02659621275961399 0.053433261811733246 0.00722136627882719 -0.05507301911711693 
-0.037940654903650284 -0.1033235490322113 -0.013603727333247662 0.10891619324684143 0.028725942596793175 
-0.08197305351495743 -0.05838344618678093 0.003696928033605218 0.12774191796779633 -0.09448551386594772 
-0.07568605989217758 0.0471191443502903 0.011018569581210613 0.09352368116378784 -0.06054666265845299 
0.09537488222122192 0.1334596425294876 0.16557832062244415 -0.028035609051585197 0.0028680518735200167 

-0.032353486865758896 -0.02012765221297741 -0.06662451475858688 -0.15923234820365906 -0.08151998370885849 
-0.04279695451259613 -0.013770733028650284 -0.061704643070697784 -0.10361970216035843 -0.051360104233026505 
0.02629714086651802 -0.03459671884775162 -0.10925958305597305 -0.11352670192718506 -0.04248536378145218 
-0.02290651760995388 -0.12515763938426971 -0.08884616941213608 -0.013205371797084808 -0.031987860798835754 
-0.041389185935258865 -0.040426984429359436 -0.03456795588135719 0.0007973350002430379 -0.032415956258773804 

-0.016328103840351105 0.0265786275267601 -0.02882697805762291 -0.027970440685749054 0.06915029883384705 
-0.0441577211022377 -0.005033263936638832 -0.029702994972467422 0.0358409509062767 0.05151309072971344 
-0.04274144768714905 0.08911815285682678 0.05172412469983101 0.03285393863916397 -0.004344496410340071 
-0.02410743571817875 0.01967800408601761 0.062451720237731934 -0.05017605796456337 -0.06256114691495895 
0.08320019394159317 -0.023960081860423088 0.010402536951005459 -0.04306568577885628 -0.040502749383449554 

-0.06446532160043716 -0.09797193109989166 -0.036757130175828934 -0.05679281800985336 -0.09048119187355042 
-0.10048259794712067 0.02206357568502426 0.021643193438649178 -0.06935488432645798 -0.028815552592277527 
-0.0015874711098149419 0.09136362373828888 -0.06717582792043686 -0.1062449961900711 -0.03550247102975845 
-0.08347912132740021 0.01675521768629551 -0.07953227311372757 -0.11285783350467682 -0.039283111691474915 
0.03794533386826515 -0.01875733956694603 -0.1446601152420044 -0.09196599572896957 0.142342671751976 


-0.00012871903891209513 0.06978015601634979 -0.05077559873461723 -0.019708095118403435 -0.06541162729263306 
0.005399487912654877 -0.0702904686331749 -0.11517667025327682 -0.0271159540861845 0.014865512028336525 
-0.06814250349998474 0.032320987433195114 -0.09137607365846634 -0.1422034054994583 -0.13166633248329163 
-0.11552552133798599 -0.001932033454068005 0.03669033572077751 0.12161483615636826 -0.009015912190079689 
-0.051005952060222626 -0.1070123091340065 -0.06725932657718658 0.15059612691402435 0.016418378800153732 

0.1021576076745987 0.04822082072496414 0.03630823269486427 0.05951441079378128 -0.0558752566576004 
-0.02060910314321518 -0.06781630218029022 0.015132006257772446 0.11468437314033508 0.08560382574796677 
-0.09120012819766998 -0.054517295211553574 -0.022756952792406082 0.051517631858587265 -0.01736847124993801 
-0.0684133768081665 -0.15641513466835022 -0.0972914919257164 -0.030571382492780685 0.011018137447535992 
0.021331919357180595 -0.10865518450737 -0.09365084022283554 -0.03943526744842529 0.06925119459629059 

-0.11963622272014618 -0.005646098870784044 -0.030249059200286865 0.007182983215898275 0.05990263447165489 
-0.03199150413274765 0.05404861643910408 0.09558716416358948 -0.04341506212949753 -0.04505116492509842 
-0.14877241849899292 0.009696478955447674 -0.03546106815338135 -0.03881995752453804 -0.007327310275286436 
-0.0519736222922802 -0.15800192952156067 -0.08852722495794296 -0.030199872329831123 0.10371268540620804 
-0.049510180950164795 0.039523810148239136 -0.06540782004594803 -0.012112205848097801 0.007116024848073721 

-0.0035124870482832193 -0.050918083637952805 -0.0514451339840889 -0.07986418902873993 -0.018077095970511436 
0.01566498726606369 -0.11248648166656494 -0.0674862340092659 0.023394117131829262 -0.0068848151713609695 
0.13517813384532928 -0.022403787821531296 -0.04175744950771332 0.22539721429347992 -0.11460898816585541 
0.1290455013513565 0.09535165131092072 -0.08070721477270126 0.08964404463768005 0.025671204552054405 
0.01241935696452856 0.08202353119850159 -0.1864042431116104 -0.11554372310638428 -0.025742575526237488 

-0.026957714930176735 0.05499834194779396 -0.0075865802355110645 -0.04656499996781349 0.007027863059192896 
-0.05483928695321083 -0.08020471781492233 0.10634397715330124 0.05303521081805229 -0.0214803759008646 
-0.018962925300002098 -0.12071645259857178 -0.06467626988887787 0.14197926223278046 -0.07004278153181076 
0.060547277331352234 -0.0363977812230587 -0.1500827819108963 0.021355150267481804 -0.010926197282969952 
-0.018298353999853134 0.1235087439417839 0.0663575530052185 -0.033256642520427704 -0.005536802113056183 

-0.04254084825515747 0.07012927532196045 0.05532139167189598 0.024427594617009163 -0.04336242377758026 
-0.007597498130053282 0.025652410462498665 0.009389227256178856 0.001420151791535318 -0.008911148644983768 
0.027457168325781822 0.040260326117277145 0.030257942155003548 0.12004286795854568 0.08347833156585693 
0.07221193611621857 -0.045442163944244385 -0.029551910236477852 0.08816718310117722 0.1030869260430336 
0.07415399700403214 0.02607451006770134 -0.012790725566446781 -0.020293885841965675 -0.05491935834288597 

-0.03725874423980713 -0.005196551326662302 0.05780239403247833 -0.042674530297517776 0.055038172751665115 
0.015985166653990746 -0.02415461279451847 0.10948094725608826 -0.002296912018209696 0.011325334198772907 
-0.07942294329404831 -0.14554740488529205 -0.01446378044784069 0.05384000390768051 0.0021497528068721294 
0.032396916300058365 -0.17926423251628876 -0.15382418036460876 -0.017713988199830055 0.015101631172001362 
0.04257069528102875 -0.07060221582651138 -0.14780588448047638 -0.15139982104301453 -0.07378939539194107 

0.00887245498597622 0.04207487776875496 -0.0009063932811841369 0.0009657875634729862 -0.10049217194318771 
-0.05856433883309364 -0.08606020361185074 0.015850696712732315 -0.15214087069034576 -0.04958998039364815 
-0.26291772723197937 -0.08238411694765091 0.18339328467845917 0.10773982852697372 -0.057966381311416626 
-0.16824330389499664 -0.1859932243824005 0.04423445835709572 0.12777860462665558 0.023198826238512993 
-0.0340563990175724 -0.10919228196144104 -0.12025253474712372 -0.07746654003858566 -0.005461195483803749 

-0.04329203814268112 0.0867905393242836 0.11001504212617874 0.09143936634063721 -0.08095591515302658 
0.08774148672819138 0.05699455738067627 0.05052141100168228 0.12323112785816193 -0.04614674299955368 
-0.05404694750905037 -0.07874389737844467 -0.1154150739312172 0.04255220666527748 0.021868035197257996 
-0.09463563561439514 -0.13210760056972504 -0.038143280893564224 -0.052037227898836136 0.034752022475004196 
-0.029634661972522736 -0.006724076345562935 0.0029733674600720406 0.026016850024461746 0.06262814998626709 

0.04448103532195091 -0.07441337406635284 -0.025028163567185402 -0.01838146522641182 -0.013551277108490467 
0.04515714570879936 -0.04608762264251709 -0.05028778687119484 0.10483468323945999 0.016703855246305466 
0.14720754325389862 -0.11982656270265579 -0.18719907104969025 -0.005282046273350716 0.04566625505685806 
-0.07841570675373077 0.2794865071773529 -0.01288496982306242 -0.09966065734624863 0.08714929223060608 
-0.19696186482906342 0.10040111094713211 0.27806904911994934 0.009788690134882927 -0.008314820006489754 


-0.05322377383708954 0.003065621480345726 0.01790725439786911 0.025899844244122505 -0.010758483782410622 
-0.020753968507051468 0.017473166808485985 0.044865187257528305 0.09831442683935165 -0.052467651665210724 
-0.03760434314608574 0.09908249974250793 0.05742543563246727 -0.008775191381573677 -0.012916924431920052 
-0.01958603784441948 -0.01678876392543316 -0.10100361704826355 -0.04605939984321594 -0.06147211417555809 
-0.05468226969242096 -0.05411349609494209 0.0061362748965620995 -0.16739828884601593 -0.15584443509578705 

-0.00881081074476242 -0.021094178780913353 0.010188461281359196 -0.1321399211883545 -0.05336989089846611 
0.1128091886639595 0.1082594022154808 0.02327187918126583 -0.06867014616727829 -0.00832335650920868 
0.1384374350309372 0.04638718068599701 0.06440399587154388 0.0072873313911259174 0.10893340408802032 
0.015470693819224834 0.030112452805042267 0.06180489808320999 0.046913061290979385 0.003150656819343567 
-0.07591129839420319 0.01589125208556652 0.052808698266744614 -0.02587149105966091 -0.10100459307432175 

-0.07220156490802765 0.04959786310791969 0.000664514082018286 0.04402074217796326 0.04951194301247597 
-0.12067514657974243 0.1587805300951004 0.1368541568517685 0.035138655453920364 -0.12498874962329865 
0.12302418053150177 0.10157826542854309 -0.04829053953289986 -0.11147867888212204 -0.09120331704616547 
0.10904854536056519 -0.05517631396651268 -0.07350216805934906 -0.0862097442150116 -0.028495311737060547 
-0.10590182989835739 -0.033011294901371 -0.03492042422294617 0.004525646101683378 -0.03378608450293541 

-0.0952795073390007 0.01018965058028698 0.07035064697265625 0.009723394177854061 -0.03807726874947548 
0.06055520847439766 0.016264284029603004 -0.13732101023197174 -0.0009302385151386261 -0.018130047246813774 
0.01605703867971897 0.010735481977462769 -0.03340333700180054 -0.04704107716679573 0.026771102100610733 
0.0035856349859386683 -0.06574060022830963 -0.10770440101623535 -0.11981233954429626 0.004855790175497532 
0.021566780284047127 0.022234968841075897 -0.08071017265319824 -0.08353870362043381 -0.07337011396884918 

-0.04789034649729729 0.03363003954291344 0.047028183937072754 0.00023573442013002932 -0.01992618478834629 
0.10318295657634735 -0.04511692747473717 -0.17525696754455566 -0.06130376085639 0.009064625017344952 
0.0034166723489761353 -0.05487892031669617 -0.05091609060764313 -0.010860739275813103 0.006250451318919659 
-0.01969023048877716 0.05841562896966934 0.029595501720905304 0.022085245698690414 0.026347700506448746 
0.036167994141578674 0.005577961914241314 0.014163879677653313 0.02608610689640045 -0.015592862851917744 

0.04790358617901802 -0.021853050217032433 -0.015394175425171852 -0.09254716336727142 -0.04148927330970764 
0.007827922701835632 0.0014717174926772714 -0.09049571305513382 -0.013581405393779278 -0.05070894584059715 
-0.05428420007228851 -0.0076353480108082294 0.025480978190898895 0.06629610806703568 0.009378919377923012 
-0.043568454682826996 -0.01667092554271221 0.0620991550385952 0.054920513182878494 0.04224400222301483 
-0.03358766436576843 0.03730785474181175 -0.0019004601053893566 0.009056570939719677 -0.00853416696190834 

-0.02563437819480896 0.006750083994120359 -0.1377798318862915 -0.12021026015281677 -0.017352959141135216 
-0.00774527108296752 -0.08739816397428513 -0.024867014959454536 -0.049943916499614716 0.06547071784734726 
-0.023516515269875526 -0.09631635993719101 0.051982492208480835 0.06090749055147171 0.08009127527475357 
-0.04732513055205345 0.048891909420490265 0.0725082978606224 0.07068521529436111 -0.008283747360110283 
0.0032680330332368612 -0.010690354742109776 -0.011441039852797985 -0.009216687642037868 0.012411713600158691 

-0.06759414821863174 0.024272959679365158 -0.005746850278228521 -0.04613626003265381 -0.08002568036317825 
0.14063559472560883 0.035364553332328796 -0.03581688925623894 -0.06882476061582565 -0.0711083933711052 
-0.10970453917980194 -0.13574932515621185 -0.0016536398325115442 0.03765268251299858 -0.008284294046461582 
-0.12920644879341125 0.07068760693073273 0.10361312329769135 0.02623753249645233 -0.04269414022564888 
-0.04883479326963425 0.0336456373333931 0.011986429803073406 -0.02574138343334198 -0.081288181245327 

-0.01907678134739399 0.023758539929986 0.09327754378318787 -0.008654525503516197 0.09941703826189041 
0.10215914249420166 0.024253927171230316 0.04718644171953201 0.009457034058868885 0.13055945932865143 
0.004297005012631416 0.06182766705751419 -0.0188226830214262 -0.01859298162162304 -0.042121708393096924 
0.007909506559371948 -0.028515074402093887 -0.08242133259773254 -0.01731187105178833 -0.05605950951576233 
-0.04462732374668121 -0.06895145028829575 0.03615754470229149 -0.009978892281651497 -0.03664523735642433 

0.06522732973098755 0.08823772519826889 0.005175902042537928 -0.024636266753077507 0.04220937192440033 
-0.14328227937221527 -0.1370192915201187 -0.09919989109039307 -0.02989811822772026 0.10349813103675842 
-0.1387544721364975 -0.07238353788852692 0.07696143537759781 0.10413947701454163 0.0553920678794384 
-0.05411698669195175 -0.007478651590645313 0.00685478001832962 -0.048201803117990494 0.0732494369149208 
-0.005293963011354208 -0.007490966003388166 0.0667489767074585 0.04267944395542145 0.03475320339202881 


-0.10759087651968002 -0.10242082178592682 0.04433358088135719 0.011791659519076347 -0.036241788417100906 
0.04188507795333862 -0.03454088047146797 0.016351204365491867 -0.07630061358213425 -0.004902976565063 
-0.04021156579256058 0.07691768556833267 0.05425624921917915 -0.0077153886668384075 -0.05221761018037796 
-0.02970314584672451 -0.03212323784828186 0.08892149478197098 0.1315905600786209 0.041762419044971466 
-0.10021647065877914 -0.10379192233085632 -0.07881194353103638 0.004540868103504181 0.04751170426607132 

0.001968022435903549 -0.05947170406579971 0.0365779735147953 0.08567075431346893 0.04896938428282738 
0.02541699819266796 -0.05919491499662399 0.01841365173459053 -0.1141236200928688 -0.04585243761539459 
-0.04140812158584595 -0.020332833752036095 0.04372198507189751 0.1579093486070633 0.011700359173119068 
0.006047424394637346 -0.07742240279912949 -0.09727419167757034 0.009536579251289368 0.046967774629592896 
-0.01214919239282608 -0.09929516166448593 -0.10517857223749161 -0.04721163213253021 -0.044747449457645416 

-0.07735863327980042 0.05459791049361229 0.04732603207230568 0.012504762038588524 -0.002423628931865096 
-0.05354541912674904 -0.015860728919506073 -0.03394719958305359 -0.10351657122373581 -0.03817543759942055 
-0.042294420301914215 -0.052418921142816544 -0.032749149948358536 -0.08117017149925232 0.022376079112291336 
-0.08084306120872498 -0.06187007948756218 0.027772467583417892 -0.11633613705635071 -0.08534752577543259 
-0.061125412583351135 -0.10128013789653778 0.06278228759765625 0.01712442748248577 -0.022605380043387413 

-0.011438432149589062 -0.021523799747228622 -0.04284858703613281 0.028056882321834564 -0.0008439589873887599 
-0.0545203723013401 -0.07011251151561737 -0.05548953264951706 -0.06740708649158478 -0.03693221136927605 
-0.12638860940933228 -0.07702796906232834 -0.15763407945632935 -0.12568296492099762 -0.04731285199522972 
-0.02614320069551468 -0.04845719411969185 0.045880261808633804 -0.04435953497886658 -0.13112761080265045 
-0.009966290555894375 0.059767384082078934 0.049690842628479004 0.009339749813079834 -0.1150994673371315 

0.010980483144521713 0.051141005009412766 -0.032360710203647614 -0.06440164893865585 0.04455653950572014 
0.06104278936982155 -0.01366490125656128 0.0011763034854084253 0.01965135708451271 0.06404432654380798 
-0.06471224129199982 0.015059498138725758 0.06586119532585144 0.06502420455217361 0.10023780167102814 
0.10143335163593292 -0.059868235141038895 -0.040581803768873215 -0.07441845536231995 0.009613856673240662 
0.03446628898382187 0.051253803074359894 -0.047189608216285706 -0.049433279782533646 -0.05244794115424156 

0.05871904268860817 0.01901194266974926 0.07024111598730087 0.017611613497138023 0.04046507552266121 
0.020732462406158447 0.07330170273780823 0.027129385620355606 0.02738809771835804 0.05240240693092346 
0.015519080683588982 -0.01992950774729252 0.03839118406176567 0.12839031219482422 0.12878450751304626 
-0.04721240699291229 -0.02997780404984951 -0.07165668159723282 -0.052340444177389145 0.0007684544543735683 
0.0817258283495903 0.01782413385808468 -0.06180297210812569 -0.021179500967264175 0.0033637399319559336 

-0.040994949638843536 -0.07999850809574127 0.007203332148492336 0.03382182493805885 -0.018096258863806725 
0.0430588535964489 0.07639244198799133 0.08374731987714767 0.06211254373192787 0.1040487289428711 
-0.062234003096818924 -0.020308945327997208 0.03692471981048584 0.0946512296795845 0.08035773783922195 
0.04628932476043701 -0.15497209131717682 -0.15917716920375824 -0.08372556418180466 0.010407685302197933 
0.06138138100504875 -0.005918546579778194 0.005836044438183308 -0.0833427831530571 -0.025778910145163536 

-0.09394006431102753 -0.020909922197461128 -0.024421392008662224 -0.07457470893859863 -0.11820729821920395 
0.007594574708491564 -0.012613683007657528 -0.06016457825899124 -0.06967399269342422 -0.04106798768043518 
0.006936207413673401 0.07529686391353607 0.1793503612279892 0.09529624134302139 0.11727730929851532 
-0.09485644102096558 -0.0028377315029501915 0.015274939127266407 0.11867201328277588 0.19455108046531677 
-0.08095104247331619 -0.08003803342580795 -0.07223378866910934 0.04316814988851547 -0.03853612393140793 

-0.02165486291050911 -0.0683349147439003 -0.01104898750782013 -0.09376168996095657 -0.026827003806829453 
0.01625746302306652 -0.06821620464324951 -0.06344372779130936 0.018625615164637566 -0.072222501039505 
-0.02582032047212124 -0.04082011803984642 0.00913894735276699 -0.04699847474694252 -0.02656942419707775 
-0.015620280988514423 -0.09990102797746658 0.021871842443943024 0.04870498925447464 -0.040824536234140396 
-0.050074636936187744 -0.07298459857702255 0.004720622207969427 0.002391749992966652 -0.05337592214345932 

-0.04195421561598778 -0.0028964392840862274 0.019292235374450684 -0.06970002502202988 -0.11633873730897903 
0.020927809178829193 -0.01533466950058937 0.11657626926898956 0.11802218109369278 0.08905871212482452 
-0.021027902141213417 -0.04870418831706047 -0.07737724483013153 -0.06157667189836502 -0.0011905375868082047 
0.06146736815571785 -0.00811490137130022 0.044439248740673065 0.04163140058517456 -0.10329397022724152 
0.010112584568560123 0.1544070839881897 0.050606802105903625 0.02955741435289383 0.05762465298175812 


-0.03141234815120697 -0.1031954437494278 -0.09639833867549896 -0.030405843630433083 -0.009013713337481022 
-0.052729371935129166 -0.10366833209991455 0.024935774505138397 0.0886555016040802 0.062189552932977676 
-0.16127221286296844 -0.0013862227788195014 -0.026002686470746994 0.09466224163770676 0.1242036446928978 
-0.0009630295680835843 -0.03745017945766449 0.022977855056524277 0.02935214154422283 0.03300180658698082 
-0.015040518715977669 -0.0512467622756958 0.04763904586434364 -0.005250491201877594 0.021096913143992424 

-0.032010260969400406 -0.108866848051548 0.015613337978720665 0.07291962206363678 0.003861046629026532 
-0.016198264434933662 0.01450119074434042 0.15592727065086365 0.04723547399044037 0.02194789983332157 
0.11992308497428894 0.030589483678340912 0.059065382927656174 -0.0074396380223333836 0.015866298228502274 
0.041005007922649384 -0.037550896406173706 -0.06889666616916656 -0.057384781539440155 -0.00615827739238739 
-0.018069839105010033 0.029764406383037567 -0.05666545033454895 -0.040808625519275665 -0.08935662358999252 

-0.021794479340314865 -0.05121592432260513 -0.07665198296308517 0.025949686765670776 0.005000868812203407 
-0.04226696491241455 -0.07596014440059662 -0.07584807276725769 0.05995602905750275 0.012390589341521263 
-0.05041184648871422 -0.07141026109457016 0.12590870261192322 0.1269514411687851 0.05123784393072128 
-0.026620207354426384 0.06337279081344604 0.15957392752170563 0.00868999119848013 -0.037214674055576324 
0.04215013235807419 0.07123566418886185 0.00085809564916417 -0.10577701777219772 -0.06617093086242676 

0.0729374960064888 -0.0008154279203154147 0.057040609419345856 0.022203611209988594 0.028026845306158066 
0.03136582672595978 -0.12450148910284042 0.0021466179750859737 0.04209407418966293 0.0274551622569561 
0.002801784547045827 -0.046283360570669174 -0.04957783967256546 -0.08271300047636032 -0.0892324447631836 
-0.051779765635728836 -0.07194745540618896 -0.0897115096449852 -0.07743299752473831 -0.10907765477895737 
-0.031837742775678635 -0.0521097294986248 -0.13003547489643097 -0.06120001897215843 -0.10135039687156677 

-0.01133293379098177 -0.021601777523756027 0.012250916101038456 0.009465738199651241 0.0054056099615991116 
0.020964663475751877 0.027019524946808815 -0.007467907853424549 -0.05812496319413185 -0.1735852062702179 
0.05618198588490486 -0.05789383500814438 -0.100298672914505 -0.06150561943650246 -0.010376096703112125 
-0.02054297924041748 -0.07880162447690964 -0.12753194570541382 -0.0396370105445385 -0.018419770523905754 
0.012128741480410099 -0.12001650035381317 -0.030954670161008835 0.019289501011371613 0.021105676889419556 

0.10408095270395279 0.0484224371612072 0.03045126236975193 -0.0026555871590971947 -0.03277059271931648 
0.07937760651111603 0.03259998932480812 -0.010925945825874805 0.03428234905004501 -0.11105839908123016 
-0.02739357203245163 0.012270105071365833 -0.019109657034277916 -0.023504626005887985 -0.05873851478099823 
0.044497355818748474 -0.09976217895746231 -0.03918442130088806 -0.0002610456431284547 -0.04419036582112312 
0.03274071589112282 0.016653627157211304 -0.10364942997694016 -0.015103264711797237 0.06810218840837479 

-0.009049826301634312 0.03889397159218788 0.03788617625832558 0.0562913715839386 -0.08869481831789017 
0.05069315433502197 0.06548940390348434 -0.0026175931561738253 -0.017954204231500626 -0.07215197384357452 
-0.002293144352734089 -0.07764150202274323 -0.04240705445408821 -0.08527858555316925 8.16260671854252e-06 
-0.08072956651449203 -0.13844914734363556 -0.1485452800989151 -0.026993656530976295 0.041776422411203384 
-0.08324424177408218 -0.028245164081454277 -0.052977561950683594 0.04640445485711098 0.09673081338405609 

-0.11028629541397095 -0.12949641048908234 -0.02568785287439823 0.045055802911520004 -0.05296787992119789 
-0.09685883671045303 0.008495873771607876 0.04288063570857048 0.025226213037967682 0.0013223905116319656 
-0.01880234107375145 0.00370701658539474 0.03358343616127968 -0.0362442284822464 0.01791304349899292 
-0.01817319355905056 -0.001775133772753179 -0.1312142014503479 -0.027515912428498268 0.03933368995785713 
-0.13609959185123444 -0.041399143636226654 -0.04229167848825455 -0.04905608668923378 -0.026057880371809006 

0.04004867374897003 -0.04900314658880234 -0.02106669545173645 0.052423082292079926 0.012122630141675472 
-0.034180983901023865 0.02790139801800251 0.017408164218068123 0.09620676189661026 0.03437601029872894 
-0.035253338515758514 0.035145778208971024 0.05521854758262634 0.09271903336048126 0.0447632297873497 
0.09971398860216141 0.04936204105615616 -0.02070384845137596 -0.039663225412368774 0.024126306176185608 
0.005531366914510727 -0.017124570906162262 -0.03781132772564888 -0.09766494482755661 0.024656711146235466 

-0.01142706349492073 0.01839139685034752 0.0026287308428436518 -0.0547529011964798 -0.019375082105398178 
0.06664527952671051 0.012902085669338703 -0.09645868837833405 -0.11781735718250275 -0.03938428312540054 
0.02757018432021141 -0.09969838708639145 -0.032783277332782745 -0.10776419192552567 0.025006737560033798 
-0.1120949387550354 -0.12951894104480743 -0.01836872287094593 0.03370359167456627 0.14422067999839783 
-0.07213427871465683 -0.051672376692295074 0.04414578527212143 0.09186558425426483 0.044390998780727386 


-0.0938202440738678 -0.029427984729409218 -0.04466358572244644 -0.04631190747022629 -0.11321670562028885 
-0.029875224456191063 -0.08709917217493057 -0.07915026694536209 -0.18076233565807343 -0.2054992914199829 
0.003481101244688034 0.051494430750608444 0.052730437368154526 0.009585471823811531 -0.023585554212331772 
-0.005996947642415762 0.006607509218156338 -0.016863854601979256 0.07034512609243393 -0.05022913217544556 
-0.0086207315325737 0.03395587578415871 -0.012574617750942707 0.04903065040707588 0.03499903529882431 

-0.044132184237241745 0.08901065587997437 0.03942437097430229 -0.028180504217743874 0.041760269552469254 
0.11375107616186142 0.021554693579673767 0.04866385832428932 -0.02657240815460682 -0.01036714855581522 
0.04030713811516762 0.010377994738519192 -0.051690682768821716 -0.00909208133816719 0.05802462622523308 
0.009297649376094341 -0.017801882699131966 -0.05947073549032211 -0.0822027176618576 0.029881225898861885 
-0.0753573328256607 -0.016475584357976913 -0.07176932692527771 -0.03079170733690262 0.004944376181811094 

-0.1726752370595932 -0.11243360489606857 0.06115412712097168 0.03823860362172127 0.007486695423722267 
-0.07692889869213104 -0.10950130969285965 0.02334575727581978 -0.06871986389160156 -0.043484535068273544 
0.019743023440241814 -0.11800196766853333 -0.05296938121318817 -0.08967960625886917 -0.03741782531142235 
-0.06340310722589493 0.042132701724767685 0.004676303826272488 -0.009060364216566086 0.01272928062826395 
-0.01721501350402832 -0.050341662019491196 0.047417234629392624 -0.02381577342748642 -0.020189417526125908 

-0.19143584370613098 -0.11957411468029022 -0.0006128352833911777 0.02429337054491043 0.01745995506644249 
-0.08726392686367035 -0.10622072964906693 -0.052142996340990067 -0.1082221269607544 -0.030754292383790016 
-0.025474144145846367 -0.05888637527823448 -0.07141931354999542 -0.10687478631734848 -0.04926115646958351 
-0.07159917801618576 -0.02936333231627941 0.05142946541309357 0.03467486798763275 -0.030408184975385666 
0.01920967921614647 -0.053917400538921356 -0.014668187126517296 0.031225988641381264 -0.05809519439935684 

0.01354010310024023 -0.027084050700068474 0.05016591399908066 0.08535691350698471 0.06929674744606018 
0.0102674700319767 0.08598724007606506 0.029878821223974228 0.06773998588323593 0.08037959039211273 
0.001957040512934327 -0.09217048436403275 -0.09339573979377747 -0.005587243475019932 0.038399383425712585 
0.03575383126735687 -0.02196979522705078 -0.039888784289360046 -0.0728212520480156 -0.01747869700193405 
-0.07665073871612549 0.01948794163763523 0.025750301778316498 -0.026481278240680695 0.0084136463701725 

0.01857142709195614 0.072512686252594 0.12870854139328003 0.02923915907740593 0.07572922110557556 
0.03637610003352165 -0.02453926019370556 0.07901692390441895 0.10747049003839493 0.03310716897249222 
-0.06810712069272995 -0.09373322874307632 -0.09891575574874878 0.05651601031422615 0.08881901949644089 
-0.002462511882185936 -0.0677279680967331 -0.08010764420032501 0.05738680437207222 -0.08198387175798416 
0.08111872524023056 0.0053854165598750114 -0.009218537248671055 -0.07099732756614685 0.02423468604683876 

0.047338295727968216 0.008498880080878735 0.08491525053977966 0.06233225762844086 -0.03943813219666481 
0.026938680559396744 -0.06182730570435524 0.02778216078877449 0.06524751335382462 0.04176754131913185 
-0.07702872902154922 -0.06801500916481018 -0.07696698606014252 -0.014146045781672001 -0.044736068695783615 
-0.03344208002090454 -0.16214686632156372 -0.10002260655164719 -0.02711491845548153 -0.004129312466830015 
0.027904169633984566 -0.04349976032972336 -0.09934568405151367 -0.11198525130748749 -0.011790779419243336 

-0.011461910791695118 -0.04358803108334541 -0.0426064096391201 -0.06995332986116409 -0.023998402059078217 
0.041196923702955246 0.028360243886709213 0.02736787497997284 0.08561667799949646 -0.0034042445477098227 
0.016841327771544456 0.0017528609605506063 0.06938415765762329 -0.013938126154243946 0.10734493285417557 
-0.04243217781186104 0.03591535985469818 0.013211839832365513 0.09387075901031494 0.002487244550138712 
-0.1127675399184227 -0.05206075683236122 -0.03904733061790466 0.0437142476439476 -0.02302028425037861 

-0.06642477214336395 -0.03582463040947914 -0.01549004390835762 -0.06354014575481415 -0.004859933629631996 
0.08051779121160507 -0.016804412007331848 -0.0916256383061409 -0.1079559475183487 -0.09822124987840652 
0.09737306088209152 0.01614425517618656 0.018764719367027283 0.03845696151256561 0.04165733605623245 
-0.046251703053712845 -0.06561757624149323 0.010122692212462425 -0.04837362840771675 -0.03131011873483658 
0.07017409801483154 -0.04620155319571495 0.04753195866942406 -0.013685062527656555 -0.07823703438043594 

-0.000770942191593349 -0.08489697426557541 -0.03417778015136719 0.03337208554148674 0.13290409743785858 
-0.06241269409656525 -0.1164611205458641 -0.08984269201755524 -0.02068333700299263 -0.06749551743268967 
-0.02887541614472866 -0.0024108202196657658 -0.0021386276930570602 -0.06800088286399841 -0.14273612201213837 
-0.0488487146794796 0.0902610719203949 0.11474346369504929 0.03994445502758026 0.06293372809886932 
0.12374848127365112 0.10787996649742126 0.08744562417268753 0.07284977287054062 0.03648271784186363 


0.03629714995622635 0.020950715988874435 -0.05793944373726845 -0.03422403708100319 -0.0050592985935509205 
-0.12333101034164429 0.013149826787412167 0.18226203322410583 0.1406000256538391 -0.055182084441185 
-0.12179600447416306 -0.08359414339065552 -0.09946757555007935 -0.06938186287879944 -0.09808275103569031 
0.02797110378742218 -0.020739391446113586 -0.06414900720119476 -0.05814230442047119 -0.06663532555103302 
0.021965516731142998 0.01913498528301716 -0.12657222151756287 -0.11794239282608032 -0.04749555513262749 

-0.003909970633685589 0.0873865932226181 0.13141699135303497 0.0556456483900547 -0.12237665802240372 
0.027918562293052673 0.018596120178699493 -0.09037774801254272 -0.10729598999023438 -0.1556478589773178 
-0.06558456271886826 -0.013615078292787075 0.04051528871059418 0.034984756261110306 0.009165703319013119 
0.09068045765161514 0.07660528272390366 0.12060839682817459 0.08193084597587585 -0.02127016894519329 
0.05175892263650894 0.042005814611911774 -0.023989927023649216 -0.050049882382154465 0.017388874664902687 

-0.048509638756513596 -0.09401430934667587 0.011840707622468472 -0.014769482426345348 -0.04787401854991913 
-0.040348682552576065 0.0005606174818240106 -0.04291560873389244 -0.10931796580553055 -0.13067211210727692 
0.030436156317591667 -0.08563549816608429 -0.12843108177185059 -0.10347778350114822 -0.07921339571475983 
-0.12160973250865936 -0.02469206228852272 0.03354493901133537 -0.0001635779917705804 -0.03873874247074127 
0.028503747656941414 0.06935758143663406 -0.0521877184510231 -0.003939045127481222 -0.030383236706256866 

0.03326931968331337 -0.011507181450724602 -0.024661561474204063 -0.10031608492136002 -0.03670072183012962 
-0.06579792499542236 -0.03201928362250328 -0.021428773179650307 -0.11083915829658508 -0.11583096534013748 
-0.007651456166058779 -0.015423456206917763 -0.07909482717514038 -0.10127446055412292 -0.029045337811112404 
-0.10978330671787262 -0.08909909427165985 0.025773579254746437 -0.06423116475343704 0.003111796220764518 
0.06225772202014923 0.03211791068315506 -0.01850142516195774 -0.04985226318240166 -0.01278099324554205 

-0.030478576198220253 0.03598219156265259 -0.012840828858315945 -0.03618449717760086 -0.06120506674051285 
-0.09698551893234253 -0.13148395717144012 -0.06001376360654831 -0.013545544818043709 -0.0009206084068864584 
0.1752520650625229 0.15763886272907257 0.20127639174461365 0.05182066187262535 0.030256690457463264 
-0.02836219221353531 -0.07575315982103348 -0.08682145923376083 -0.07177814096212387 -0.02284952811896801 
-0.009852351620793343 0.03665550798177719 -0.000800100329797715 -0.07544419169425964 0.007760815322399139 

-0.059887804090976715 -0.02509009651839733 0.031210986897349358 0.0643722340464592 -0.04130597412586212 
-0.013458801433444023 -0.09107165783643723 -0.06416177749633789 0.0024870168417692184 0.010057929903268814 
0.10436517745256424 0.0903545692563057 0.003010117681697011 0.05735863372683525 -0.03971737623214722 
0.11218985170125961 0.002178377704694867 0.022618886083364487 -0.024458374828100204 -0.03060198202729225 
0.03175799921154976 0.0037156161852180958 -0.005852509755641222 -0.034119635820388794 -0.02609805017709732 

-0.040787942707538605 0.05403472110629082 0.038817692548036575 -0.004654692020267248 -0.06414142996072769 
-0.06370900571346283 -0.08764024823904037 -0.1022149920463562 -0.150973841547966 -0.10532233864068985 
0.1385899931192398 0.03091507777571678 0.08844533562660217 0.058530814945697784 0.02142886444926262 
-0.03835929557681084 0.04044375941157341 0.06276047229766846 0.005959579721093178 -0.084907665848732 
-0.02149846777319908 -0.015288458205759525 0.06799102574586868 0.045499205589294434 -0.07021784782409668 

0.03620113804936409 0.19669760763645172 0.23395642638206482 -0.01509189885109663 -0.08057355880737305 
-0.13678213953971863 -0.07155705988407135 -0.104054294526577 -0.0974041223526001 -0.087832011282444 
0.016445601359009743 0.11461691558361053 0.094942107796669 0.04586393013596535 -0.02512810379266739 
0.011609521694481373 0.004509354010224342 -0.1114865392446518 -0.14759932458400726 -0.08268564194440842 
-0.018417123705148697 -0.022409122437238693 -0.03833885118365288 -0.12072280794382095 -0.013288965448737144 

0.09639869630336761 0.03260397911071777 0.024331137537956238 0.05937735736370087 -0.07676935195922852 
-0.004510954022407532 -0.0539352111518383 0.05158504098653793 0.040146224200725555 -0.057275090366601944 
-0.016118697822093964 0.0016905340598896146 -0.010029138065874577 -0.03429105877876282 -0.05309651792049408 
0.164041206240654 0.10750197619199753 0.041286878287792206 0.02148408256471157 -0.017148928716778755 
0.011046450585126877 0.04346423223614693 -0.05160175636410713 0.01912832073867321 -0.04771588370203972 

-0.1203029602766037 -0.0659497007727623 -0.08290955424308777 -0.05680296942591667 -0.01564180664718151 
0.1292957365512848 0.11645504832267761 0.08385571092367172 0.05553819611668587 0.009788974188268185 
-0.05192561075091362 0.06654896587133408 0.020176758989691734 -0.1144070252776146 -0.06524240970611572 
-0.09859044849872589 -0.13067911565303802 -0.14641572535037994 -0.046876899898052216 0.018021980300545692 
-0.07754118740558624 -0.04526198282837868 0.03564414009451866 -0.020602794364094734 0.02312684804201126 


-0.05020558461546898 -0.07241535186767578 -0.0510542169213295 -0.009677879512310028 0.017558615654706955 
-0.20352721214294434 -0.029537290334701538 0.05628035590052605 0.058492857962846756 0.05759454891085625 
-0.164311945438385 -0.19971774518489838 -0.07861446589231491 -0.01952299289405346 -0.03224485367536545 
-0.13855625689029694 -0.05419845134019852 0.000498790352139622 -0.07412456721067429 -0.13135097920894623 
0.060947518795728683 -0.0041107176803052425 0.0019330722279846668 -0.013269372284412384 -0.060244057327508926 

-0.051965199410915375 -0.10232064872980118 -0.07727344334125519 0.06999235600233078 0.10166306048631668 
0.006564125418663025 -0.047325149178504944 -0.0631570890545845 -0.07193341106176376 -0.06599791347980499 
0.07067640125751495 -0.1293131560087204 -0.1425856053829193 -0.04445334151387215 -0.07466249912977219 
0.17287488281726837 0.03923065960407257 0.04857441037893295 0.13299639523029327 0.042204953730106354 
-0.014755821786820889 0.10023912787437439 0.0469718798995018 0.09011854231357574 0.06074647232890129 

-0.02977997064590454 0.08876809477806091 0.04101851209998131 0.059675365686416626 0.046239253133535385 
-0.03634028509259224 -0.030253766104578972 0.07759971916675568 0.11813364177942276 0.16872437298297882 
-0.006799999158829451 -0.0927039161324501 -0.04274355247616768 -0.03639070689678192 -0.03753340616822243 
-0.0975642055273056 -0.10341613739728928 -0.023138249292969704 -0.16017784178256989 -0.08242719620466232 
-0.08315431326627731 0.00506565673276782 -0.09747300297021866 -0.04279620200395584 -0.08366909623146057 

-0.008195281960070133 0.10646527260541916 0.055918723344802856 0.11677265912294388 0.026001378893852234 
0.06486626714468002 0.07408691197633743 0.02280043065547943 7.806229405105114e-05 -0.02800515480339527 
-0.003889067331328988 -0.10816969722509384 -0.06976169347763062 -0.07827544957399368 -0.1515873670578003 
-0.034973349422216415 -0.10487870126962662 -0.08739607781171799 -0.16636596620082855 -0.11508509516716003 
-0.097499780356884 -0.10757357627153397 -0.1038382276892662 -0.026065656915307045 0.014048832468688488 

-0.03291591256856918 -0.022320525720715523 -0.04505017399787903 -0.09614307433366776 -0.13073313236236572 
0.032360710203647614 -0.10710970312356949 -0.061009932309389114 -0.01718473620712757 -0.05042161047458649 
0.12621735036373138 0.09321175515651703 0.14945265650749207 0.08345115929841995 0.039933886379003525 
0.10568976402282715 0.06672542542219162 0.1978961080312729 0.13253749907016754 0.047237589955329895 
0.017801322042942047 0.08472615480422974 0.05026557669043541 0.008017153479158878 -0.023466000333428383 

-0.03235047683119774 0.007746357005089521 0.006867768242955208 -0.039741743355989456 -0.056086309254169464 
0.020089205354452133 -0.04601535201072693 -0.0885816290974617 -0.07565581053495407 -0.13230247795581818 
0.10874143242835999 0.07335921376943588 0.11655934900045395 0.06017948314547539 0.026986895129084587 
0.14338558912277222 0.10438642650842667 0.1323794424533844 0.11635230481624603 0.03450305387377739 
0.04169812798500061 0.02820323407649994 0.09221557527780533 -0.003044384066015482 -0.0018112589605152607 

-0.0683264210820198 -0.05510710924863815 -0.0875321552157402 -0.01923583634197712 -0.10209593921899796 
0.06379994750022888 -0.049656618386507034 -0.05653049796819687 -0.062447015196084976 -0.019668200984597206 
0.013773387297987938 0.01719730533659458 0.13875038921833038 0.012294663116335869 0.049127403646707535 
0.139308363199234 0.1374722272157669 0.1141977533698082 0.10176968574523926 0.1166040226817131 
-0.00997687503695488 0.07736057788133621 0.10416021198034286 0.0644860789179802 -0.04748953878879547 

-0.08965395390987396 -0.11154278367757797 -0.0549217090010643 -0.04819154366850853 -0.0025782291777431965 
-0.08520112931728363 -0.059708233922719955 -0.059042468667030334 -0.056346628814935684 -0.10980206727981567 
-0.011554749682545662 -0.02674686349928379 -0.004460012074559927 -0.06776774674654007 -0.023798493668437004 
0.11646844446659088 0.0714937224984169 0.11621864885091782 0.1120356097817421 0.05742792785167694 
0.05024275928735733 -0.007952958345413208 0.03690926730632782 0.05426677316427231 -0.05347299203276634 

-0.06303099542856216 -0.09483352303504944 -0.023120101541280746 0.04022655636072159 -0.009997114539146423 
-0.07999781519174576 -0.0788024291396141 -0.10021957010030746 -0.13023477792739868 -0.07803498208522797 
-0.05018310993909836 -0.07120904326438904 -0.039878472685813904 -0.002155597321689129 0.002837865613400936 
0.02646614797413349 0.07329487055540085 0.0031038359738886356 0.03841782361268997 -0.04113840311765671 
-0.01244619395583868 0.032409220933914185 -0.04025978222489357 0.07856175303459167 0.008576205931603909 

-0.0021483798045665026 -0.028180085122585297 -0.04527445137500763 -0.08963464200496674 0.031231258064508438 
0.171038419008255 -0.017035560682415962 -0.0022015562281012535 0.020604707300662994 0.01415326725691557 
0.01797148771584034 0.0815490186214447 0.11350907385349274 -0.007353056687861681 -0.021607527509331703 
-0.18970808386802673 -0.07837722450494766 0.022215360775589943 -0.0734114944934845 -0.06310301274061203 
-0.24370603263378143 -0.028875455260276794 -0.05219590291380882 -0.017023345455527306 0.03479274734854698 


0.032267775386571884 -0.06578386574983597 -0.06664658337831497 0.02212490327656269 -0.05325058475136757 
0.0019479781622067094 -0.10974495857954025 -0.02220953442156315 -0.0810110941529274 -0.050672076642513275 
-0.02118302322924137 -0.061635296791791916 -0.0655868723988533 0.032812926918268204 -0.027248915284872055 
-0.05933614447712898 -0.04428860917687416 -0.027486542239785194 -0.03308478742837906 -0.030358359217643738 
0.03081382066011429 -0.07913520932197571 -0.10883666574954987 -0.10364116728305817 -0.03172158822417259 

-0.027801960706710815 -0.03245564550161362 -0.015305236913263798 -0.0022751656360924244 -0.035009197890758514 
-0.04062233865261078 -0.007351803593337536 -0.042279209941625595 0.0855896845459938 0.050521235913038254 
-0.004235869739204645 -0.13956111669540405 -0.008054104633629322 0.21338756382465363 -0.08463604003190994 
-0.08459696173667908 -0.17624153196811676 -0.016852205619215965 0.03231096267700195 -0.052938055247068405 
0.02451070211827755 -0.07061722129583359 -0.011188428848981857 0.07463273406028748 -0.05220278352499008 

0.014014544896781445 0.020617028698325157 -0.07228481024503708 -0.0005505690351128578 -0.029223347082734108 
0.048133485019207 -0.038604214787483215 -0.013186663389205933 -0.09235458821058273 0.044355571269989014 
-0.0787670835852623 -0.03601125255227089 -0.12428978085517883 0.07975845783948898 0.08435110002756119 
-0.06960942596197128 -0.14626464247703552 -0.10408119857311249 0.1157161146402359 0.07297094166278839 
0.0242320466786623 -0.14783456921577454 -0.0893835797905922 0.1328260451555252 0.02456747740507126 

-0.018747808411717415 -0.07657410204410553 -0.019201958552002907 -0.08402178436517715 -0.0396401472389698 
0.0256347618997097 -0.010343148373067379 -0.04824245348572731 0.02680227719247341 -0.048451222479343414 
0.043210308998823166 -0.058410655707120895 -0.03768176957964897 0.09781409800052643 -0.04846477508544922 
-0.09269901365041733 -0.12713055312633514 0.05431592836976051 0.04125793278217316 -0.06408712267875671 
-0.12551866471767426 -0.06575571000576019 0.15802624821662903 0.07764754444360733 -0.0982692539691925 

-0.017716936767101288 -0.01742241159081459 -0.05550885200500488 -0.058855004608631134 -0.01813146285712719 
-0.015752123668789864 0.0226746816188097 0.026692060753703117 0.06814766675233841 -0.005764652509242296 
-0.028093986213207245 -0.10865267366170883 -0.006862661335617304 -0.013746976852416992 -0.003305204911157489 
0.049899742007255554 -0.049049511551856995 0.05406603217124939 0.00620998116210103 -0.002537321299314499 
-0.02024254761636257 0.003718743333593011 0.09020764380693436 -0.03353145718574524 -0.06779960542917252 

-0.03396838530898094 0.009673602879047394 0.036206625401973724 0.025227367877960205 -0.04598381742835045 
-0.03570488467812538 -0.0669989064335823 0.07281776517629623 0.011069624684751034 -0.03589066118001938 
0.02279309742152691 0.0016049373662099242 0.05122321471571922 -0.014592709019780159 -0.005481011234223843 
0.03692854568362236 -0.0173793975263834 0.0929344892501831 0.04645039513707161 -0.06665798276662827 
0.014557276852428913 0.04251902922987938 0.08708642423152924 -0.03392277657985687 -0.0827590599656105 

-0.0484686903655529 -0.00038432853762060404 -0.013667566701769829 0.01731165498495102 0.009203391149640083 
0.0019902782514691353 0.03199251741170883 0.09219817072153091 0.042029403150081635 0.05361245572566986 
-0.08839114010334015 -0.0012660124339163303 0.04956536740064621 -0.029377726837992668 -0.07793983072042465 
0.0220273956656456 0.0710650160908699 0.06501588970422745 -0.04733510687947273 -0.0879298746585846 
-0.017469998449087143 0.049236346036195755 0.12579625844955444 0.02631942369043827 -0.11356457322835922 

-0.06943907588720322 -0.10486234724521637 -0.0013511000433936715 -0.0798725113272667 0.006891587283462286 
-0.03825723007321358 -0.05259847268462181 -0.03683529794216156 0.04996250942349434 0.015616239979863167 
-0.060377076268196106 -0.02318662963807583 0.03687262162566185 0.0852455273270607 -0.05263844132423401 
-0.05812830850481987 -0.09599465876817703 -0.129305899143219 -0.22354954481124878 -0.1247284933924675 
-0.057338349521160126 -0.10386592894792557 -0.07874647527933121 -0.07738865911960602 -0.019618134945631027 

-0.08174978941679001 -0.025154149159789085 -0.03241553157567978 0.05513874441385269 0.0347171425819397 
0.022549940273165703 -0.08953168243169785 0.005078740417957306 0.012225545011460781 0.08165165036916733 
-0.054860521107912064 -0.08034058660268784 -0.029976187273859978 0.048296719789505005 -0.012135716155171394 
-0.10523153841495514 -0.017526062205433846 9.5335315563716e-05 0.09353210777044296 -0.09507514536380768 
0.06680116802453995 0.022607913240790367 0.004243769682943821 -0.019456811249256134 -0.021234983578324318 

-0.04197743162512779 -0.05445796623826027 -0.05095871910452843 -0.08620663732290268 -0.07051614671945572 
-0.004594800528138876 0.012264672666788101 -0.10130368918180466 -0.030134843662381172 -0.06255277991294861 
0.08680715411901474 0.015143758617341518 -0.0021334607154130936 -0.04476069658994675 -0.028497787192463875 
0.007096326444298029 0.003029746701940894 -0.03138408064842224 0.04511561617255211 -0.03049914725124836 
0.04041673615574837 -0.12979914247989655 -0.11150995641946793 0.01303623802959919 -0.12506860494613647 


-0.04650193080306053 0.09803489595651627 0.03510052710771561 0.04817883297801018 -0.012113742530345917 
-0.13501784205436707 -0.037348672747612 0.077543243765831 -0.03138093277812004 -0.04734426736831665 
-0.059366848319768906 -0.029427964240312576 -0.06499162316322327 -0.02642766386270523 -0.09998030960559845 
-0.0411449633538723 -0.05465225875377655 -0.05928526446223259 -0.10402940213680267 -0.11116544902324677 
-0.13203079998493195 -0.061640284955501556 -0.011943605728447437 -0.033017199486494064 -0.058981481939554214 

-0.056399282068014145 0.0002476279914844781 0.08648152649402618 -0.02997206151485443 -0.004256737884134054 
0.0928146168589592 -0.022929798811674118 -0.050553061068058014 -0.051302455365657806 0.006444965023547411 
0.04922129586338997 0.049362871795892715 -0.013559415005147457 -0.09765730798244476 -0.10706839710474014 
0.04898964241147041 0.14357011020183563 0.11834677308797836 0.013510926626622677 -0.029781142249703407 
-0.018922992050647736 0.011938444338738918 0.036853622645139694 0.11974675208330154 0.01640716940164566 

-0.06364917010068893 -0.10906123369932175 -0.07857375591993332 -0.07009691745042801 -0.07482472062110901 
0.005521091632544994 0.024298368021845818 -0.04300712049007416 -0.14978797733783722 -0.11120329052209854 
0.05418490618467331 -0.03715791180729866 0.018534867092967033 0.030040061101317406 -0.0477595254778862 
-0.027660928666591644 -0.03815298527479172 0.10066325962543488 0.08334492146968842 0.05844724178314209 
-0.05397901311516762 -0.005582709331065416 0.04776773229241371 0.05633372440934181 0.03055010363459587 

0.01601833663880825 -0.03652958571910858 -0.09588770568370819 -0.13419048488140106 -0.13577143847942352 
-0.014521760866045952 -0.020321553573012352 0.08849833905696869 -0.06349704414606094 -0.07412469387054443 
-0.04938284680247307 -0.11038238555192947 0.017697634175419807 0.12246204167604446 -0.10574276745319366 
-0.117161326110363 -0.08828838169574738 0.04850417748093605 0.10600144416093826 -0.020645543932914734 
0.05411350727081299 0.005034946370869875 -0.02883356250822544 0.031758058816194534 0.01193860825151205 

-0.01356491632759571 -0.10234122723340988 -0.025360165163874626 -0.018813276663422585 -0.0724363699555397 
0.10637582838535309 0.002197184134274721 0.02715459279716015 -0.0846371054649353 -0.016786843538284302 
0.03053409978747368 0.11812680214643478 0.035335563123226166 -0.03022710233926773 -0.13768737018108368 
-0.08285018056631088 -0.005736966617405415 -0.004764210432767868 -0.05581439658999443 -0.034064773470163345 
-0.043297864496707916 -0.00719487527385354 -0.12524017691612244 -0.10118833184242249 -0.02954612672328949 

0.06714574247598648 -0.0942467674612999 0.005239782854914665 0.00397077202796936 -0.002973277121782303 
0.11503612250089645 -0.03049987182021141 0.036116909235715866 -0.018011918291449547 0.058326974511146545 
0.027503348886966705 0.15983635187149048 -0.021468739956617355 -0.062302738428115845 0.02840435318648815 
0.03381146863102913 -0.05334584414958954 0.017583856359124184 0.06553319096565247 -0.030675740912556648 
-0.014885853976011276 0.02015995979309082 0.037624847143888474 0.02333839423954487 0.04979545250535011 

-0.047691717743873596 -0.11290868371725082 -0.06812135875225067 -0.00463503273203969 0.01311677135527134 
0.024313682690262794 0.011023441329598427 -0.16779254376888275 -0.10623976588249207 -0.03396590054035187 
-0.01603604480624199 -0.01763148047029972 0.052720025181770325 -0.07979708164930344 -0.043717410415410995 
0.033186279237270355 0.05646325275301933 0.054542940109968185 0.05849691107869148 -0.019154787063598633 
-0.06688588857650757 -0.06390100717544556 -0.0077378107234835625 0.11683537065982819 0.04791507497429848 

-0.09225429594516754 -0.05329584702849388 0.07096995413303375 0.12259931117296219 0.015144825913012028 
0.01783616468310356 -0.06610734760761261 -0.060290466994047165 -0.04062188044190407 -0.007795357145369053 
0.09877018630504608 -0.0223089549690485 -0.04562661796808243 -0.1497824490070343 -0.16745571792125702 
-0.04991691932082176 0.07023908942937851 0.09166957437992096 0.033584609627723694 -0.12470610439777374 
0.008518721908330917 -0.03993067145347595 -0.08517986536026001 -0.0189825426787138 0.008610973134636879 

0.02604321762919426 -0.024362092837691307 0.02977083809673786 0.0289043840020895 -0.0708039179444313 
0.06833305209875107 -0.03192046284675598 -0.040347106754779816 -0.05136255919933319 -0.06535812467336655 
-0.017489144578576088 -0.00944481696933508 -0.0016102743102237582 0.06919613480567932 -0.0383806973695755 
0.08547080308198929 0.1121339425444603 0.039819326251745224 -0.02305387333035469 -0.018225258216261864 
0.03142528235912323 -0.009491934441030025 0.06887786835432053 0.006716974079608917 0.04436203092336655 

0.13713447749614716 -0.0174583550542593 0.04614459350705147 -0.1327662169933319 -0.042679402977228165 
0.011022688820958138 0.09052376449108124 0.14783741533756256 0.09659959375858307 -0.06228509917855263 
-0.1638852208852768 0.005703656934201717 0.12334432452917099 0.13879430294036865 0.049581192433834076 
0.15313009917736053 0.021338095888495445 -0.1582922637462616 -0.055195536464452744 0.048588577657938004 
0.057437170296907425 -0.007229987997561693 -0.0006687752902507782 -0.07163983583450317 -0.02126919850707054 


-0.14203916490077972 -0.15906201303005219 -0.0660804957151413 0.00581070501357317 0.07096494734287262 
-0.04532768949866295 -0.1258428692817688 -0.08782386034727097 -0.11925356090068817 0.03306754305958748 
0.0759764239192009 -0.03939925879240036 -0.12232986837625504 -0.06280037015676498 -0.08920050412416458 
-0.01906023547053337 0.08134464174509048 -0.0894140750169754 -0.006118163466453552 -0.039359673857688904 
0.056288134306669235 0.07117516547441483 0.06067078933119774 0.04993056878447533 -0.07611317187547684 

-0.02193446457386017 -0.07771824300289154 -0.0233385618776083 -0.06355608254671097 0.0735083669424057 
-0.06179280951619148 -0.12805262207984924 -0.02425924316048622 -0.027402374893426895 -0.0510483980178833 
-0.05102505534887314 0.05420626327395439 0.003681699512526393 -0.11315969377756119 -0.07759830355644226 
0.21407122910022736 0.12375200539827347 0.010339698754251003 0.08623890578746796 -0.09709490090608597 
0.14746129512786865 -0.05530257523059845 0.040558088570833206 -0.02642730064690113 0.05711587518453598 

-0.07687459886074066 -0.003948829136788845 0.003959473222494125 -0.05802209675312042 0.05128110200166702 
-0.07989770174026489 -0.07918562740087509 -0.06076093018054962 -0.0023945702705532312 0.010406171903014183 
-0.062333445996046066 -0.07955233752727509 -0.08871125429868698 -0.037740517407655716 0.06343583762645721 
0.018245166167616844 -0.033824414014816284 -0.08087820559740067 -0.03395771607756615 -0.03302010893821716 
0.06657920777797699 0.07510018348693848 -0.03194616362452507 -0.03885217383503914 -0.10496366769075394 

-0.06591707468032837 0.05361062288284302 0.1771094650030136 0.07845012843608856 0.11752262711524963 
-0.06927242875099182 -0.06377056986093521 0.06144782155752182 0.006296013481914997 0.16584904491901398 
-0.1466035097837448 -0.10818960517644882 -0.06536830216646194 -0.059021156281232834 0.09725628048181534 
0.02247541770339012 -0.044338375329971313 -0.10703692585229874 -0.09102264791727066 -0.014469916000962257 
0.017243802547454834 -0.017586201429367065 -0.07144926488399506 -0.05448508635163307 -0.02102428860962391 

-0.006553917191922665 -0.10294782370328903 -0.021044226363301277 0.00786583498120308 -0.05739951506257057 
-0.11214445531368256 -0.06026911363005638 0.020952286198735237 -0.02273092046380043 -0.08089897781610489 
-0.06401967257261276 0.07232455164194107 0.015506908297538757 0.032847724854946136 0.061083100736141205 
-0.04503624513745308 0.0281942468136549 -0.026943815872073174 0.018924899399280548 0.026572227478027344 
0.08965982496738434 0.018822601065039635 -0.053698960691690445 -0.041540563106536865 -0.06319517642259598 

0.0030620454344898462 0.006121696438640356 0.05522429570555687 -0.013858727179467678 -0.08041813224554062 
0.05801033973693848 0.04616481438279152 0.033737003803253174 0.05829313397407532 -0.051009681075811386 
-0.050503265112638474 0.09280237555503845 0.09978016465902328 0.09073172509670258 0.01782355271279812 
-0.04515885189175606 0.001079716719686985 0.0407906137406826 -0.05910074710845947 0.05340995267033577 
0.05862324684858322 -0.01080278493463993 0.015493170358240604 -0.033417247235774994 0.010392106138169765 

0.028308920562267303 0.10480672121047974 0.06987190246582031 0.008140165358781815 -0.12493695318698883 
-0.022865409031510353 0.06388343125581741 0.055127356201410294 -0.0439072847366333 -0.17458733916282654 
0.09464064985513687 0.16167713701725006 0.09677111357450485 -0.0299127958714962 -0.11611426621675491 
0.13145282864570618 0.052782364189624786 -0.09193973243236542 -0.022708948701620102 -0.02869112230837345 
-0.04762258380651474 -0.05679897591471672 -0.109181709587574 0.03585561364889145 0.08677612990140915 

-0.1038154885172844 -0.10097934305667877 -0.16646620631217957 -0.11636170744895935 -0.07278270274400711 
-0.04708028957247734 -0.04501299560070038 -0.10251247882843018 -0.12453005462884903 -0.08509748429059982 
-0.023471176624298096 0.15211157500743866 0.10709942877292633 0.041427675634622574 -0.044575031846761703 
0.08608350157737732 0.03391755744814873 0.12083592265844345 0.10969328135251999 0.004794667474925518 
0.047303903847932816 0.019618043676018715 0.032411083579063416 0.028643429279327393 -0.10248997807502747 

-0.026608649641275406 -0.07220210134983063 -0.02045421488583088 -0.03414664790034294 -0.011228058487176895 
0.02368687093257904 -0.014167331159114838 -0.08059728145599365 -0.07368846237659454 -0.0777672603726387 
0.059231746941804886 -0.024351179599761963 -0.05654269456863403 -0.03286103904247284 -0.08022898435592651 
0.05651209130883217 0.05614801496267319 0.009723125025629997 0.052739519625902176 -0.047865476459264755 
0.010671377182006836 0.06647246330976486 0.057164665311574936 0.052084945142269135 -0.08069998025894165 

-0.05147124081850052 -0.08481047302484512 -0.14298319816589355 0.017323654145002365 -0.01676248572766781 
-0.09265140444040298 -0.09351282566785812 0.03965175524353981 -0.05110625550150871 0.033657316118478775 
0.02507689967751503 -0.026711417362093925 -0.05547098070383072 -0.0055324966087937355 0.1297653466463089 
-0.06212657317519188 -0.10909458249807358 0.09877055138349533 -0.03977145254611969 0.007657535839825869 
0.030742358416318893 0.006626197136938572 0.061531830579042435 -0.015522710047662258 0.03246251866221428 


-0.09997648745775223 -0.07072658091783524 0.0025036775041371584 -0.10398774594068527 -0.01810186542570591 
-0.03625304251909256 0.017063381150364876 -0.07296288758516312 -0.0013149051228538156 0.08294272422790527 
-0.048125009983778 0.02932693064212799 0.01811194233596325 -0.016483522951602936 -0.051811207085847855 
0.0038985919672995806 -0.06725508719682693 -0.01990772783756256 -0.07154498994350433 0.0026705441996455193 
0.017837587743997574 -0.07974296808242798 -0.009039771743118763 -0.07154285162687302 -0.013234910555183887 

0.026173146441578865 -0.01354045607149601 -0.010387402959167957 0.0385512076318264 0.03918983414769173 
0.05502176284790039 0.10129787772893906 0.11416132748126984 0.10682595521211624 0.051358867436647415 
0.05919448658823967 0.007184511981904507 -0.025716619566082954 -0.014506392180919647 0.03463204950094223 
0.05864943191409111 -0.05159839615225792 -0.04769565537571907 -0.014415029436349869 0.039494287222623825 
0.09338381141424179 -0.010989617556333542 -0.043594881892204285 0.005085105076432228 0.003909294027835131 

-0.034465402364730835 -0.05983329191803932 -0.07096598297357559 -0.0821889191865921 -0.03299468383193016 
-0.02733783982694149 -0.050074975937604904 -0.08008125424385071 -0.109827421605587 0.011994605883955956 
0.011492359451949596 -0.039298903197050095 -0.06030755490064621 -0.020087193697690964 0.027889393270015717 
0.02379867248237133 0.09324938803911209 -0.03968697786331177 -0.02978690154850483 0.03272484987974167 
0.011248313821852207 0.07786920666694641 -0.09918774664402008 -0.0744001716375351 0.06989144533872604 

-0.032028812915086746 -0.008477240800857544 -0.052222006022930145 -0.032219965010881424 -0.08870396763086319 
-0.07357781380414963 -0.0907161682844162 -0.08767299354076385 -0.08413591235876083 0.024985840544104576 
-0.013627233915030956 -0.05345729738473892 -0.09005941450595856 -0.017463888972997665 -0.03167077526450157 
0.11436820775270462 0.07109786570072174 -0.05243741348385811 0.025044478476047516 0.01563510112464428 
0.12095560133457184 -0.07587102800607681 -0.025241611525416374 0.07077877968549728 0.03799064829945564 

0.04853518307209015 0.023906638845801353 0.07248828560113907 -0.0007608041050843894 0.020281443372368813 
0.02537580393254757 0.02996179647743702 0.02788453921675682 -0.07156894356012344 -0.06728091090917587 
0.004044492729008198 -0.04163677245378494 -0.01126573234796524 0.05186181142926216 0.03532359004020691 
0.07991987466812134 -0.04685264080762863 0.027815058827400208 -0.0158426221460104 0.01606476679444313 
-0.09758452326059341 -0.008755721151828766 0.008104164153337479 -0.017834540456533432 0.007905510254204273 

0.07702536135911942 0.018837494775652885 0.04241529852151871 -0.009188191965222359 0.078916035592556 
0.004177308641374111 0.0482214018702507 0.041567571461200714 0.012943357229232788 -0.037830900400877 
0.009573448449373245 -0.008481064811348915 0.06694035977125168 0.0829206183552742 0.01024404913187027 
0.061775803565979004 0.02747878059744835 0.017857750877738 0.06537003815174103 0.005045169033110142 
0.0012551216641440988 -0.029782842844724655 -0.0060217492282390594 0.027899418026208878 -0.007362442556768656 

0.14963635802268982 0.04891819506883621 0.10984113812446594 0.03228212147951126 0.02417740784585476 
0.06772075593471527 0.07867715507745743 -0.012767786160111427 -0.007949858903884888 -0.05161076784133911 
0.06345757842063904 0.058802250772714615 0.018220407888293266 -0.016872307285666466 -0.08279997855424881 
0.002766910707578063 -0.006851003505289555 -0.04940975457429886 0.005723744165152311 0.010406158864498138 
0.02116033062338829 -0.051096346229314804 0.03154881298542023 -0.016186922788619995 -0.022337378934025764 

-0.002347392961382866 0.05423007160425186 0.02359727770090103 -0.01602945663034916 0.009757810272276402 
0.05548946559429169 0.012885678559541702 0.03911907598376274 0.08468248695135117 -0.01200074888765812 
-0.037335749715566635 -0.025866826996207237 0.05125601962208748 0.034562427550554276 -0.01051950640976429 
-0.013544737361371517 -0.12354125082492828 0.005068095866590738 0.06003928557038307 -0.0878022164106369 
-0.031950805336236954 -0.08749210089445114 0.03828749433159828 0.0030602558981627226 -0.0024707040283828974 

-0.0044476864859461784 -0.0018380758119747043 0.03767475113272667 -0.022496549412608147 0.008395294658839703 
0.043216511607170105 0.11058466881513596 0.039809223264455795 -0.005369683727622032 0.05332189425826073 
0.07596226036548615 0.03984673693776131 -0.012038378044962883 0.025797385722398758 0.020306549966335297 
0.039508212357759476 -0.04442082718014717 0.022589433938264847 0.08389916270971298 -0.11024677753448486 
0.01654418744146824 -0.0951652005314827 -0.04254953935742378 -0.018839087337255478 0.03532228246331215 

0.00955211091786623 -0.09133096784353256 0.010441391728818417 -0.1261410266160965 -0.06937237083911896 
-0.11016903072595596 -0.0835888460278511 -0.08253185451030731 -0.08997289091348648 -0.054306525737047195 
-0.022099388763308525 -0.04760957509279251 -0.026669736951589584 0.11198992282152176 0.06114441156387329 
-0.033804751932621 -0.010089721530675888 -0.026447974145412445 0.0034531070850789547 -0.08492476493120193 
-0.038233984261751175 -0.0813867375254631 0.05917983874678612 -0.05193525552749634 -0.032549694180488586 


-0.10239049047231674 -0.029060985893011093 -0.06914645433425903 -0.0664077177643776 -0.08040200173854828 
-0.01910160854458809 -0.07340885698795319 -0.03698468580842018 -0.007802323903888464 -0.0022835428826510906 
-0.0269676074385643 -0.003489181399345398 -0.04552995041012764 -0.06795170158147812 0.041491907089948654 
0.06574777513742447 -0.01372977439314127 -0.018043821677565575 -0.15650658309459686 -0.04901479184627533 
-0.054723214358091354 -0.024176273494958878 -0.05584387481212616 -0.013042528182268143 -0.0705922394990921 

0.01535845547914505 0.05633322522044182 0.026851674541831017 0.02396579645574093 0.08608058840036392 
0.013964209705591202 -0.020024193450808525 -0.1091529056429863 0.05382919684052467 0.09430921822786331 
0.08197281509637833 0.007043383549898863 -0.09683077037334442 -0.022050628438591957 -0.025712089613080025 
0.047158751636743546 -0.013198577798902988 -0.09487774968147278 -0.07463457435369492 0.05857464298605919 
0.0754314512014389 0.033149804919958115 -0.11091653257608414 -0.04006446525454521 0.09630688279867172 

-0.059649452567100525 -0.07521790266036987 -0.11006200313568115 0.004221752751618624 -0.003183403518050909 
0.01736266538500786 -0.04127122834324837 -0.018126698210835457 -0.02824929729104042 0.049404654651880264 
-0.10372445732355118 0.02427481673657894 0.019828008487820625 -0.024508025497198105 0.07596452534198761 
0.07436104118824005 -0.027741560712456703 -0.09449872374534607 -0.0906941294670105 0.000684002588968724 
0.015664493665099144 0.010604925453662872 0.04008857533335686 -0.053051624447107315 0.04991738498210907 

0.1623907834291458 0.029826315119862556 -0.059162437915802 0.009931289590895176 0.10746564716100693 
0.16773006319999695 0.06410272419452667 -0.12239284068346024 -0.08851808309555054 0.0907876119017601 
0.05402868241071701 -0.026828130707144737 -0.10904864221811295 -0.040680982172489166 -0.01509026251733303 
0.04003995656967163 0.004374087788164616 -0.027190210297703743 -0.015016821213066578 0.05785258114337921 
0.14905384182929993 0.09482400119304657 -0.029555026441812515 0.004795778077095747 0.02241603471338749 

0.1267230361700058 -0.042114853858947754 -0.033439941704273224 -0.055090125650167465 -0.020481321960687637 
0.0768289640545845 -0.07384881377220154 -0.10089350491762161 0.01976601593196392 -0.0777033269405365 
-0.009586851112544537 -0.04615304619073868 -0.01786132901906967 -0.0637434795498848 -0.045258380472660065 
0.08369617164134979 -0.07916713505983353 -0.04857650026679039 0.06513430178165436 0.10546187311410904 
0.04006263613700867 -0.013750048354268074 -0.12507382035255432 -0.013772695325314999 0.02431400865316391 

0.08978307992219925 -0.043192505836486816 -0.009092278778553009 0.0837273970246315 0.045119721442461014 
0.03815968707203865 -0.08814916014671326 0.011367068625986576 0.04328382387757301 0.07459528744220734 
0.043564487248659134 -0.09414588660001755 -0.09332631528377533 0.06277577579021454 0.04205184802412987 
0.08380284905433655 -0.01502293162047863 -0.054161738604307175 -0.013906345702707767 0.09165985882282257 
0.059831589460372925 -0.05473814159631729 -0.046709705144166946 0.09875421971082687 -0.011455481871962547 

0.07698872685432434 -0.0029611496720463037 -0.09785063564777374 0.03484665974974632 0.03034890815615654 
0.06194421276450157 -0.04417744651436806 -0.015143933705985546 0.05270115286111832 0.04675129055976868 
0.08669902384281158 -0.09216342866420746 -0.052055519074201584 0.0006624438101425767 0.04884929955005646 
0.070445217192173 -0.060026589781045914 -0.10453710705041885 -0.019048456102609634 0.06134431064128876 
0.09655299037694931 -0.06674592941999435 -0.10461436957120895 0.05097963660955429 0.08948599547147751 

-0.10175491124391556 -0.023773470893502235 0.03760700672864914 -0.004581731744110584 -0.043666940182447433 
-0.006852525286376476 -0.019146598875522614 -0.018573591485619545 0.012522141449153423 -0.06993228942155838 
0.026258153840899467 -0.106962189078331 -0.13795435428619385 0.03920664265751839 -0.05639520287513733 
-0.10336856544017792 -0.14088353514671326 -0.030401919037103653 -0.04993678629398346 -0.0002541285357438028 
-0.025821585208177567 -0.022579673677682877 -0.007444225251674652 0.016273895278573036 -0.04622169956564903 

-0.09044840931892395 -0.0448620580136776 -0.07376652956008911 -0.0049539185129106045 0.10804308205842972 
-0.03294197842478752 -0.05709124729037285 -0.04218118265271187 -0.01901620253920555 0.006008737720549107 
0.009404228068888187 -0.06503304094076157 -0.039191167801618576 -0.020042603835463524 -0.0949004590511322 
0.08928893506526947 -0.05918234586715698 -0.09504757076501846 0.013728230260312557 -0.03558880090713501 
-0.059647660702466965 -0.051003195345401764 -0.12277516722679138 0.014380690641701221 0.02489779330790043 

-0.0075291297398507595 -0.046628437936306 -0.04913270100951195 -0.07750347256660461 0.007672254927456379 
-0.023060880601406097 -0.0061345649883151054 -0.04237869009375572 -0.03917199373245239 0.030679890885949135 
