0.00605934951454401
-0.01632426679134369
-0.055277444422245026
-0.031962182372808456
0.010912933386862278
-0.01214591320604086
-0.003082739422097802
0.037205860018730164
0.0035758258309215307
-0.0338730551302433
0.022405415773391724
0.05751591920852661
-0.04546605050563812
0.04224545508623123
-0.02821318805217743
-0.02973233535885811
-0.015606297180056572
0.013390223495662212
-0.024014990776777267
-0.01255684345960617
0.016541704535484314
-0.012193900533020496
0.05996206775307655
-0.027115020900964737
-0.03877945989370346
0.06079959496855736
0.1077987402677536
0.001292095286771655
0.01115610171109438
0.015343882143497467
-0.006830807775259018
0.018775727599859238
-0.025595298036932945
0.024722015485167503
-0.0020603651646524668
0.017243023961782455
-0.027125656604766846
-0.06951316446065903
0.0583430752158165
0.03742886707186699
-0.041145745664834976
-0.011871293187141418
-0.014162172563374043
-0.036515362560749054
-0.009480370208621025
-0.021622411906719208
-0.03498976677656174
0.061899177730083466
0.06255970150232315
0.0073003568686544895
