0.03933010250329971 0.035004980862140656 -0.035152845084667206 0.026593828573822975 -0.014939572662115097 -0.027053240686655045 -0.037756986916065216 -0.011990559287369251 -0.021000836044549942 -0.02427578717470169 -0.04842329025268555 0.025345057249069214 0.0794440507888794 0.06684907525777817 -0.040464531630277634 0.06033031642436981 0.07878263294696808 0.04192415252327919 -0.0022216453216969967 0.019976506009697914 -0.01859317161142826 -0.04766925424337387 0.018609726801514626 0.0024259777273982763 -0.026273837313055992 -0.022274199873209 0.05903521180152893 -0.019866125658154488 0.06411655992269516 0.08022858947515488 0.033960796892642975 0.049808476120233536 0.043086618185043335 -0.01766570284962654 -0.01717851683497429 -0.0813782587647438 0.05222870782017708 -0.03162335976958275 -0.05225065350532532 -0.04071524366736412 0.0779210552573204 -0.012835306115448475 -0.045059684664011 -0.02981346845626831 0.005985619500279427 0.05861256644129753 0.00607673404738307 -0.0076102265156805515 -0.011254677549004555 0.014512439258396626 -0.044058527797460556 -0.018487080931663513 -0.015748709440231323 0.03517575562000275 0.027527427300810814 -0.012822638265788555 0.06566084176301956 0.034707989543676376 -0.017708810046315193 0.04088049754500389 0.02593696117401123 0.016775211319327354 -0.0077422126196324825 -0.047087136656045914 0.04257076978683472 0.050061389803886414 0.04546773061156273 0.04003910347819328 -0.07895772904157639 0.0025191600434482098 0.0029701872263103724 -0.01695658452808857 0.023365076631307602 -0.041355058550834656 -0.059325072914361954 -0.0033427958842366934 -0.009525138884782791 -0.041515037417411804 -0.016727415844798088 -0.036417216062545776 -0.036392249166965485 -0.014153266325592995 -0.003613991430029273 -0.04290960729122162 0.050144877284765244 0.0659460723400116 0.022536376491189003 -0.009613883681595325 -0.06105994060635567 0.0271013081073761 0.03024873696267605 0.049222275614738464 -0.0271555595099926 -0.08847013860940933 0.031999412924051285 0.019517185166478157 -0.0005622667376883328 0.02300209365785122 0.019821597263216972 0.049876172095537186 -0.008372687734663486 -0.06797201931476593 -0.007226008456200361 0.01689821481704712 -0.06464584916830063 0.055386874824762344 -0.034597352147102356 0.0062580592930316925 -0.10649946331977844 -0.015820860862731934 0.036717407405376434 -0.03694755956530571 -0.062191709876060486 -0.015294061973690987 -0.008556687273085117 0.013357195071876049 0.020297974348068237 -0.0419367253780365 0.019563088193535805 -0.0037334009539335966 -0.0037242190446704626 0.040052738040685654 0.057469479739665985 -0.037190038710832596 0.03737562149763107 -0.0066229840740561485 0.021386489272117615 0.013771113939583302 -0.05531515181064606 -0.03782143071293831 -0.07928023487329483 0.015251065604388714 0.030224749818444252 0.08764351159334183 0.04295101389288902 0.025570884346961975 -0.012571127153933048 -0.03582073375582695 -0.011133143678307533 0.03578925132751465 -0.07836221158504486 -0.045843955129384995 0.01739579811692238 0.023148920387029648 -0.04791950061917305 -0.022724485024809837 -0.0629778504371643 -0.04320837929844856 -0.030362745746970177 -0.009275858290493488 -0.0066292365081608295 0.0058873118832707405 0.050454895943403244 0.0790603756904602 -0.03687930852174759 0.06186499446630478 0.1020832285284996 0.0008075791993178427 0.006373648997396231 -0.05366270989179611 -0.04018787667155266 0.01854236051440239 -0.07780302315950394 -0.040306877344846725 0.01675650104880333 -0.004680935759097338 -0.07897244393825531 0.012116986326873302 0.015316552482545376 -0.05145952105522156 -0.023684818297624588 -0.033997830003499985 -0.07636760920286179 0.021177949383854866 0.08249851316213608 0.0075808074325323105 0.029565885663032532 -0.011285358108580112 0.024477872997522354 -0.0034484565258026123 0.0008084026630967855 -0.07863262295722961 -0.032579049468040466 -0.07742639631032944 0.1312227100133896 0.07830706238746643 -0.021906496956944466 0.027847958728671074 0.0511629581451416 0.054026439785957336 0.005151789169758558 0.05246543511748314 0.062421541661024094 0.06091228127479553 -0.010515584610402584 -0.02326682023704052 0.0001610458712093532 -0.026202237233519554 -0.0020002517849206924 0.03333045914769173 0.028851725161075592 0.017380226403474808 0.07362556457519531 -0.04536113888025284 0.02771928533911705 -0.03720499202609062 0.05326198413968086 0.02158581092953682 -0.012348112650215626 0.017147621139883995 -0.03263859078288078 -0.08125286549329758 -0.017600025981664658 -0.017747603356838226 0.007648984435945749 0.0663129985332489 0.0010688499314710498 0.06190188601613045 0.00273499870672822 0.025275573134422302 0.06637482345104218 -0.0022586756385862827 0.041641466319561005 0.029439009726047516 -0.05330907180905342 0.019185906276106834 -0.06324684619903564 -0.0650436282157898 0.013065838254988194 -0.1153063103556633 -0.04302174597978592 -0.009791011922061443 0.02182401344180107 0.019596602767705917 0.04995089769363403 0.06973522156476974 0.009131621569395065 -0.011969199404120445 -0.0325724221765995 -0.03943989425897598 0.003442036919295788 0.007626657839864492 0.029601899906992912 0.004983897320926189 0.01883276365697384 0.025219133123755455 0.06547487527132034 -0.02506568655371666 -0.004705124534666538 0.022999202832579613 0.10377528518438339 -0.052310872822999954 0.033887043595314026 0.08047275990247726 0.07716525346040726 0.007289992645382881 0.008212338201701641 -0.0395360141992569 0.014712978154420853 0.010286050848662853 -0.040219198912382126 0.007670481223613024 0.05597575008869171 0.04798269271850586 0.0750153511762619 0.002052688505500555 -0.05079912766814232 -0.042293962091207504 -0.001009885803796351 -0.03950204700231552 0.05062291398644447 0.04975874349474907 0.03329530358314514 0.03392091765999794 0.004348784685134888 0.024865832179784775 -0.0115743950009346 -0.044146474450826645 -0.0017577970866113901 0.017067568376660347 -0.004702112637460232 0.05112477391958237 -0.03653082996606827 -0.0020924825221300125 -0.06193172559142113 0.028592493385076523 -0.025080345571041107 -0.02369387075304985 -0.025990452617406845 -0.06503239274024963 0.026049870997667313 0.032824352383613586 0.022763840854167938 0.01796051114797592 0.0812252089381218 0.046581756323575974 0.03769288212060928 -0.047719698399305344 -0.058316752314567566 -0.008345789276063442 -0.031457580626010895 -0.032162413001060486 -0.07587557286024094 -0.06167448312044144 -0.027142580598592758 -0.06525891274213791 -0.08959662914276123 -0.05892067030072212 -0.04685399681329727 0.06337404996156693 -0.025384768843650818 -0.011290156282484531 0.003271567402407527 0.04238984361290932 -0.023497316986322403 -0.04066093638539314 -0.10141029953956604 -0.02611590176820755 -0.02622583508491516 -0.036601293832063675 
-0.02516481839120388 -0.012057920917868614 0.02640877664089203 -0.034094441682100296 0.03760770708322525 -0.032532744109630585 -0.018750229850411415 -0.03218818083405495 -0.01155009027570486 0.07563907653093338 -0.005576141644269228 -0.023367848247289658 -0.059367310255765915 0.018894819542765617 -0.03310353681445122 0.01055066380649805 0.008358312770724297 0.050878118723630905 0.053113169968128204 -0.013957907445728779 -0.05817561596632004 -0.054704099893569946 -0.07773075252771378 -0.023099582642316818 -0.005608062259852886 -0.014230549335479736 -0.034399665892124176 -0.03263196721673012 0.05519949272274971 0.09797030687332153 -0.060121241956949234 0.05900224670767784 0.00093487260164693 0.03400399908423424 -0.054902996867895126 -0.03901982679963112 -0.044560179114341736 0.02950662560760975 -0.10769521445035934 0.031443264335393906 -0.022024670615792274 -0.04234234243631363 0.025774745270609856 0.0876166895031929 -0.033616695553064346 0.017147313803434372 0.003813293529674411 -0.06263624876737595 -0.03426768630743027 0.02601747214794159 -0.06603533774614334 -0.030115319415926933 -0.006486702244728804 0.0023796232417225838 -0.04436153545975685 -0.02245025895535946 -0.025969190523028374 0.07635308802127838 0.09669437259435654 -0.0009950203821063042 -0.020880138501524925 0.02454223483800888 -0.026317041367292404 0.027031132951378822 -0.03384391590952873 -0.019619429484009743 -0.027403574436903 0.0886092334985733 0.040727101266384125 -0.005973153281956911 0.008167803287506104 0.0434003621339798 -0.00426373491063714 -0.03476367145776749 0.04140850156545639 -0.03273358568549156 0.0001999804808292538 0.02795678749680519 -0.0007235950324684381 -0.04539860785007477 0.022360119968652725 -0.039073117077350616 -0.004174540750682354 0.005634072702378035 -0.0539793036878109 -0.05039158836007118 -0.0021553116384893656 0.0477742962539196 -0.021760063245892525 -0.07858020067214966 0.0027348266448825598 0.07558287680149078 0.009937074966728687 -0.06903673708438873 -0.011460262350738049 -0.059229884296655655 0.023196522146463394 -0.012623121961951256 -0.03809024393558502 -0.043960753828287125 -0.029823923483490944 -0.0407860204577446 -0.01935572549700737 0.062158092856407166 -0.03631148114800453 -0.02205151878297329 0.06176342815160751 0.031020600348711014 0.08049621433019638 0.020434536039829254 0.0316859669983387 -0.10590702295303345 -0.09102366119623184 0.04467097669839859 0.07569356262683868 0.08712700009346008 0.06925805658102036 0.04316229373216629 -0.050988055765628815 -0.030475839972496033 0.0050043389201164246 -0.00974213145673275 -0.12327319383621216 -0.03295493498444557 0.046930134296417236 -0.01822882518172264 0.03689200058579445 0.05637229606509209 0.058072034269571304 0.030481990426778793 -0.009833622723817825 -0.06006205081939697 0.033025916665792465 -0.011266225948929787 -0.03763638436794281 -0.05829780176281929 -0.04212232306599617 -0.08937258273363113 -0.032208506017923355 0.061637792736291885 0.012719785794615746 0.046916306018829346 0.04386930540204048 -0.05735049769282341 -0.0835922583937645 0.0201338529586792 -0.04891745373606682 -0.06190624460577965 -0.016640830785036087 0.014872053638100624 0.008300086483359337 -0.10281894356012344 0.0439082533121109 0.05105694383382797 -0.05618254840373993 -0.025338346138596535 -0.016085851937532425 0.02655971236526966 0.01647874154150486 -0.012636425904929638 0.07552620768547058 -0.018423166126012802 0.006868869066238403 -0.051047373563051224 0.04151098057627678 -0.036511607468128204 0.006560357753187418 0.10450039058923721 -0.036805372685194016 -0.04819000884890556 0.04792356491088867 0.02938317134976387 0.02611391618847847 0.09003864228725433 -0.04717505723237991 -0.021529506891965866 -0.10246273130178452 0.025345148518681526 -0.03872120380401611 -0.029055655002593994 -0.015084515325725079 -0.02611893229186535 0.008203654550015926 0.008794448338449001 0.07563769817352295 0.038333993405103683 -0.02928534522652626 0.009617379866540432 -0.04712468013167381 -0.03667237609624863 -0.056904591619968414 0.00513198459520936 0.03804916888475418 0.007956416346132755 -0.04769757762551308 -0.049550652503967285 -0.03883051499724388 -0.026659445837140083 0.03741304948925972 -0.04994216933846474 -0.042039744555950165 0.06613258272409439 0.08934687823057175 -0.042058076709508896 0.03801865503191948 0.07521583139896393 -0.021490508690476418 -0.032339200377464294 -0.04019758850336075 -0.04333575442433357 -0.12244664877653122 0.0010890031699091196 -0.06568814814090729 -0.03401351347565651 -0.019307738170027733 -0.017011281102895737 -0.011395393870770931 0.06019483879208565 0.07442636787891388 -0.037867654114961624 0.0592040941119194 0.06612343341112137 0.0709637925028801 -0.015426168218255043 0.023105880245566368 -0.06132493540644646 -0.07243621349334717 -0.07887031137943268 0.040128596127033234 -0.11064906418323517 -0.07802391052246094 0.015141184441745281 -0.0016666853334754705 -0.05235104635357857 0.023559706285595894 0.016104478389024734 0.034434832632541656 0.04007929936051369 0.020876755937933922 -0.04354703053832054 0.005962550640106201 0.05421978980302811 -0.016810603439807892 0.03140481561422348 0.040768034756183624 0.005494934506714344 -0.007382168434560299 0.013297531753778458 -0.025129573419690132 0.0422971285879612 0.033666227012872696 -0.12909328937530518 0.0109902024269104 0.06179578974843025 -0.041290532797575 -0.008009131997823715 -0.014869729056954384 -0.06639855355024338 0.021010955795645714 0.023183781653642654 -0.06961830705404282 0.02508324757218361 -0.076432965695858 0.032829929143190384 -0.06394477933645248 -0.009910480119287968 -0.04250647872686386 0.057948339730501175 -0.015129388310015202 0.020870650187134743 -0.04516623169183731 0.049916017800569534 0.020456982776522636 -0.006493155844509602 0.05558936297893524 0.029516948387026787 0.04056347906589508 0.04535437375307083 -0.03438209369778633 0.004636239260435104 0.008776596747338772 -0.025329649448394775 -0.03610554337501526 -0.03939550369977951 -0.022098921239376068 0.00404499564319849 0.04222140833735466 -0.03206218034029007 -0.060358770191669464 -0.021766506135463715 0.0032750885002315044 0.05081396549940109 -0.00230959989130497 -0.01826448366045952 -0.018193421885371208 0.06658042967319489 -0.035161055624485016 -0.0016999588115140796 -0.05355701223015785 0.009478547610342503 -0.017623456194996834 -0.02636328525841236 -0.031047813594341278 0.020343948155641556 0.057524826377630234 -0.06286386400461197 -0.015588010661303997 -0.07334641367197037 0.019443612545728683 0.04972199350595474 0.012360642664134502 -0.04034985229372978 -0.03108399733901024 -0.09188994765281677 -0.05405281484127045 0.017851172015070915 -0.014763790182769299 -0.052631087601184845 0.047963697463274 -0.007926897145807743 
-0.001644363161176443 0.07998776435852051 -0.026545396074652672 -0.06449785828590393 -0.0034369926434010267 0.021988317370414734 0.014992876909673214 0.05957531929016113 -0.1199965551495552 -0.013809869065880775 -0.03896152973175049 -0.016595687717199326 -0.06224241852760315 -0.05621515214443207 -0.06672332435846329 -0.03571265563368797 -0.08113960176706314 0.03320806100964546 0.03889046981930733 0.015552947297692299 -0.016486622393131256 -0.014141811989247799 -0.06197984144091606 0.022491157054901123 -0.0799199715256691 0.04492420703172684 0.04300351068377495 -0.002513591665774584 0.022862907499074936 -0.02680240198969841 -0.04919443652033806 -0.11113753914833069 -0.017393214628100395 -0.07570559531450272 0.017247274518013 -0.04065769910812378 0.024530967697501183 -0.019799843430519104 -0.008609000593423843 0.03331359475851059 0.07008397579193115 0.020382355898618698 0.06989597529172897 0.08400450646877289 0.00015643391816411167 0.06083438917994499 0.06249319016933441 -0.004185155499726534 -0.06152826547622681 -0.023813091218471527 0.023082735016942024 0.10484592616558075 -0.1417185664176941 -0.018777184188365936 -0.008997125551104546 -0.02126314491033554 0.02444830909371376 0.10991762578487396 -0.0641869381070137 -0.13251051306724548 0.06330536305904388 0.03546110913157463 -0.029789360240101814 -0.10618274658918381 -0.009410274215042591 -0.038798172026872635 -0.03210040181875229 -0.053284138441085815 0.03134537860751152 0.04176192358136177 -0.02092553675174713 0.006927075330168009 0.017245206981897354 -0.007383264601230621 -0.04325440898537636 0.03078487329185009 0.047738056629896164 0.047160062938928604 0.016540149226784706 0.05027680844068527 -0.027728132903575897 -0.09720771759748459 -0.12019559741020203 0.0005284666549414396 -0.02634473703801632 -0.04752995818853378 -0.10406854748725891 0.011198540218174458 0.02844317816197872 0.016869958490133286 0.03603818267583847 0.059029471129179 -0.038938552141189575 0.08758506178855896 0.0944972038269043 0.05601201951503754 0.017316197976469994 -0.10227350145578384 -0.05979396775364876 -0.011800582520663738 0.003065090859308839 -0.06661763787269592 0.017417123541235924 0.017681848257780075 0.02270229160785675 0.003274407470598817 0.053125638514757156 0.13677474856376648 0.06168670207262039 0.03422761335968971 0.03101411834359169 0.009387715719640255 -0.052858952432870865 0.014909460209310055 -0.05847605690360069 0.009913173504173756 0.07811252027750015 0.018720878288149834 0.010023865848779678 -0.04242220148444176 0.05734408646821976 0.02996249869465828 -0.04132746532559395 -0.004545588977634907 0.05823427438735962 -0.06967400014400482 0.007600890472531319 -0.03305435553193092 0.06098198890686035 0.056453149765729904 0.10815499722957611 0.06046899035573006 0.05366436019539833 0.030843021348118782 0.03869691118597984 -0.07246877998113632 -0.013938331976532936 -0.005872807931154966 0.06693294644355774 -0.054281286895275116 -0.05321796238422394 0.026939213275909424 -0.008996473625302315 -0.021299734711647034 0.02537892758846283 -0.024930842220783234 -0.0004199064860586077 0.08446965366601944 0.02610284648835659 -0.0024789751041680574 -0.03134722262620926 -0.01089007779955864 0.07536149770021439 0.007159699685871601 -0.12146734446287155 -0.08108319342136383 0.06313782185316086 0.006349637173116207 -0.0520017109811306 -0.06605833023786545 0.09281694889068604 0.13422062993049622 0.03435474634170532 -0.0738544911146164 0.004441157449036837 0.010385312139987946 0.04832221195101738 -0.062335941940546036 -0.007733154576271772 0.03638750687241554 -0.1046813428401947 -0.003658657195046544 -0.03226083517074585 0.049684345722198486 -0.10548803210258484 0.027606375515460968 -0.10480961948633194 -0.007977318949997425 0.028704479336738586 0.06557346135377884 -0.021878203377127647 -0.06228088587522507 -0.029827697202563286 0.0395507775247097 0.03369428589940071 -0.02213938534259796 -0.1176692470908165 -0.01066568586975336 0.035277411341667175 0.018469372764229774 -0.052636679261922836 0.0007958072819747031 -0.016808388754725456 0.022078601643443108 0.08648856729269028 0.001785427681170404 -0.08472343534231186 -0.029934700578451157 0.03725682944059372 -0.0162013228982687 -0.06522727012634277 0.007594277150928974 0.044081445783376694 -0.030132194980978966 -0.05323467776179314 0.10225116461515427 0.04241693392395973 -0.10988034307956696 -0.0053264000453054905 -0.04936724156141281 -0.08128847926855087 -0.007998887449502945 -0.1319109946489334 0.0005195762496441603 -0.006616516970098019 0.01752975396811962 -0.08077625185251236 0.09353075921535492 0.02720421738922596 0.058769434690475464 0.028045516461133957 0.06908030062913895 0.030147893354296684 -0.04435966536402702 -0.006430898793041706 -0.014922848902642727 -0.06684791296720505 -0.09839078783988953 0.013170612044632435 -0.012767483480274677 -0.05398508161306381 0.013068328611552715 -0.09532935917377472 0.037768784910440445 0.016818730160593987 0.0770585834980011 0.03036218322813511 0.039169322699308395 0.009634315967559814 0.10462711751461029 -0.06550328433513641 -0.07530667632818222 0.03430239111185074 0.06963798403739929 0.041239067912101746 0.0713573768734932 -0.042942702770233154 0.06802091002464294 0.08731234073638916 0.028018252924084663 -0.004183126147836447 -0.026147207245230675 0.054903674870729446 0.018686706200242043 -0.012770128436386585 -0.051260825246572495 -0.10036143660545349 -0.04616580158472061 0.025237809866666794 0.02001434937119484 -0.03916829824447632 -0.027637887746095657 -0.07588696479797363 -0.01020827703177929 0.06818956881761551 0.07451927661895752 -0.06594065576791763 0.11576458811759949 0.02443300373852253 0.08145292103290558 0.014827591367065907 0.06247895210981369 0.07838082313537598 0.05246139317750931 -0.03618771210312843 -0.04921887814998627 0.053191572427749634 0.01686091162264347 -0.014618048444390297 -0.05698511749505997 -0.10217303037643433 -0.04516863450407982 -0.028555048629641533 -0.022002452984452248 -0.06557441502809525 0.02439706400036812 0.07715744525194168 -0.03899221494793892 0.061996184289455414 0.014723182655870914 -0.006933677010238171 0.0266116876155138 -0.01714940555393696 -0.03547348082065582 0.025629878044128418 0.05157630145549774 0.00032768130768090487 0.04218257963657379 0.061831340193748474 0.04175713285803795 -0.0719495564699173 0.061983365565538406 -0.03118516504764557 0.06533539295196533 0.0680229514837265 0.026242312043905258 -0.04502316936850548 -0.03804484009742737 0.09822641313076019 0.026339907199144363 -0.007258231285959482 -0.10261613130569458 -0.1072419062256813 -0.04888202250003815 0.00868991855531931 0.08255645632743835 -0.11394091695547104 -0.042008768767118454 0.047852110117673874 -0.01463795080780983 
-0.024726862087845802 0.042596206068992615 -0.023749927058815956 -0.004837665241211653 -0.010974629782140255 0.00574817880988121 -0.010424952954053879 0.07830685377120972 -0.07434394210577011 0.09492311626672745 0.012443481013178825 -0.012570624239742756 -0.0026693856343626976 -0.019476136192679405 0.01913374476134777 -0.04049785062670708 0.04459051042795181 0.04674422740936279 0.09579838067293167 0.029029227793216705 0.0704004168510437 -0.02075383998453617 -0.011399340815842152 -0.028204550966620445 0.0058410558849573135 0.03470697999000549 -0.030720354989171028 -0.04938522353768349 0.001468340982683003 0.04757366701960564 -0.06112273409962654 -0.042617592960596085 -0.06045382097363472 -0.07203809916973114 0.0390709824860096 -0.031979259103536606 0.018062779679894447 -0.031421490013599396 0.008294331841170788 0.11252792924642563 0.09077462553977966 0.048520591109991074 -0.03613398224115372 0.06121772527694702 0.045361559838056564 -0.019686121493577957 0.027508368715643883 0.03727276623249054 0.061770785599946976 0.09538638591766357 0.0946228876709938 -0.009694641456007957 0.05101345106959343 0.047572724521160126 0.012441353872418404 0.016536802053451538 0.024744996801018715 0.04893302544951439 -0.06996668875217438 -0.06207292526960373 -0.06208696961402893 -0.06366059184074402 0.009152180515229702 -0.07242502272129059 -0.06435032933950424 -0.002311710035428405 0.06483672559261322 -0.02120630256831646 0.03099878691136837 -0.038537804037332535 -0.025639213621616364 -0.05062442645430565 -0.03369390591979027 -0.029081540182232857 -0.004061329178512096 -0.05772799998521805 -0.02047593891620636 0.009942797012627125 0.011784840375185013 0.07736440747976303 -0.029918165877461433 -0.03073188289999962 -0.015227174386382103 0.013511896133422852 -0.031213028356432915 -0.030947430059313774 0.007837335579097271 0.03465544804930687 0.029600292444229126 -0.1571042835712433 -0.022292058914899826 0.04940756782889366 -0.13271339237689972 0.05098551884293556 0.07275491952896118 0.005781933199614286 -0.006069811526685953 -0.07087571918964386 -0.0324748270213604 0.009142452850937843 0.012624943628907204 0.004160530399531126 0.005025655031204224 0.02963855490088463 -0.08390899747610092 -0.10314648598432541 0.016393784433603287 0.11995718628168106 0.06198000907897949 0.15180805325508118 0.007786189205944538 -0.031921565532684326 -0.10731011629104614 -0.06378048658370972 -0.021663734689354897 0.03917424753308296 -0.024211954325437546 -0.08009584248065948 -0.03966022655367851 -0.05284487456083298 0.08514659106731415 -0.0276649072766304 -0.05561119318008423 -0.09200988709926605 -0.04311537742614746 -0.11299844086170197 -0.03718729317188263 0.06037773936986923 0.03448246046900749 0.0033887499012053013 -0.017964717000722885 -0.02606106363236904 -0.003990310709923506 0.0001816314907046035 0.049775801599025726 -0.05556364357471466 -0.09794045239686966 -0.09847956150770187 -0.0015214354498311877 -0.06905940175056458 -0.03424402326345444 -0.09811682254076004 0.10182861983776093 -0.006534726824611425 0.07602613419294357 0.07276307046413422 0.10826139152050018 0.010336104780435562 -6.851818761788309e-05 -0.013598904013633728 0.006323937326669693 -0.03720490634441376 0.036678899079561234 -0.003867494175210595 -0.10240595042705536 -0.01731048710644245 0.01928095519542694 -0.014482628554105759 -0.014291972853243351 -0.009120803326368332 0.008729890920221806 -0.013256669044494629 -0.028749622404575348 -0.03556686267256737 -0.013820115476846695 0.07471434772014618 0.09651996195316315 0.003440797794610262 -0.08558788895606995 -0.005848973989486694 0.00030444981530308723 -0.020351266488432884 0.02214812859892845 0.04438675567507744 -0.027481378987431526 -0.0013984371908009052 0.021907389163970947 0.05440568923950195 0.06110500544309616 0.02237889915704727 0.03219586983323097 -0.04043218865990639 0.06460857391357422 0.06019914150238037 -0.0035666427575051785 0.007998785004019737 -0.032712168991565704 -0.010964108631014824 -0.02387521229684353 -0.06152011826634407 -0.11053860932588577 -0.023040680214762688 0.05966147407889366 0.02359548956155777 0.1419457197189331 0.024316998198628426 0.04278227314352989 -0.00243646209128201 0.08057248592376709 -0.024912066757678986 -0.05728084221482277 0.058986596763134 0.0394919253885746 0.025845341384410858 0.025022946298122406 0.09544997662305832 -0.023613357916474342 -0.02483220584690571 0.02613425813615322 0.008823730051517487 0.03313754126429558 0.09345812350511551 0.09190644323825836 0.0754225105047226 0.010432828217744827 -0.07035351544618607 0.08131451904773712 0.03628111630678177 0.029929600656032562 -0.011772211641073227 0.0766146257519722 0.0663643404841423 0.03531910851597786 -0.029444482177495956 0.03367766737937927 -0.0028132798615843058 -0.09435699135065079 -0.06665518134832382 0.0327322818338871 0.03186425566673279 0.06164606660604477 -0.015278449282050133 -0.08183446526527405 -0.044902000576257706 0.05750138312578201 0.014955786056816578 0.06359443813562393 0.08694713562726974 0.10092499852180481 0.08939865976572037 0.008513898588716984 0.004056937992572784 0.06842377781867981 0.011167838238179684 -0.05356815457344055 0.0032441504299640656 0.04095260426402092 0.028956765308976173 -0.08441433310508728 -0.04126960039138794 0.005736672785133123 -0.06732495874166489 0.014679971151053905 0.08512783795595169 0.005790341645479202 0.0339636467397213 -0.08864868432283401 -0.09101608395576477 -0.007617506664246321 -0.006312371697276831 -0.09396713227033615 -0.02101302146911621 -0.06011279672384262 -0.009205400012433529 -0.011949564330279827 -0.010378223843872547 0.034975454211235046 0.06927499920129776 0.09898713231086731 0.009632383473217487 0.04787189140915871 -0.0306099783629179 -0.060009948909282684 -0.013026271015405655 -0.05457190051674843 0.0052315243519842625 -0.08064062893390656 -0.050892289727926254 0.06939419358968735 0.035452958196401596 -0.04714773967862129 0.014086514711380005 0.018434541299939156 -0.017875105142593384 0.06967165321111679 0.1347215622663498 0.08142448961734772 -0.010564395226538181 -0.031016986817121506 -0.015544222667813301 -0.05106060579419136 0.04475889354944229 -0.03920793533325195 -0.053444791585206985 -0.02372908592224121 0.10655343532562256 0.021843597292900085 -0.05631810426712036 0.052078358829021454 0.06128474697470665 -0.05269071087241173 -0.0577147901058197 -0.015866994857788086 0.053192295134067535 -0.01942700333893299 -0.048068560659885406 -0.14954042434692383 -0.1097957044839859 0.04244273155927658 0.03675080090761185 0.004669907968491316 -0.07462183386087418 -0.05817599222064018 -0.004538338631391525 -0.003551303409039974 0.04295546934008598 -0.10577736794948578 -0.04435064643621445 0.025292783975601196 0.032830096781253815 
0.016498880460858345 -0.0014548568287864327 0.0381016731262207 0.061575766652822495 -0.007562386803328991 0.01968497969210148 -0.0031048397067934275 0.0792655348777771 0.006486599333584309 -0.06781737506389618 -0.008585435338318348 0.0025834827683866024 -0.02773125097155571 0.0304579958319664 -0.030928034335374832 -0.03697368502616882 0.029492212459445 -0.07633880525827408 -0.04308610409498215 0.010286894626915455 0.04902760684490204 0.000631214992608875 0.0895877480506897 0.07939955592155457 -0.028836442157626152 -0.05284253880381584 -0.015724128112196922 0.04760419577360153 -0.03488784283399582 -0.07188042253255844 0.07442358136177063 -0.04097425565123558 0.03236442804336548 -0.01940401829779148 -0.074335977435112 -0.008215026929974556 -0.06870406866073608 0.027376770973205566 0.05532742664217949 -0.05686790123581886 -0.03396424651145935 0.04051840305328369 -0.021224677562713623 -0.01099564228206873 -0.06488870829343796 0.019942592829465866 0.004281281027942896 0.053115811198949814 -0.013889910653233528 -0.05971750244498253 -0.007596767973154783 0.027425158768892288 0.026721250265836716 -0.012835398316383362 -0.00397682748734951 -0.037840526551008224 0.03009014017879963 -0.07139939814805984 0.054242875427007675 0.08112972229719162 -0.07090930640697479 -0.10555946826934814 0.047530852258205414 -0.02640092559158802 -0.0068368930369615555 -0.004522985778748989 -0.011245086789131165 -0.024282680824398994 -0.001278081675991416 0.02005505934357643 -0.025217503309249878 -0.010166679508984089 0.014865354634821415 0.024217039346694946 -0.01880262978374958 0.019472802057862282 -0.024266405031085014 -0.0174525398761034 0.10675469785928726 0.006604691967368126 -0.002505453070625663 -0.02531600557267666 0.012559125199913979 -0.028996514156460762 -0.02995358034968376 0.020740188658237457 0.021980445832014084 -0.0315503291785717 0.023769967257976532 0.03845328465104103 -0.007701192516833544 -0.009763015434145927 -0.03289175033569336 0.08652149140834808 -0.055392853915691376 0.035017214715480804 -0.0028980171773582697 0.012117027305066586 -0.01566091924905777 0.0010245630983263254 -0.06213390827178955 0.09981877356767654 0.041818249970674515 -0.11260305345058441 0.06568089127540588 -0.029208123683929443 0.019104311242699623 -0.041913628578186035 0.10227629542350769 0.043857309967279434 -0.06804600358009338 0.021475259214639664 0.12403424084186554 -0.0023474397603422403 -0.029969658702611923 -0.012815178371965885 0.007222107145935297 0.060014694929122925 0.007213960867375135 -0.038910988718271255 -0.0836571753025055 0.034881848841905594 -0.024192921817302704 0.06459023803472519 -0.08594803512096405 -0.0009287461871281266 0.03988603875041008 -0.018354380503296852 -0.054683707654476166 0.010295630432665348 -0.03222167119383812 0.009330366738140583 0.007757691200822592 0.003581434953957796 -0.08480654656887054 0.03453442081809044 -0.009630586951971054 0.07637110352516174 -0.04083468019962311 0.03315834328532219 0.056330498307943344 0.06507027894258499 -0.06106850504875183 0.024110222235322 0.048890359699726105 -0.005408669821918011 0.007760219741612673 -0.01393076777458191 0.044367529451847076 0.007423754315823317 -0.012915263883769512 -0.0623234361410141 -0.03070252574980259 -0.06888379156589508 -0.04961617663502693 0.043558813631534576 -0.08051538467407227 -0.015344999730587006 0.05420549213886261 -0.05096076801419258 0.06750624626874924 -0.03381377086043358 0.0551135279238224 0.07848691195249557 0.027982652187347412 -0.02766377292573452 0.05393905192613602 0.01958032324910164 0.019602207466959953 0.07284871488809586 0.017579469829797745 0.07748229056596756 -0.015783973038196564 -0.036517053842544556 -0.1099504753947258 -0.06819026917219162 -0.014490935020148754 0.04859644174575806 -0.032096464186906815 0.0532592236995697 0.0771636813879013 0.0065209041349589825 -0.03736134618520737 -0.03183160349726677 -0.053565431386232376 -0.08983347564935684 0.030485568568110466 -0.046369004994630814 -0.11221238970756531 -0.10305605083703995 -0.05728168785572052 -0.030233129858970642 0.021120091900229454 -0.09410396218299866 0.00476978300139308 -0.07643551379442215 -0.05392029881477356 -0.026175381615757942 -0.02944224327802658 0.03313790634274483 0.024117320775985718 -0.010240594856441021 -0.11432342231273651 0.08935549110174179 -0.030365440994501114 -0.04233838617801666 -0.027762221172451973 0.10183531045913696 -0.05735684186220169 0.06456241011619568 0.0012397634563967586 0.0005304053775034845 -0.04794427379965782 -0.005197080317884684 -0.07139720767736435 -0.06084322929382324 0.038138553500175476 -0.08414962887763977 0.0008971153292804956 0.03383548557758331 -0.09752544015645981 -0.04720844328403473 0.01473622303456068 -0.05909288674592972 0.03492368385195732 -0.019220374524593353 0.006997375283390284 -0.013229027390480042 -0.0593104287981987 0.06769125908613205 0.024878835305571556 -0.09582127630710602 0.06031745672225952 -0.010132594965398312 0.02800951525568962 -0.054349660873413086 0.07900777459144592 -0.005799977574497461 0.07676500082015991 -0.027109846472740173 0.08110882341861725 -0.05634564906358719 -0.006250977981835604 -0.043020099401474 0.05671164393424988 0.05524834245443344 -0.05213527753949165 -0.008792262524366379 0.016649514436721802 -0.039268746972084045 -0.06555149704217911 0.002832197118550539 -0.04007785767316818 0.023358004167675972 -0.06502418965101242 0.011930931359529495 0.021582378074526787 -0.05304069444537163 -0.043643519282341 0.05985238403081894 0.044519804418087006 0.001547823310829699 -0.03171418607234955 -0.017864305526018143 -0.09722158312797546 0.044624149799346924 0.03462143987417221 -0.02933809533715248 -0.0821520984172821 -0.044783927500247955 -0.022228602319955826 -0.1267791986465454 0.08202589303255081 0.05520161613821983 0.04818848893046379 0.0838199257850647 0.028333593159914017 -0.005008387379348278 -0.024740763008594513 -0.025311218574643135 -0.06599612534046173 0.009790855459868908 -0.031477127224206924 -0.06549319624900818 -0.01113117765635252 0.049268610775470734 0.004066551569849253 -0.03410305455327034 0.001337289111688733 0.019682306796312332 -0.022418543696403503 -0.07190296053886414 -0.01637435145676136 -0.012812445871531963 -0.07229194790124893 -0.018070494756102562 -0.00037460390012711287 0.0223099198192358 0.0447625033557415 0.023060109466314316 0.05076811462640762 0.001145086484029889 0.054171349853277206 -0.010877487249672413 -0.014392435550689697 0.06286586076021194 0.08700337260961533 0.13528196513652802 -0.05242598429322243 -0.04175309091806412 0.01684415526688099 0.04570429027080536 0.06684958189725876 -0.07406071573495865 -0.02896209992468357 0.03142589330673218 0.13601601123809814 -0.0862104594707489 0.04312819242477417 0.008459970355033875 
-0.04807128384709358 0.015304459258913994 0.016142481938004494 0.031656209379434586 0.006637160666286945 0.026105891913175583 -0.033414192497730255 0.030805516988039017 -0.06342680752277374 -0.06539227068424225 -0.03134598210453987 0.006563657894730568 0.0018439623527228832 -0.013265378773212433 0.04001689329743385 0.01671779900789261 -0.011965765617787838 -0.0295882485806942 0.017653601244091988 -0.007923309691250324 -0.05455833673477173 -0.00810454972088337 0.035454314202070236 0.09008965641260147 -0.06152051314711571 0.02617543749511242 -0.019297229126095772 -0.07827386260032654 -0.014122093096375465 0.016789156943559647 -0.014557581394910812 -0.07060229778289795 -0.05832063406705856 -0.005778771825134754 0.0869387686252594 0.0825093686580658 0.010801330208778381 0.020705699920654297 0.02636423520743847 -0.01429248508065939 0.04867378994822502 0.004478259012103081 -0.01646713726222515 0.04507879912853241 0.004162546247243881 -0.05965181067585945 0.029458539560437202 -0.019984541460871696 -0.01766858994960785 -0.02493935450911522 0.0005306359962560236 0.08902254700660706 -0.07471200078725815 0.0076400828547775745 0.019612178206443787 -0.01318496186286211 -0.03478110209107399 -0.002046820940449834 -0.03944806382060051 -0.10660558938980103 -0.0026095141656696796 0.02437967248260975 0.015727028250694275 -0.04986455664038658 -0.034360747784376144 -0.012968596071004868 -0.039462484419345856 -0.05810694769024849 0.05800148844718933 -0.025368696078658104 0.05004885792732239 -0.05459647253155708 -0.013196184299886227 -0.037059392780065536 -0.002317057689651847 0.03549257293343544 -0.01861950010061264 0.0358395054936409 0.05203356593847275 0.028674742206931114 -0.030062798410654068 0.017216777428984642 -0.08776988089084625 -0.03336554765701294 -0.04204341396689415 -0.04682261124253273 -0.0461527556180954 0.018843185156583786 0.01854024827480316 0.0421832874417305 0.029841115698218346 -0.03917533531785011 0.07929442077875137 -0.02240654267370701 0.0342290960252285 0.004503515549004078 -0.05375533550977707 -0.08467742800712585 -0.04844174161553383 0.060292404145002365 -0.042514652013778687 -0.034128088504076004 -0.04595469310879707 -0.0058747329749166965 0.021675417199730873 0.061614979058504105 0.003702767426148057 0.02225554548203945 0.038905926048755646 -0.039789408445358276 -0.0026562835555523634 -0.0045763528905808926 -0.060783904045820236 0.022218475118279457 -0.024222588166594505 -0.04714951664209366 -0.0010299994610249996 0.00391193525865674 0.030393673107028008 -0.03324262797832489 0.016742443665862083 -0.06943453848361969 -0.015224573202431202 0.01074873749166727 -0.005258920136839151 -0.006246278062462807 0.017456218600273132 -0.0026943341363221407 0.011689472012221813 0.07920564711093903 0.04725120589137077 0.08813580125570297 0.03123362548649311 -0.04410672187805176 0.0864100381731987 -0.019379744306206703 -0.04912959411740303 0.056027334183454514 0.07412472367286682 -0.0057293446734547615 0.006140862125903368 0.0072274040430784225 0.0016615961212664843 -0.0427958145737648 0.020457936450839043 -0.01006778422743082 0.007202333305031061 0.036467455327510834 -0.023251773789525032 -0.030574174597859383 0.03566605970263481 -0.012850658036768436 -0.0479557029902935 -0.08026709407567978 -0.03221039101481438 -0.008447288535535336 -0.00385570852085948 0.06246025487780571 -0.002307699993252754 -0.04117674380540848 -0.02257242240011692 0.07099504768848419 0.08601351827383041 -0.0477195642888546 -0.024067554622888565 0.02381175383925438 0.0030475519597530365 -0.008879601955413818 0.00870333518832922 0.054274462163448334 -0.06853635609149933 -0.005101423244923353 0.013574609532952309 -0.01710592210292816 -0.03697755187749863 0.018530933186411858 -0.06541844457387924 -0.0097307488322258 -0.019086970016360283 0.0629807785153389 -0.06526564061641693 -0.023519504815340042 0.0591563805937767 0.10077037662267685 0.0354345478117466 -0.06549268215894699 0.008325619623064995 -0.05516238883137703 0.04816889017820358 -0.019496992230415344 0.009164929389953613 -0.05630035698413849 0.03063892386853695 -0.0331154465675354 0.058121342211961746 0.054768264293670654 0.028523072600364685 -0.030899466946721077 -0.018700867891311646 0.0813220888376236 -0.08413804322481155 -0.070377416908741 -0.021934840828180313 0.02761852741241455 -0.045212116092443466 0.042363885790109634 0.03713192045688629 -0.04041757434606552 0.0008416469790972769 0.041817761957645416 0.06483479589223862 0.06822039186954498 -0.014387122355401516 -0.06120538339018822 0.014447558671236038 0.034577641636133194 0.004663414787501097 0.03765883296728134 -0.07117944210767746 0.05814901366829872 0.023773375898599625 -0.013828805647790432 0.02572554163634777 -0.029257940128445625 -0.04862905666232109 0.006788527127355337 -0.03415140509605408 0.041784610599279404 0.009153970517218113 0.08094184100627899 0.008083811029791832 0.025664081797003746 -0.04654897004365921 -0.011452044360339642 -0.04023826867341995 -0.05111914500594139 0.037047166377305984 -0.015969466418027878 -0.0077170636504888535 0.04143571853637695 -0.01123788207769394 -0.0357682965695858 0.01974678784608841 -0.031920839101076126 0.014185347594320774 0.01726296730339527 -0.005028429441154003 0.01133293192833662 0.04798631742596626 -0.055932190269231796 -0.020949101075530052 -0.007157827261835337 0.007511964533478022 -0.008474287576973438 -0.03599096089601517 -0.036117762327194214 -0.06806445866823196 -0.03746702894568443 0.002617625053972006 -0.006882925983518362 -0.025766542181372643 -0.01757076382637024 -0.016585277393460274 -0.03564052656292915 0.0419437550008297 -0.033197298645973206 0.00018035390530712903 -0.00821705162525177 0.02743704244494438 0.007051903288811445 0.06054895743727684 -0.035496633499860764 -0.013977434486150742 0.005477381404489279 -0.017361246049404144 0.02078418619930744 -0.009277047589421272 0.01116841472685337 0.014633433893322945 0.05484585836529732 -0.024557016789913177 0.027303744107484818 0.038797665387392044 -0.015550305135548115 0.03691088780760765 -0.057103488594293594 -0.04425742104649544 0.009684975259006023 -0.004198624286800623 -0.03110048919916153 0.003209658432751894 -0.05255882069468498 0.03106837160885334 -0.033515606075525284 0.008095447905361652 -0.02708459459245205 0.05775696784257889 0.030715884640812874 -0.013829289935529232 -0.06402874737977982 0.0010143141262233257 0.038300685584545135 0.06442075222730637 -0.03220082074403763 0.04081118851900101 0.11878833919763565 0.03804433345794678 -0.011235252022743225 0.08761552721261978 0.020100252702832222 0.002620999002829194 0.03872258961200714 -0.06928564608097076 0.019367842003703117 -0.0059227775782346725 -0.029349757358431816 -0.05070674791932106 0.05836972966790199 -0.02539699338376522 -0.06743915379047394 
0.07778280228376389 0.020243432372808456 0.037904247641563416 0.04674270376563072 0.01675901561975479 -0.06059166416525841 -0.023968907073140144 0.04095057398080826 0.04349503666162491 0.03879538178443909 -0.06450694054365158 -0.03380925953388214 0.05455045774579048 -0.06081116572022438 0.03800966590642929 0.0847492665052414 -0.06025911867618561 0.031700752675533295 -0.06623749434947968 0.02337605692446232 -0.02285139076411724 -0.08236364275217056 0.06367897987365723 0.03710557147860527 0.0032821218483150005 -0.04353301227092743 -0.016605326905846596 0.010893996804952621 0.003566597355529666 0.043315500020980835 -0.012721025384962559 0.0981426015496254 0.059046171605587006 0.06820856779813766 0.03153815120458603 -0.06420396268367767 0.019258897751569748 0.01950526237487793 0.06315281987190247 0.01797613501548767 -0.043088216334581375 -0.01288426760584116 -0.004029621835798025 -0.06914632022380829 -0.02969380095601082 0.07258090376853943 0.0715654268860817 0.097140833735466 0.009970336221158504 0.028163809329271317 0.07430173456668854 0.029158642515540123 0.06730721890926361 0.0052794283255934715 -0.05873492360115051 -0.016537044197320938 0.0027975968550890684 -0.05166558548808098 -0.0029735155403614044 0.05268983915448189 0.004915951751172543 -0.02721366100013256 0.013038556091487408 0.17010828852653503 -0.03154394403100014 -0.048233624547719955 -0.0781233161687851 0.06364428997039795 0.04295126348733902 -0.051266953349113464 -0.02129690907895565 0.060649748891592026 0.03837990388274193 -0.06115587055683136 -0.012631735764443874 -0.11949470639228821 0.050848621875047684 0.029617737978696823 0.006281424313783646 -0.015357187949120998 0.09017350524663925 -0.009206882677972317 0.006154192611575127 -0.043325185775756836 -0.0386199913918972 0.03818397596478462 0.039462219923734665 0.13630424439907074 -0.014350997284054756 -0.03627727925777435 0.10723838955163956 0.025368565693497658 0.012390396557748318 0.03684908524155617 -0.04851403459906578 -0.08258295059204102 -0.037195801734924316 0.06693083047866821 -0.002329146256670356 -0.10069673508405685 -0.06865091621875763 0.0297442227602005 0.010700496844947338 -0.08098991215229034 -0.14395295083522797 0.004694828763604164 0.05483052879571915 0.08022844791412354 0.021330514922738075 0.07986669987440109 -0.036923717707395554 -0.1113990768790245 0.05540451407432556 0.01278742216527462 -0.0017030342714861035 0.02654784731566906 0.01547396369278431 0.0493348054587841 -0.085247702896595 0.009210382588207722 -0.031192597001791 0.037655673921108246 -0.0835544764995575 -0.10378801077604294 -0.026758037507534027 -0.012063860893249512 0.013222458772361279 0.06934899091720581 -0.03353775292634964 0.027325185015797615 -0.07596875727176666 0.014533759094774723 0.03369589149951935 0.015386231243610382 -0.1027296707034111 -0.1594749391078949 0.10274089872837067 0.0007175703067332506 -0.1509530395269394 -0.04872356355190277 0.03252937272191048 -0.0425911471247673 0.1109645664691925 -0.04161551967263222 0.038355693221092224 0.03657788038253784 -0.03942638263106346 0.025809861719608307 0.01276392675936222 -0.04051517695188522 -0.003555175382643938 0.013708246871829033 -0.05285128578543663 0.039733123034238815 -0.007273348513990641 -0.020097486674785614 -0.07660238444805145 -0.021327029913663864 0.001668716431595385 0.06535819917917252 0.030266789719462395 -0.044838082045316696 0.015264318324625492 0.05024276673793793 0.052890099585056305 -0.00879155844449997 -0.17126117646694183 -0.06679720431566238 -0.01432883832603693 -0.10359670221805573 0.041036203503608704 0.007491050288081169 0.07968299835920334 0.015681639313697815 -0.036973290145397186 0.018938429653644562 -0.054629430174827576 -0.03272685781121254 0.04118727147579193 -0.008025585673749447 0.0713019147515297 0.011873932555317879 -0.06532960385084152 0.06523124128580093 0.0102814557030797 -0.024682234972715378 0.07004596292972565 -0.007616086397320032 -0.13814611732959747 -0.04203870892524719 -0.07175186276435852 0.07793868333101273 0.019172146916389465 -0.010582052171230316 -0.03046432137489319 0.05508359149098396 0.017825257033109665 -0.026484936475753784 -0.014082732610404491 -0.04457266256213188 0.01712944358587265 0.01458633504807949 -0.05135704576969147 -0.04783966764807701 0.04015972837805748 0.025242572650313377 0.04813196882605553 0.04082409664988518 0.0036280262283980846 0.08383075147867203 -0.04077604413032532 0.09574789553880692 0.03230287507176399 0.014187444001436234 0.019829194992780685 -0.0339210070669651 0.018429851159453392 -0.0982498899102211 0.035866595804691315 0.03845299035310745 0.010049724951386452 -0.05627834051847458 0.07523417472839355 0.1701449155807495 0.07842884212732315 0.014207510277628899 -0.02138434909284115 -0.028395794332027435 0.01729324646294117 -0.11423125863075256 0.04091149941086769 -0.018476953729987144 0.01428222842514515 -0.034136418253183365 0.018653012812137604 -0.029794828966259956 0.1198853924870491 0.04535727947950363 -0.0010260093258693814 0.008802037686109543 0.03772910684347153 -0.03613870218396187 0.05313665419816971 0.061384204775094986 -0.07349850982427597 0.011204708367586136 0.01725626178085804 -0.0230611190199852 -0.10393880307674408 0.019748318940401077 -0.05534251034259796 -0.037720635533332825 -0.05840545520186424 0.02037399634718895 0.008200110867619514 -0.07867630571126938 0.033417630940675735 0.004367175046354532 -0.005044267512857914 0.005941546522080898 -0.03340587019920349 -0.039684224873781204 -0.04812788963317871 -0.032254528254270554 -0.15164880454540253 -0.03969964757561684 0.07563982903957367 -0.0015873105730861425 -0.0007737233536317945 -0.10114223510026932 0.03353232517838478 0.056225910782814026 -0.040897395461797714 0.07524566352367401 0.04522137716412544 0.03766624629497528 0.028117164969444275 0.003760443301871419 0.02198975533246994 -0.012954456731677055 0.0047895461320877075 -0.02723965421319008 0.05429611727595329 0.01595035381615162 -0.04033637046813965 0.06398889422416687 0.0013118783244863153 -0.039514098316431046 0.046861860901117325 -0.02868436835706234 0.007028686814010143 0.0027691293507814407 0.0543084442615509 0.014740088023245335 -0.016085216775536537 0.12167269736528397 0.059884972870349884 0.007002880331128836 -0.13256928324699402 0.026750007644295692 0.05800079181790352 0.010349540039896965 -0.039651285856962204 -0.08412281423807144 0.05923121050000191 -0.049766965210437775 -0.08541078120470047 -0.007920991629362106 -0.06599582731723785 0.001681759487837553 -0.021431682631373405 -0.06973515450954437 -0.010352000594139099 -0.07265593111515045 -0.08757007867097855 -0.020284267142415047 -0.07879243791103363 -0.11443540453910828 0.01921973191201687 0.03844735026359558 
0.05375858023762703 -0.024937666952610016 0.0059361509047448635 -0.1024855449795723 -0.010240028612315655 -0.026300232857465744 0.06361901015043259 0.07386841624975204 -0.13425375521183014 -0.00169308518525213 -0.001274034148082137 -0.01972448080778122 0.05286295711994171 0.09402864426374435 0.03647034987807274 -0.005415737628936768 0.02879750169813633 0.009547542780637741 0.02636917121708393 0.03840894624590874 -0.02775919809937477 0.04871632903814316 0.09728753566741943 0.11805930733680725 0.02814427763223648 0.030674980953335762 0.05436304211616516 -0.032393928617239 0.0670197382569313 -0.043126676231622696 0.0018304060213267803 -0.11522294580936432 0.003885353449732065 -0.015923399478197098 -0.0094821248203516 0.07837789505720139 -0.03196379914879799 -0.07235590368509293 0.028473708778619766 0.09560747444629669 0.10084529966115952 0.02021399512887001 0.030018271878361702 -0.018151599913835526 0.04448328912258148 -0.07390987873077393 -0.06696668267250061 0.00033646562951616943 0.06669865548610687 -0.010064397007226944 0.04338778555393219 0.14238162338733673 0.03511117771267891 -0.020025625824928284 0.09774976223707199 0.12423404306173325 0.12246417254209518 0.13109217584133148 0.008453923277556896 -0.013049773871898651 -0.03462735563516617 -0.11838939785957336 -0.04775666072964668 -0.14174167811870575 -0.032723765820264816 0.078920878469944 -0.049551744014024734 -0.010321899317204952 0.06348510086536407 0.008056284859776497 0.02279571257531643 0.012210718356072903 -0.08510412275791168 0.015281238593161106 0.07943174242973328 0.06611277908086777 -0.0800914540886879 0.047479964792728424 0.11135105788707733 0.021572213619947433 0.023425962775945663 0.030712591484189034 0.07881864905357361 -0.12501093745231628 0.060955554246902466 -0.019451996311545372 -0.020248455926775932 -0.054380305111408234 0.0017498634988442063 -0.053247589617967606 -0.0004921540967188776 0.0944829136133194 -0.1753997504711151 0.11954401433467865 0.16275130212306976 0.11765620112419128 -0.018838150426745415 -0.021880805492401123 0.03135473653674126 0.0012432467192411423 -0.00955605786293745 0.01977306790649891 -0.08479158580303192 -0.04632629081606865 -0.05533643811941147 0.04185594245791435 -0.0181442778557539 0.007780378218740225 0.03493626043200493 0.18645040690898895 0.012047918513417244 0.09275992959737778 0.16700458526611328 0.040491167455911636 -0.07667123526334763 -0.12038908898830414 0.06911266595125198 -0.006781267933547497 -0.010724843479692936 0.018958527594804764 0.021473238244652748 -0.020853465422987938 -0.018079683184623718 0.07555549591779709 -0.06642971932888031 -0.1803562492132187 -0.14980672299861908 -0.01789858005940914 0.012879806570708752 -0.04868829622864723 -0.007763312663882971 0.143503338098526 -0.03195865452289581 -0.017723361030220985 0.0075515625067055225 0.05415140092372894 -0.02470451407134533 0.020198069512844086 -0.020933574065566063 -0.038603104650974274 0.04183891415596008 0.00476679066196084 0.0574190691113472 -0.05590275302529335 0.025547169148921967 -0.0007334420224651694 0.0438992865383625 -0.02879953384399414 0.0696004256606102 -0.05247925966978073 0.05705266818404198 0.03132951259613037 0.12395323812961578 0.033332597464323044 -0.007620544638484716 0.12932300567626953 -0.033955927938222885 -0.043539054691791534 -0.1242460235953331 -0.12218490242958069 -0.065592460334301 -0.06463906913995743 -0.008348237723112106 0.17911218106746674 -0.013155942782759666 0.004381305072456598 -0.006308261305093765 0.06801528483629227 -0.0742400586605072 -0.01350175030529499 -0.01900729537010193 -0.05555880814790726 0.021303270012140274 -0.004272912163287401 -0.10464218258857727 -0.04029718041419983 -0.04644981399178505 -0.04302159324288368 -0.03232492879033089 -0.027441203594207764 0.001650898135267198 0.020558930933475494 -0.03229507431387901 0.06771785765886307 0.1022736132144928 0.046438876539468765 0.014241180382668972 0.00262023345567286 0.03811701014637947 -0.10554977506399155 -0.1319003701210022 -0.05077890679240227 -0.051776617765426636 0.055696479976177216 -0.05706584081053734 0.012657085433602333 -0.057585667818784714 0.0003213145537301898 0.025291526690125465 0.14606525003910065 -0.002751471009105444 0.05160244181752205 0.0680823102593422 0.01978403888642788 0.03330990672111511 0.10298825055360794 -0.00318415486253798 0.052829157561063766 -0.012434408999979496 -0.06090972572565079 -0.04362640529870987 -0.029882842674851418 0.05435342341661453 0.01965605653822422 0.01158237736672163 0.011993409134447575 0.20739203691482544 0.08481945842504501 -0.02910979650914669 -0.055130813270807266 0.03840527683496475 -0.06492849439382553 -0.03975304588675499 -0.15607880055904388 0.0934106782078743 -0.028258537873625755 0.03982627019286156 0.047796305269002914 -0.002007732866331935 0.012821014970541 0.023187140002846718 -0.03548222407698631 -0.08540082722902298 0.08501458913087845 0.05208655819296837 -0.04606419801712036 0.08180321007966995 0.10620540380477905 0.04799441248178482 0.09180811047554016 0.1133137196302414 -0.07274173945188522 -0.07487170398235321 -0.10946337133646011 0.04891137406229973 -0.025653477758169174 -0.03776155784726143 -0.059563104063272476 0.049522895365953445 0.05936579406261444 -0.03887441009283066 0.0191669762134552 0.05818365886807442 0.07526957243680954 -0.09604698419570923 -0.041833408176898956 0.006529844831675291 0.03581587225198746 -0.08012682944536209 0.05768139660358429 -0.058245014399290085 -0.00045122101437300444 -0.07614976167678833 -0.07484544068574905 0.07276211678981781 0.06633889675140381 0.04231646656990051 -0.008211931213736534 0.05851475149393082 -0.040418412536382675 -0.008002971298992634 -0.14007368683815002 -0.04626845940947533 0.03465888276696205 0.01449341420084238 -0.0014044154668226838 -0.10706770420074463 0.07500901073217392 -0.02509557083249092 0.013103979639708996 -0.060512982308864594 -0.09257249534130096 -0.039624787867069244 -0.03580155968666077 0.029153602197766304 0.09815103560686111 0.11681608110666275 0.062117572873830795 0.09965509921312332 0.004248737823218107 -0.035641591995954514 -0.04285426437854767 -0.014723294414579868 -0.004198084119707346 0.036284301429986954 0.02299012988805771 -0.05220939964056015 -0.043297894299030304 0.06899088621139526 0.029336143285036087 -0.05867013707756996 -0.09986600279808044 0.1459292620420456 0.1102791354060173 -0.047743868082761765 -0.029306061565876007 0.018377622589468956 0.1572219580411911 -0.03338567912578583 -0.08670399338006973 -0.06508456915616989 0.08282854408025742 -0.0518803633749485 -0.02490442618727684 0.024134086444973946 -0.1461344212293625 -0.06254196912050247 -0.024537047371268272 0.012957192957401276 0.04759437218308449 
-0.07050170004367828 -0.02171510085463524 0.015846606343984604 -0.008262642659246922 -0.005403465591371059 0.0956525057554245 -0.02308162860572338 -0.004335697740316391 0.08261065185070038 0.06529361754655838 -0.012870906852185726 0.04613678902387619 0.07274831086397171 0.013012240640819073 0.025235945358872414 -0.0011210114462301135 0.06111995875835419 0.07467617839574814 -0.03432692214846611 -0.0204496830701828 0.014802212826907635 0.0719546228647232 0.008410798385739326 -0.056721996515989304 0.00025735245435498655 -0.04631824418902397 0.016581086441874504 0.044323068112134933 -0.021992702037096024 -0.09504430741071701 0.010171249508857727 0.13294951617717743 0.010408087633550167 -0.054395582526922226 -0.028003865852952003 0.032356198877096176 0.010800088755786419 0.0289950929582119 -0.00950848963111639 0.03812068700790405 0.026170805096626282 0.0348544716835022 -0.04141256958246231 0.032755762338638306 0.0689745545387268 0.009429204277694225 0.018894214183092117 0.011047904379665852 0.08750539273023605 0.13254886865615845 0.018231045454740524 -0.05411997437477112 0.12223827838897705 0.0324646420776844 0.035441089421510696 0.02440660260617733 -0.006709734909236431 -0.10531843453645706 -0.004701891914010048 0.049290675669908524 -0.03679024428129196 -0.07702094316482544 -0.01689329370856285 0.15151898562908173 0.0315803624689579 -0.002950716530904174 0.024950072169303894 0.06852054595947266 -0.009032746776938438 0.029042305424809456 0.009346201084554195 0.010026371106505394 0.05838550254702568 -0.06979013234376907 0.0023559194523841143 -0.0686822459101677 -0.0013134990585967898 -0.027828648686408997 0.0047572883777320385 -0.011335549876093864 0.03925776109099388 0.03951040282845497 0.10756838321685791 0.06165742129087448 -0.04815603792667389 -0.01737450808286667 0.1399046778678894 0.07293201982975006 -0.0838455781340599 -0.05335848405957222 -0.04440012201666832 -0.02658783830702305 -0.0017477357760071754 0.05248357355594635 -0.06328129768371582 -0.059603262692689896 0.024993708357214928 0.03936285898089409 0.014706907793879509 -0.02450617030262947 0.04516158998012543 0.12358623743057251 0.00038102391408756375 -0.0022319492418318987 -0.009209607727825642 -0.04660992696881294 -0.010346997529268265 -0.07011616975069046 -0.0672178789973259 0.031730588525533676 -0.005180036649107933 -0.06591472029685974 0.1057826578617096 0.022155987098813057 0.08194530755281448 -0.11732637882232666 -0.01958928257226944 -0.08069086819887161 -0.02906123735010624 -0.05711345002055168 -0.1273389458656311 -0.04369334876537323 0.060412414371967316 -0.023508207872509956 -0.029455851763486862 -0.06616085767745972 -0.002500842558220029 0.043856166303157806 -0.04483101889491081 -0.07750242203474045 -0.0998072549700737 0.019545381888747215 -0.023395882919430733 0.005147927440702915 -0.09106821566820145 0.022211221978068352 0.07912401854991913 0.10524583607912064 -0.03278709575533867 0.005488636437803507 0.05695381015539169 0.048831094056367874 0.00700410595163703 0.0231192484498024 0.09130643308162689 0.021609915420413017 0.03129294887185097 0.012101523578166962 0.014908693730831146 -0.01337575726211071 0.0004588332958519459 0.013640095479786396 0.0039711566641926765 -0.09150294959545135 0.003134199883788824 0.06887951493263245 -0.014932329766452312 -0.0075878179632127285 0.07083457708358765 0.04836174100637436 0.010246711783111095 -0.08927728235721588 0.004401043988764286 0.04207010939717293 0.01847020536661148 0.04285920783877373 0.0379943773150444 0.0640144869685173 0.09759441018104553 -0.05167308822274208 -0.0031015435233712196 -0.0011049894383177161 0.012550858780741692 -0.045327603816986084 0.0992991179227829 0.0023462525568902493 0.09015371650457382 0.05597146227955818 0.026523947715759277 -0.016261855140328407 0.05371110141277313 0.0178656168282032 -0.05008029565215111 -0.10792513936758041 -0.040723975747823715 -0.06247728690505028 0.0415111742913723 0.05771680548787117 0.063662089407444 -0.09136423468589783 -0.05868405103683472 0.014639949426054955 -0.02209269069135189 0.010251246392726898 -0.013023601844906807 -0.04009252041578293 0.0673205778002739 0.10819003731012344 0.009197356179356575 -0.09262555092573166 0.14758051931858063 0.022926926612854004 -0.14692877233028412 0.03969261050224304 0.07967929542064667 -0.0009017800912261009 -0.05681274086236954 -0.01618380658328533 0.03647502139210701 -0.00852478202432394 0.07759574055671692 -0.027760665863752365 0.24723371863365173 0.056974250823259354 -0.021725520491600037 -0.06957928091287613 0.044013556092977524 0.014383765868842602 -0.028913741931319237 0.006365310400724411 0.01980973780155182 -0.1035921722650528 -0.052761685103178024 0.09084868431091309 0.010043039917945862 -0.015596657060086727 0.09846927225589752 0.06403614580631256 -0.0035857411567121744 0.08257312327623367 0.07273638248443604 -0.0021271617151796818 0.05708789452910423 0.0007556235650554299 0.08258766680955887 0.02791016176342964 0.02300393208861351 -0.02128593437373638 -0.022558668628335 -0.061834972351789474 0.15198908746242523 0.05141156166791916 -0.014966153539717197 -0.018275661394000053 -0.0690750926733017 0.012545914389193058 0.021806009113788605 -0.09536555409431458 -0.11243674904108047 -0.05670950561761856 -0.05291347578167915 -0.04248793050646782 -0.016181092709302902 -0.06353320181369781 0.007443803828209639 0.004284221678972244 0.09696374088525772 0.036281246691942215 0.018858851864933968 0.017533333972096443 0.10326438397169113 0.08386681973934174 0.10708002001047134 -0.058002863079309464 -0.025044716894626617 0.06131351739168167 0.04183722287416458 -0.07511784136295319 -0.07308251410722733 -0.0723341852426529 -0.018976416438817978 -0.06110875681042671 -0.01821240410208702 0.016344964504241943 -0.037162382155656815 -0.045451756566762924 -0.027453061193227768 0.005504479166120291 0.019857434555888176 -0.05624961853027344 0.022496309131383896 0.04616732522845268 0.01261790469288826 -0.015742706134915352 0.0774068608880043 -0.029289858415722847 0.0012409472838044167 0.04152024909853935 -0.043826159089803696 0.019509997218847275 0.07670632004737854 0.033674005419015884 -0.05419910326600075 0.02360883355140686 0.05216515436768532 0.009000747464597225 0.044488538056612015 -0.009673837572336197 0.03242845833301544 -0.05332639440894127 0.032643333077430725 -0.006300469860434532 -0.017473893240094185 -0.02868342585861683 -0.018668221309781075 -0.01795748993754387 0.02392173558473587 0.03413610905408859 -0.03054121881723404 0.008161510340869427 0.022135620936751366 0.09831485152244568 0.105235755443573 0.013041575439274311 0.01711927354335785 0.02296820469200611 0.13452082872390747 0.04729615896940231 0.0035141571424901485 0.04901869222521782 
0.05407627299427986 0.06585223972797394 0.05997312441468239 -0.006578810978680849 0.043036073446273804 -0.0702320858836174 -0.03519202023744583 0.0065114921890199184 0.03182237222790718 -0.07089226692914963 -0.062197670340538025 0.05301440879702568 0.016594771295785904 0.045571859925985336 -0.0273198951035738 0.05628583952784538 -0.04153838008642197 0.02420368790626526 0.06247809901833534 0.041661959141492844 0.029584648087620735 -0.026470988988876343 -0.029675815254449844 0.05360276997089386 0.08887724578380585 -0.037407562136650085 -0.01613759994506836 -0.005893241614103317 0.031032342463731766 -0.027551813051104546 -0.04599440097808838 -0.009082511067390442 0.02037576586008072 -0.04068711772561073 -0.002100854879245162 -0.030802495777606964 0.009382320567965508 -0.021056562662124634 0.0364793986082077 -0.03187309205532074 -0.06792248040437698 -0.011562489904463291 -0.01729586534202099 -0.006310599856078625 -0.010024204850196838 -0.04616818577051163 -0.030263027176260948 0.025617051869630814 0.03508992865681648 -0.04015349969267845 0.012409261427819729 0.10620363801717758 0.048533838242292404 -0.008344537578523159 0.04061001166701317 0.0657980740070343 -0.008412906900048256 -0.06545569002628326 -0.055484797805547714 -0.017534572631120682 0.08156870305538177 0.057244621217250824 -0.04301949217915535 -0.01790579967200756 0.024016857147216797 -0.03321841359138489 0.041462887078523636 0.037031304091215134 -0.02665889821946621 0.03508906811475754 -0.02503371797502041 -0.008983423933386803 0.017826978117227554 -0.05798929184675217 -0.028657149523496628 0.06034101918339729 -0.04512958973646164 0.01531211007386446 0.0003116179723292589 -0.0025804401375353336 -0.03399546444416046 -0.04161355271935463 -0.04430072754621506 -0.12838734686374664 0.038821086287498474 0.061684995889663696 0.05354704335331917 -0.02351675182580948 -0.046086523681879044 -0.021360693499445915 0.01724795065820217 -0.05473261699080467 0.018902229145169258 -0.0845283716917038 -0.020492875948548317 0.018713537603616714 0.027036027982831 0.020054804161190987 -0.0635129064321518 -0.03335557505488396 0.03660965710878372 -0.012294617481529713 -0.022100605070590973 0.021520644426345825 -0.03417686000466347 -0.008740060031414032 0.0015927853528410196 0.024636300280690193 -0.05680859088897705 -0.08812598139047623 0.07274353504180908 0.005748510826379061 -0.038400307297706604 0.049055568873882294 -0.0007277162512764335 0.052366480231285095 0.01909574307501316 0.07184316217899323 0.003620761912316084 0.08182237297296524 -0.013197962194681168 0.0322909876704216 0.0785248726606369 0.03975193202495575 0.09212376177310944 0.05208294838666916 -0.04789590463042259 -0.16454942524433136 -0.05169442668557167 -0.05619034543633461 -0.04720054939389229 -0.016497662290930748 -0.021690048277378082 -0.020065153017640114 -0.043853115290403366 -0.11413917690515518 0.02279229834675789 0.010940736159682274 0.04448409378528595 -0.036868609488010406 -0.058416590094566345 -0.0457993745803833 0.0020189920905977488 0.06654119491577148 -0.047466080635786057 0.05109405890107155 -0.02331940270960331 0.024304356426000595 0.010315487161278725 0.04204360768198967 -0.014984553679823875 0.041569050401449203 -0.03112129122018814 0.06696190685033798 0.00040624564280733466 -0.0007301886798813939 0.027832580730319023 0.09121578186750412 0.0433996357023716 -0.04748852923512459 0.02698025479912758 -0.0337735116481781 -0.043322160840034485 1.2677696759055834e-05 -0.03063199855387211 -0.056640930473804474 -0.008647073991596699 -0.044611409306526184 -0.050677329301834106 -0.07381662726402283 0.02408597245812416 -0.018927300348877907 -0.015397961251437664 -0.04187127947807312 0.08327816426753998 0.039406102150678635 0.04854867607355118 -0.01417507790029049 -0.0003126566589344293 -0.0012051841476932168 -0.03655509650707245 0.03327827900648117 0.01435827650129795 0.003759601153433323 0.030787711963057518 0.045442309230566025 0.04408644884824753 -0.04391408711671829 0.0060582635924220085 0.08910883963108063 0.007600864395499229 -0.04793577268719673 -0.048905257135629654 0.048678457736968994 0.0666264072060585 -0.002704843645915389 0.05454045906662941 -0.05590387433767319 -0.0006192649016156793 0.06261616945266724 -0.01932363025844097 -0.004494934342801571 0.004791536368429661 0.025483600795269012 0.0603778213262558 -0.004333289805799723 -0.025171440094709396 -0.03444642946124077 -0.06360259652137756 0.04959316924214363 0.056987833231687546 0.025888340547680855 -0.00878429040312767 -0.00977698341012001 0.09835584461688995 0.15384909510612488 0.05221394822001457 -0.056895848363637924 -0.01642058975994587 0.01999005489051342 0.032917723059654236 0.057821571826934814 -0.06053166463971138 0.016254907473921776 0.01397798489779234 0.021973248571157455 -0.004507184028625488 -0.02366817183792591 0.019295822829008102 -0.056443944573402405 -0.02556743286550045 -0.053615737706422806 -0.04983782768249512 -0.03008945845067501 -0.0030126417987048626 0.06482250243425369 -0.09955907613039017 -0.14692124724388123 -0.07861553877592087 -0.010966962203383446 0.015024419873952866 -0.015725936740636826 -0.03248090669512749 0.06170579791069031 0.006734353490173817 -0.032043375074863434 0.010762322694063187 -0.02344927191734314 0.0358370840549469 0.01601860672235489 0.0933397188782692 0.019651785492897034 0.009515799582004547 0.030846916139125824 0.0887608528137207 0.042087577283382416 0.0012324367417022586 -0.024342725053429604 0.060260046273469925 0.026039602234959602 0.03062562458217144 0.05299784615635872 -0.002502374118193984 0.0007683233707211912 0.006952919997274876 -0.09220883250236511 -0.021345512941479683 -0.018847912549972534 -0.06877607852220535 0.013744000345468521 0.056237030774354935 0.07095598429441452 0.04178430140018463 -0.052629586309194565 0.02514142356812954 -0.004287217743694782 -0.04050040617585182 -0.05547831207513809 0.028274234384298325 0.015536132268607616 0.05866268277168274 0.003979109227657318 0.005805657245218754 -0.014303555712103844 -0.046470534056425095 -0.02041473053395748 -0.018024282529950142 0.010856011882424355 0.04134773835539818 0.06697362661361694 -0.00968299712985754 0.04037732630968094 -0.038267068564891815 0.015317238867282867 -0.019977573305368423 -0.04013865441083908 -0.012039230205118656 -0.020815091207623482 -0.007190997246652842 0.020877832546830177 -0.03459123522043228 -0.03576496243476868 -0.04116719961166382 -0.046209730207920074 -0.02926010638475418 0.008387632668018341 -0.05078149959445 -0.018634391948580742 -0.033797651529312134 0.021392446011304855 -0.007237600162625313 0.017373405396938324 0.010797339491546154 0.0028921165503561497 -0.015571377240121365 -0.016734888777136803 -0.07969175279140472 -0.0077504306100308895 0.004561665467917919 -0.0003303195699118078 
0.09511901438236237 0.03577806428074837 0.03001542016863823 0.04692254588007927 -0.05796569213271141 0.01173307839781046 0.04430617019534111 -0.014318839646875858 -0.07773155719041824 -0.05152979865670204 -0.0874820351600647 0.022239429876208305 -0.026784352958202362 -0.01468726433813572 -0.015155397355556488 0.037155646830797195 -0.06475075334310532 -0.051104914397001266 -0.00862108077853918 0.08149102330207825 -0.04601108282804489 -0.03461293876171112 0.007226413115859032 0.01673153042793274 0.04373861476778984 -0.04924606531858444 -0.02433129772543907 -0.030769534409046173 -0.032874759286642075 0.04622046276926994 0.045081499963998795 0.03912952169775963 0.04924902319908142 0.036137327551841736 0.019512511789798737 -0.061838168650865555 -0.046575624495744705 0.043982770293951035 -0.0010214113863185048 -0.07201661914587021 -0.019301678985357285 0.011861522682011127 0.06580836325883865 0.0524592287838459 -0.059054650366306305 0.00759544875472784 -0.0009230804862454534 -0.005454150959849358 -0.04050325229763985 -0.07685553282499313 -0.04421492666006088 0.14565466344356537 0.02280406281352043 0.01790568046271801 -0.07946138828992844 0.025317160412669182 0.0083848861977458 0.017266593873500824 -0.0014939841348677874 -0.013074500486254692 0.05658796429634094 0.01338715385645628 -0.005563581828027964 0.0023485138081014156 0.051623474806547165 0.004976548720151186 -0.006345710251480341 -0.026350485160946846 0.023900307714939117 -6.092745388741605e-05 0.08089250326156616 0.008266177028417587 -0.0156552754342556 0.036681171506643295 -0.039692822843790054 -0.06209726631641388 0.005004008300602436 0.036301154643297195 -0.024021975696086884 -0.041316039860248566 0.0641196146607399 -0.07067780941724777 -0.07103248685598373 -0.09054785221815109 0.06343894451856613 0.0022973688319325447 0.056902069598436356 -0.013305189087986946 0.0030100499279797077 0.09901957213878632 0.0627879798412323 0.02492492087185383 0.047440432012081146 0.024207349866628647 0.041449423879384995 0.0396246574819088 0.056992899626493454 -0.023308642208576202 -0.012174610048532486 0.015536803752183914 0.052815698087215424 -0.015246470458805561 0.05892190337181091 -0.04009004682302475 -0.02766469120979309 -0.0064240931533277035 -0.03607380390167236 -0.023866986855864525 0.0282039362937212 -0.009844961576163769 -0.01566748321056366 0.02385614812374115 0.0806264579296112 0.04012575373053551 0.060379333794116974 -0.01333286240696907 0.09349064528942108 0.13638152182102203 0.012080065906047821 0.026933178305625916 0.010938736610114574 -0.03618355840444565 -0.03926914185285568 -0.031258370727300644 0.016553690657019615 0.07561946660280228 -0.0653003454208374 -0.050295308232307434 -0.00841793604195118 0.04477350041270256 0.04181241989135742 0.05376358702778816 -0.06609660387039185 -0.006481126882135868 -0.06186295673251152 -0.07207143306732178 0.047162458300590515 0.051316339522600174 -0.009256472811102867 -0.015460748225450516 0.06360287219285965 0.044093288481235504 0.007072793319821358 -0.027187906205654144 0.027790585532784462 -0.005249144043773413 -0.014408904127776623 -0.018365060910582542 0.09863898903131485 0.013878761790692806 -0.1192791536450386 -0.03091908060014248 -0.028757743537425995 0.017232662066817284 -0.020768186077475548 -0.015099840238690376 -0.04726028069853783 0.10022692382335663 0.046760834753513336 0.028760995715856552 0.05779774487018585 0.05346262827515602 -0.016941959038376808 0.05128127336502075 0.05764182657003403 -0.03776993975043297 -0.06613598018884659 0.012848212383687496 0.028535202145576477 -0.05940591171383858 -0.10017263144254684 -0.053052496165037155 -0.021001378074288368 0.03299910947680473 -0.0008011544123291969 0.04245778173208237 -0.057493530213832855 0.007067558821290731 -0.047015149146318436 0.012781319208443165 0.058304645121097565 -0.051964253187179565 -0.0493026077747345 -0.02184632420539856 0.001526503125205636 -0.026815205812454224 -0.04129788279533386 0.016608908772468567 0.04015635326504707 0.0018838614923879504 -0.006511511746793985 -0.016111426055431366 -0.05046731233596802 -0.04963015392422676 -0.04187795892357826 -0.05505341291427612 -0.05688238516449928 -0.05104358121752739 -0.07096166908740997 -0.017520418390631676 0.039808813482522964 -0.0020539260003715754 0.0063357967883348465 0.004947982262820005 -0.007968788035213947 -0.039176177233457565 0.06950534880161285 -0.06841234117746353 -0.009927835315465927 0.01781814731657505 -0.07701698690652847 -0.11834457516670227 -0.0582299642264843 -0.028583498671650887 0.05468374490737915 0.05226556584239006 -0.06146663427352905 -0.016079425811767578 0.024506667628884315 0.09820087254047394 -0.0009905152255669236 0.009059502743184566 -0.01781739667057991 -0.04950276389718056 0.060353826731443405 -0.028409162536263466 -0.04071866348385811 0.06347977370023727 0.016644159331917763 -0.07297452539205551 0.03717314451932907 0.026606611907482147 -0.059568796306848526 0.015255356207489967 0.017612580209970474 0.040017325431108475 0.034748904407024384 -0.10334393382072449 -0.06018524989485741 0.07527276873588562 -0.0022395721171051264 -0.09785236418247223 -0.11688990145921707 -0.0640358179807663 0.08021863549947739 0.07099059969186783 -0.04999903216958046 0.008290866389870644 0.08114905655384064 0.05784039571881294 -0.05678178742527962 0.012492859736084938 -0.01305832713842392 0.012576348148286343 -0.020947853103280067 0.017351532354950905 0.02239534631371498 0.06960005313158035 -0.06703472137451172 -0.07618304342031479 -0.0006080356542952359 -0.0032744980417191982 0.050314005464315414 0.039055872708559036 -0.016513874754309654 0.03330100327730179 -0.0032119310926645994 0.024506302550435066 -0.08666275441646576 -0.020903147757053375 0.0026576181408017874 0.03645122051239014 0.030627243220806122 0.08891115337610245 0.02782965637743473 -0.018064778298139572 0.029568716883659363 -0.03820536658167839 -0.006802837830036879 0.0013671856140717864 -0.03731796145439148 -0.0160957220941782 -0.03838955983519554 -0.07284937053918839 -0.026674751192331314 0.014859468676149845 -0.017176544293761253 0.006531789433211088 0.06608393043279648 0.0633687749505043 0.007817630656063557 -0.07632991671562195 0.03149866312742233 0.0004197858215775341 0.015731606632471085 0.06547635793685913 -0.007442766800522804 -0.01543627679347992 -0.035733915865421295 -0.00925278477370739 0.059629715979099274 0.05067472159862518 -0.0044107879512012005 -0.007778916507959366 0.04028059542179108 0.07420996576547623 0.0471123568713665 0.050714608281850815 -0.008070969954133034 -0.08655980229377747 -0.025078196078538895 0.0002651219838298857 0.04374111071228981 -0.09038562327623367 -0.000297960767056793 0.05407429113984108 0.09846542030572891 -0.01653628796339035 0.01538066379725933 -0.011565286666154861 
0.0049451496452093124 0.06579694151878357 0.01759829744696617 -0.04096858948469162 -0.01356951892375946 0.09755389392375946 0.003584560239687562 -0.042960017919540405 0.0281487125903368 0.017807666212320328 0.032130010426044464 0.08764315396547318 0.02381025440990925 0.026621084660291672 0.06504029035568237 -0.004389431327581406 0.0859224796295166 0.07430747896432877 0.04508017376065254 -0.0022339706774801016 -0.010291299782693386 -0.02759891375899315 0.08114466816186905 0.08589497953653336 0.09454963356256485 -0.026963327080011368 -0.009093135595321655 -0.0014293728163465858 -0.005283363163471222 -0.04795911908149719 -0.04120742157101631 -0.010800807736814022 -0.052252888679504395 -0.07229603081941605 -0.01603151299059391 -0.0014726511435583234 -0.03390375152230263 -0.04583892971277237 0.006613147910684347 -0.021112317219376564 0.07890745252370834 0.010389118455350399 0.017021773383021355 0.03454051911830902 0.006318004801869392 -0.0808277279138565 0.01644050143659115 -0.047768037766218185 0.0682363286614418 0.04846137762069702 -0.02540045604109764 0.10517474263906479 0.15773892402648926 0.007299396675080061 0.08256404846906662 0.11773261427879333 0.07568243145942688 -0.05592086538672447 -0.07600730657577515 0.03993942216038704 0.0503181517124176 0.012690393254160881 0.02789217047393322 -0.0877465009689331 -0.03136468306183815 0.01993686519563198 0.0004894353332929313 -0.02836897037923336 0.003219785401597619 0.009240425191819668 0.050810445100069046 -0.04029882326722145 -0.03375769406557083 -0.013394917361438274 0.05309658497571945 -0.002004699781537056 0.007642791140824556 -0.05924034118652344 0.007037116214632988 0.016183895990252495 -0.04185998812317848 -0.011397154070436954 -0.02039424516260624 -0.09558232128620148 0.02543043904006481 -0.030893785879015923 -0.033409930765628815 -0.022054534405469894 0.03403579816222191 0.07325627654790878 -0.0646166056394577 -0.07950915396213531 -0.07354716211557388 -0.018045080825686455 0.0068057444877922535 0.022612439468503 0.04364930838346481 0.0224822498857975 -0.07141637802124023 0.06288189440965652 -0.02308218739926815 0.012981642968952656 -0.07450933754444122 0.020223235711455345 0.005073368549346924 -0.05561574921011925 -0.09223738312721252 0.014512184076011181 -0.025196300819516182 -0.07083867490291595 0.001119109452702105 0.1048298329114914 -0.004905089735984802 -0.05299106240272522 -0.03812852129340172 -0.05982964485883713 0.006115959491580725 -0.030352286994457245 0.08787757903337479 -0.01171774510294199 -0.018975745886564255 -0.0497523732483387 0.14851975440979004 0.10566361993551254 0.036093246191740036 -0.010918851010501385 0.0036039543338119984 -0.08393470197916031 0.026804672554135323 -0.02792452648282051 0.00944439321756363 -0.014227604493498802 -0.010755033232271671 -0.06401073187589645 -0.05672111362218857 0.05361539497971535 0.0022689823526889086 0.055419620126485825 0.06897295266389847 -0.06568979471921921 0.03804614767432213 0.043387170881032944 -0.03795890137553215 0.05725568160414696 0.08422379195690155 0.051620543003082275 0.0011176749831065536 0.028881695121526718 0.0683383196592331 -0.035476792603731155 -0.010552173480391502 0.032824836671352386 0.03482658043503761 -0.0010640440741553903 0.0663500726222992 0.019467219710350037 -0.027734452858567238 0.05418284982442856 -0.07685162872076035 -0.07148037850856781 -0.020354105159640312 0.021247096359729767 0.012120749801397324 0.05381953343749046 -0.025463100522756577 0.008694995194673538 0.07066202163696289 -0.02737417444586754 0.016762657091021538 0.004269040655344725 0.046918194741010666 -0.12745387852191925 0.008789884857833385 -0.08123882114887238 0.08001153916120529 0.03700214624404907 0.004950272850692272 -0.005180885549634695 -0.03985712677240372 -0.031145086511969566 0.08859750628471375 -0.0015401201089844108 0.020048299804329872 -0.0604703389108181 -0.014613345265388489 -0.03259224072098732 0.008905586786568165 -0.03985989838838577 0.022543147206306458 -0.04109596461057663 0.02398504503071308 -0.02041553147137165 0.019778354093432426 0.016259483993053436 -0.017406025901436806 0.06536158174276352 0.06902974843978882 0.07912793010473251 0.02892582304775715 0.11318477243185043 0.04328642040491104 -0.01769581064581871 -0.0074672820046544075 -0.013446238823235035 0.02265504188835621 -0.059656113386154175 0.02447137050330639 -0.017249302938580513 -0.013736187480390072 -0.02502966858446598 0.05063984915614128 0.02897922322154045 0.10857980698347092 0.01300100889056921 0.07219986617565155 0.1557479351758957 0.10021058470010757 0.07484614104032516 -0.0368652269244194 0.01846788451075554 0.06186560541391373 -0.0156375914812088 -0.07478514313697815 -0.12420810759067535 0.00799412652850151 -0.03426038473844528 -0.04947832599282265 0.0626007691025734 -0.03061451017856598 0.05736531689763069 0.02494499646127224 0.019390175119042397 -0.0405406728386879 -0.0011182134039700031 0.05216829851269722 0.04288070648908615 0.00032197937252931297 -0.08029156923294067 0.037997983396053314 -0.002003254136070609 0.08721693605184555 -0.03748103976249695 0.015318762511014938 -0.046769753098487854 -0.016514291986823082 0.031629130244255066 0.010065087117254734 -0.04561586678028107 0.053351886570453644 0.002991490066051483 -0.03403036668896675 0.06605669111013412 -0.0642901137471199 -0.011526776477694511 -0.033554162830114365 0.06964127719402313 -0.03782463073730469 -0.018384799361228943 -0.020960569381713867 -0.00868036039173603 0.050452616065740585 0.0133404191583395 -0.012141745537519455 0.03013257123529911 0.04788404703140259 0.02427489496767521 0.013946439139544964 -0.06460116803646088 0.024288490414619446 0.06255695968866348 0.06980802863836288 0.057244233787059784 0.034773536026477814 -0.03670385479927063 -0.007930089719593525 -0.062171489000320435 -0.004495556000620127 -0.027096262201666832 -0.02739347144961357 0.0003483685140963644 0.037241969257593155 -0.01803494244813919 -0.0057566505856812 0.03762397915124893 0.05821578949689865 0.03244125097990036 -0.07358245551586151 0.05962948128581047 -0.029095688834786415 0.03346029669046402 -0.018895139917731285 -0.0341128408908844 -0.02768815867602825 0.037669457495212555 0.025863293558359146 -0.04695240035653114 -0.03257404640316963 -0.007393682841211557 0.041840147227048874 -0.04939443618059158 0.037638429552316666 -0.08101348578929901 -0.01866193115711212 -0.015732813626527786 0.011630619876086712 -0.009971357882022858 -0.024056898429989815 -0.019831590354442596 0.007916311733424664 -0.003544265404343605 0.02500588819384575 0.03774086385965347 0.04115789011120796 0.030754024162888527 0.019918231293559074 -0.0376858189702034 0.024265488609671593 0.0005332634900696576 -0.0556364543735981 -0.024891028180718422 
0.007316831964999437 0.06231638044118881 0.0013547902926802635 -0.030057253316044807 0.040316976606845856 -0.0188447292894125 0.016061315312981606 0.0862959772348404 -0.04034141078591347 -0.051560673862695694 -0.09210338443517685 -0.07921034097671509 -0.05583227425813675 -0.030752139165997505 -0.06143468618392944 -0.05730852112174034 -0.08533421158790588 -0.04853713884949684 -0.02197200059890747 0.025537295266985893 0.03768312931060791 0.013560662046074867 0.045783642679452896 -0.0018156691221520305 -0.00017804295930545777 -0.00034479188616387546 0.023158226162195206 -0.02733566239476204 -0.0878400206565857 -0.02245757170021534 0.033569496124982834 -0.05998905748128891 0.042386703193187714 -0.017940770834684372 0.03585732728242874 0.06743849068880081 -0.029335059225559235 0.03339486941695213 0.09095355123281479 0.019940583035349846 0.008097824640572071 0.007614693138748407 -0.010143154300749302 -0.05250575765967369 -0.020332951098680496 0.05451757460832596 0.06282208859920502 0.0026711425743997097 -0.001904248376376927 -0.015920255333185196 0.07404188066720963 -0.033890388906002045 -0.004924049600958824 -0.0893319845199585 -0.029072728008031845 -0.026797428727149963 -0.09734734147787094 -0.06314199417829514 -0.06827767193317413 -0.012991140596568584 -0.03605230152606964 0.016508257016539574 0.08310328423976898 0.016531020402908325 0.035004157572984695 -0.011390835046768188 -0.040714602917432785 -0.04246879369020462 0.011667406186461449 0.08222810924053192 -0.03346596285700798 -0.08220986276865005 0.0028584885876625776 0.06440894305706024 -0.06041775643825531 0.0008145609172061086 0.014355672523379326 -0.017688259482383728 0.06810919940471649 -0.018468404188752174 0.0013840673491358757 -0.029036322608590126 0.013718295842409134 0.06875713169574738 -0.02377377636730671 -0.0385020412504673 -0.050149694085121155 0.04755811765789986 -0.013059612363576889 0.01469113864004612 0.03993702679872513 0.04191606491804123 0.010316637344658375 0.08346591144800186 0.007354333996772766 0.02069009467959404 -0.055560532957315445 -0.05262279510498047 -0.004700356163084507 -0.045542310923337936 -0.0036623221822082996 0.021871292963624 0.03997761011123657 0.030265212059020996 -0.01576492376625538 0.05430328845977783 0.041729554533958435 0.03278345614671707 0.07945536077022552 -0.0004176461952738464 -0.02181689627468586 0.09630677849054337 -0.006866624113172293 -0.016297955065965652 -0.0021091531962156296 0.05369272455573082 0.012190333567559719 -0.02623213827610016 0.03502844646573067 -0.007976686581969261 0.020178116858005524 -0.04190539941191673 -0.051460862159729004 -0.05228862538933754 -0.04475404694676399 -0.034953609108924866 0.0569668747484684 -0.073211170732975 0.04057473689317703 0.08048907667398453 0.07389160245656967 0.06270986050367355 0.049447428435087204 -0.03626023232936859 0.021811330690979958 -0.006683250889182091 -0.02156904526054859 -0.005815561395138502 -0.09455285966396332 -0.06849028170108795 -0.0701916366815567 -0.01422743871808052 -0.07091119885444641 -0.07415739446878433 0.08383198827505112 0.07047893851995468 0.06521446257829666 0.02000710554420948 0.026889419183135033 -0.09895800799131393 -0.027493081986904144 -0.0027265867684036493 -0.051537416875362396 -0.041570842266082764 -0.027313049882650375 -0.09510102868080139 -0.0453689768910408 -0.045730818063020706 0.04155489802360535 -0.028864486142992973 -0.03218634054064751 0.038599643856287 -0.02952466905117035 0.05935991182923317 -0.04470045492053032 0.0060577369295060635 -0.020727014169096947 -0.08369738608598709 -0.02447172813117504 0.02372388355433941 -0.020673884078860283 0.04715302214026451 -0.04279812425374985 -0.05240584537386894 -0.08551539480686188 0.026194434612989426 -0.008307147771120071 -0.007500807289034128 0.029095403850078583 0.10315857827663422 0.040679726749658585 0.053064312785863876 0.01155693456530571 0.031717415899038315 -0.053860850632190704 -0.11840389668941498 -0.007095871958881617 -0.04380643367767334 0.008395585231482983 0.02847408689558506 -0.023120595142245293 -0.09591121971607208 0.001551627996377647 -0.005700872745364904 0.062177449464797974 -0.04267829656600952 -0.05320265144109726 0.03236749768257141 0.002788437996059656 0.01555157732218504 -0.0037582474760711193 -0.10268495231866837 -0.02242223545908928 -0.0400780513882637 0.004616894293576479 0.025162041187286377 -0.02963140420615673 0.02375754714012146 -0.01278677862137556 0.014302391558885574 0.056323014199733734 0.014018607325851917 -0.006828808691352606 0.009005813859403133 -0.03169943764805794 -0.017469970509409904 0.010471343994140625 -0.021081024780869484 -0.0010601377580314875 0.02356119081377983 -0.060885339975357056 0.019347744062542915 0.016401715576648712 -0.012494838796555996 0.03612184524536133 0.049424294382333755 -0.030989469960331917 -0.019521186128258705 -0.0031299644615501165 0.08076592534780502 -0.02328048273921013 -0.0201665498316288 0.037632957100868225 0.012874443084001541 0.044246118515729904 -0.011599177494645119 0.029694754630327225 0.036212045699357986 0.03461594134569168 0.08938076347112656 0.023582421243190765 -0.05448108911514282 0.005853197071701288 0.011712085455656052 -0.01444487925618887 -0.03581567481160164 0.01980121061205864 0.03644295781850815 -0.02671048790216446 -0.036197736859321594 -0.08385217934846878 0.060684967786073685 0.024150971323251724 0.02145039103925228 0.0014964891597628593 -0.022861922159790993 -0.045480210334062576 0.03612126037478447 -0.01721789501607418 0.04505006596446037 -0.01277779508382082 0.008129614405333996 -0.02124224230647087 -0.04737764596939087 -0.07729392498731613 0.031063910573720932 -0.011117552407085896 0.04347921162843704 0.08394749462604523 -0.031484730541706085 0.06774559617042542 -0.008733836933970451 0.05218590423464775 0.02045702375471592 -0.014789890497922897 0.018200451508164406 -0.028502067551016808 0.032072387635707855 0.04284011945128441 -0.062294457107782364 -0.026901651173830032 -0.06146427243947983 -0.005579601973295212 -0.031405258923769 0.03360563516616821 0.0835454985499382 0.012486230581998825 0.037898287177085876 -0.0033981448505073786 0.036125507205724716 -0.055585749447345734 0.02197713777422905 0.08335975557565689 -0.048421651124954224 -0.07045254856348038 0.006028080824762583 0.04769888147711754 0.04138004034757614 -0.039395272731781006 0.019598519429564476 0.0024953526444733143 0.010777038522064686 0.032131094485521317 0.05919395387172699 -0.033814042806625366 0.025769099593162537 0.044762127101421356 0.035846732556819916 -0.013467315584421158 0.01337548065930605 -0.04164613410830498 -0.011884231120347977 -0.007264407351613045 0.033605679869651794 0.030755149200558662 0.016736069694161415 -0.048605673015117645 -0.002404028084129095 0.029372721910476685 -0.012934972532093525 
-0.06259911507368088 0.01984037458896637 -0.05062078684568405 -0.024395795539021492 -0.06476136296987534 0.020215539261698723 -0.012618731707334518 0.015468128025531769 0.003987958189100027 0.008921590633690357 0.010034541599452496 -0.010293503291904926 0.021295078098773956 -0.06188002973794937 0.02932753786444664 -0.04774552211165428 0.03131817653775215 0.027989819645881653 -0.03949972242116928 0.03291506692767143 0.013735362328588963 -0.042212944477796555 0.023562811315059662 0.0329584963619709 0.03484451025724411 -0.002350370166823268 -0.02226959727704525 -0.010084949433803558 -0.06556077301502228 -0.06233197823166847 -0.07113195210695267 0.03538452833890915 -0.00584744568914175 -0.014992882497608662 0.12143931537866592 0.03927633538842201 0.03839113190770149 5.8083274780074134e-05 -0.007282041944563389 0.023717118427157402 0.04919394850730896 0.020556960254907608 0.0054265460930764675 0.00024304966791532934 -0.02156824991106987 0.03756004944443703 -0.022020889446139336 -0.021062161773443222 0.07274051010608673 0.02275700867176056 -0.015201901085674763 0.014299820177257061 0.08764871209859848 0.01647871732711792 0.02436058409512043 0.03697169944643974 -0.050862446427345276 -0.07033120840787888 -0.08222503960132599 -0.03292929008603096 0.03571677207946777 0.0642092227935791 0.08379659056663513 0.05806243419647217 0.0312938466668129 0.08354681730270386 0.0027566063217818737 -0.012815678492188454 -0.04540151730179787 -0.05887560918927193 -0.004445585422217846 -0.03361646085977554 0.003982079215347767 -0.039140257984399796 -0.04152778536081314 -0.012808562256395817 0.09387004375457764 -0.051519058644771576 -0.08907194435596466 -0.07049636542797089 0.006562591530382633 0.04117313772439957 0.00680013420060277 0.008876273408532143 0.05999493598937988 0.06337238848209381 -0.032701704651117325 -0.057910170406103134 -0.009001674130558968 0.052732110023498535 0.03529883548617363 0.021480325609445572 0.041533224284648895 -0.01664608158171177 -0.0749271810054779 -0.09418679773807526 0.05440019816160202 0.018717726692557335 -0.009899947792291641 -0.0245980191975832 0.02739979699254036 -0.0019443311030045152 -0.0442189946770668 0.07973344624042511 0.04008220136165619 -0.01469979528337717 -0.026440950110554695 -0.01243562251329422 -0.13332921266555786 -0.11577571928501129 -0.0652485266327858 0.022318687289953232 -0.006833800580352545 -0.06217697635293007 0.010807746089994907 -0.01406269520521164 -0.04181802272796631 -0.16444051265716553 -0.05662119388580322 -0.0034439326263964176 -0.01189921610057354 -0.04133111611008644 0.1820443570613861 0.010558011010289192 0.0033161314204335213 0.036733150482177734 -0.014017264358699322 0.022967228665947914 0.026023168116807938 0.006630750373005867 -0.02353317104279995 0.008872210048139095 -0.011538639664649963 0.012540739960968494 0.02520313486456871 -0.11134153604507446 0.043372008949518204 -0.02755630947649479 0.020919864997267723 -0.0925438180565834 -0.05716203525662422 -0.03196951001882553 -0.005751419812440872 0.012788836844265461 -0.005675972439348698 -0.033330392092466354 -0.045286815613508224 0.04591589793562889 -0.02542748488485813 0.05420950427651405 -0.03699122369289398 0.035397015511989594 -0.00929284654557705 -0.07497388869524002 0.025612512603402138 0.014758809469640255 0.054372914135456085 0.08109690248966217 0.04654673859477043 0.007819638587534428 0.01089540496468544 -0.0012064633192494512 0.04845915734767914 0.044700175523757935 -0.049869004637002945 0.054295964539051056 -0.02163582667708397 -0.14016497135162354 0.010353910736739635 -0.031777262687683105 -0.012099659070372581 -0.07721962779760361 -0.0021776710636913776 0.038800887763500214 0.18801775574684143 0.018453652039170265 0.06121308356523514 0.004095444455742836 0.014770060777664185 -0.044774122536182404 -0.013201562687754631 -0.026709213852882385 0.06573577225208282 0.03421803191304207 0.07539523392915726 -0.04968682676553726 0.049672000110149384 0.04626061022281647 0.08427070826292038 0.047385916113853455 0.0472770594060421 0.1088949516415596 -0.01957239955663681 -0.08373942971229553 0.06756869703531265 0.055551961064338684 0.0376170352101326 0.07350162416696548 0.009511812590062618 0.025783654302358627 0.08103654533624649 0.025592636317014694 -0.013514590449631214 -0.018888186663389206 0.02712167613208294 0.015688175335526466 -0.009424104355275631 -0.05199509114027023 0.037697166204452515 0.06943294405937195 0.1403837949037552 0.06163018196821213 0.1359158605337143 0.03719444200396538 0.018515005707740784 0.1083950325846672 0.0840165764093399 -0.05467711016535759 -0.027414042502641678 0.03875761479139328 0.03944196552038193 0.05221879482269287 0.006251618266105652 0.02465638518333435 -0.012968444265425205 0.034251026809215546 0.06094876676797867 0.07321784645318985 0.02321753464639187 0.018831776455044746 -0.0036732209846377373 0.11077999323606491 -0.02845064364373684 -0.05437925457954407 0.04518505185842514 0.017689770087599754 -0.011333584785461426 -0.05838575214147568 -0.06596741825342178 0.05470309033989906 -0.011057589203119278 -0.04053810238838196 0.004866618663072586 -0.060090623795986176 -0.05817791074514389 0.00901313778012991 0.01836463063955307 -0.0283503420650959 -0.023962477222085 -0.09675494581460953 0.07353562861680984 -0.02308647148311138 -0.0459398590028286 0.020917031913995743 0.016554828733205795 -0.006807366386055946 0.013329005800187588 0.07386785745620728 0.07490409165620804 -0.017305005341768265 0.05353935435414314 -0.035877447575330734 0.02622193470597267 0.0543006993830204 0.0578216016292572 0.03185148909687996 -0.016248837113380432 0.028518179431557655 0.03944940119981766 0.04887738823890686 0.03844280540943146 0.0481516569852829 -0.04427262023091316 -0.08161153644323349 -0.02252773381769657 -0.07647386938333511 0.018141673877835274 -0.04379250109195709 0.004019963089376688 0.08057473599910736 0.06710819900035858 0.021255768835544586 0.04867464676499367 0.027863869443535805 -0.03902530297636986 -0.008875221014022827 -0.06230622157454491 0.0009122856426984072 -0.04539364203810692 0.03456280380487442 0.09242419898509979 0.025798844173550606 -0.0521366260945797 0.0060849362052977085 0.04012943431735039 0.05536982789635658 0.07679010927677155 0.02123280055820942 -0.03329278901219368 -0.04323810711503029 0.026288697496056557 0.02779172547161579 -0.07536710053682327 -0.03736662119626999 0.04838591441512108 -0.017164651304483414 -0.0015852674841880798 -0.023046163842082024 0.04913650080561638 0.03827282786369324 0.022298946976661682 0.04427701234817505 0.059277236461639404 0.1225995421409607 -0.03797907009720802 0.014221514575183392 -0.0777507871389389 0.06495659798383713 0.04465291276574135 0.052474912256002426 
