0.06268550455570221 -0.018497802317142487 0.008343773894011974 -0.18935932219028473 0.006044213660061359 -0.024865228682756424 0.20015236735343933 -0.29867345094680786 -0.12261633574962616 0.1222342997789383 0.14261260628700256 -0.13963517546653748 0.11717859655618668 0.07481899857521057 -0.04283076897263527 0.07989565283060074 0.1747310757637024 -0.18906700611114502 -0.08713774383068085 0.11824367195367813 -0.017362933605909348 0.062338490039110184 -0.20640306174755096 0.02443041279911995 -0.14099466800689697 -0.08634157478809357 0.00022073439322412014 -0.010922265239059925 0.10339181870222092 0.00036568724317476153 0.054455045610666275 -0.06461339443922043 -0.13514460623264313 -0.130210742354393 -0.16305887699127197 -0.08565819263458252 -0.05244577303528786 -0.20957030355930328 -0.07963316887617111 -0.03319050371646881 0.04823124036192894 0.16799037158489227 -0.16661213338375092 -0.052396513521671295 -0.11583259701728821 0.16870903968811035 -0.04404592141509056 0.16010263562202454 -0.07314950972795486 0.15574029088020325 
-0.11993841826915741 -0.20298676192760468 -0.03623798117041588 -0.10802751779556274 0.05185379832983017 0.12370689958333969 -0.10852418094873428 0.04429396241903305 0.244261234998703 -0.19710838794708252 0.006818254012614489 0.039811182767152786 0.1201862022280693 0.22549252212047577 0.05690033361315727 0.06669150292873383 -0.022470571100711823 0.20522798597812653 -0.031556449830532074 0.14989089965820312 -0.03671270236372948 -0.14691457152366638 -0.35670801997184753 -0.0402904637157917 0.11284077912569046 0.202969491481781 0.27599039673805237 0.10987815260887146 -0.00433953944593668 -0.029200946912169456 -0.2108113318681717 0.24266646802425385 -0.21773377060890198 0.15085217356681824 0.10496566444635391 0.1364462822675705 0.06811240315437317 -0.08223181217908859 0.23449037969112396 0.056566353887319565 -0.02004285715520382 -0.09242364764213562 0.08307351171970367 0.035447586327791214 0.06257865577936172 -0.10366447269916534 -0.1672351211309433 0.17390884459018707 -0.014203175902366638 0.05020821467041969 
0.011548701673746109 0.018429506570100784 -0.2250927984714508 -0.018765483051538467 -0.047168880701065063 -0.0801306888461113 0.15545302629470825 -0.21643470227718353 0.21673506498336792 0.017670493572950363 -0.09499514847993851 0.0026758902240544558 -0.08867334574460983 0.1403075009584427 -0.13034401834011078 -0.1650504767894745 0.13175544142723083 -0.01678347773849964 0.24125342071056366 -0.11527017503976822 0.12518680095672607 -0.11636214703321457 -0.018455980345606804 -0.10163292288780212 0.14590050280094147 0.18443067371845245 0.11639746278524399 -0.03931230679154396 0.17726579308509827 0.10618454962968826 0.08288505673408508 -0.13670682907104492 -0.15315647423267365 0.016014713793992996 -0.1035151332616806 0.07327504456043243 0.14394855499267578 0.10182179510593414 -0.09618011116981506 0.15169721841812134 0.11956923454999924 0.10026528686285019 -0.028099587187170982 0.03277120739221573 0.06755509227514267 -0.14954259991645813 0.008141565136611462 -0.013029223307967186 0.08530189841985703 0.21625234186649323 
0.1309211552143097 -0.07179423421621323 -0.09966445714235306 0.03174014762043953 -0.18352344632148743 -0.03033234365284443 -0.17140378057956696 -0.0006773044588044286 0.05516255646944046 0.10374055057764053 -0.17232097685337067 0.19651584327220917 -0.09280936419963837 0.14839652180671692 -0.11988478899002075 0.1862875372171402 -0.044825274497270584 -0.04268736019730568 0.04256691783666611 -0.1001276820898056 -0.22594381868839264 -0.18182891607284546 -0.01769832894206047 0.09523418545722961 0.23436203598976135 0.0630427822470665 -0.15225186944007874 -0.17058609426021576 -0.23891428112983704 -0.02243681624531746 0.17273283004760742 -0.1868160218000412 0.07174710184335709 0.0765436515212059 0.07378413528203964 0.06494846940040588 0.1146029382944107 0.1514882594347 -0.17558731138706207 0.05269751325249672 0.0021981094032526016 -0.13927961885929108 -0.10720495879650116 0.16512610018253326 -0.10196573287248611 -0.003328396938741207 0.002568107796832919 0.05535057932138443 -0.0862780511379242 0.05502473935484886 
0.015741251409053802 0.11106355488300323 -0.10332589596509933 -0.12264036387205124 0.09173721820116043 -0.10450203716754913 0.11772538721561432 0.25900793075561523 -0.03717576339840889 -0.1093808114528656 0.004454479552805424 -0.14025843143463135 -0.08797840029001236 -0.16206365823745728 0.08674004673957825 -0.06006268039345741 -0.11279308050870895 0.07133298367261887 -0.17344427108764648 -0.0008212870452553034 0.18849360942840576 0.18682833015918732 0.051665809005498886 0.16657863557338715 0.05115828663110733 0.294292151927948 0.027736622840166092 -0.041285205632448196 -0.08824991434812546 -0.11621027439832687 -0.28493890166282654 0.21631059050559998 -0.10902030766010284 0.1165480837225914 0.06656982004642487 -0.03962084650993347 -0.13135838508605957 -0.011586613021790981 0.07485058903694153 -0.0794178918004036 0.08250613510608673 -0.16642247140407562 0.3263917565345764 0.021130280569195747 0.17823947966098785 -0.09466474503278732 0.15668179094791412 0.09270564466714859 -0.10217850655317307 -0.1327551305294037 
0.05827989801764488 -0.12156563997268677 -0.02540757693350315 -0.04490772262215614 -0.09127876162528992 0.051209572702646255 0.03583298623561859 0.18853367865085602 -0.0865459144115448 0.2159332036972046 0.05393819138407707 0.21434298157691956 -0.014519354328513145 0.24173806607723236 -0.16690757870674133 0.2766146659851074 -0.06049428880214691 -0.07651424407958984 -0.17716768383979797 -0.04292496293783188 -0.005569721572101116 -0.16062290966510773 0.1548563539981842 -0.10566096007823944 -0.05101669579744339 -0.2865525186061859 0.0441218763589859 0.11352276057004929 -0.20108456909656525 -0.043448567390441895 0.04471146687865257 0.05179723724722862 -0.025761088356375694 -0.2596038281917572 0.19991320371627808 -0.0355132557451725 0.040302179753780365 0.11716202646493912 0.09590502083301544 -0.17901122570037842 0.06727560609579086 0.17308494448661804 0.18355539441108704 0.12957268953323364 -0.13112160563468933 -0.01098573673516512 0.15065933763980865 -0.0003160024934913963 0.09076710790395737 0.0065953368321061134 
-0.12687774002552032 -0.12089701741933823 -0.06638019531965256 -0.12342814356088638 0.012676497921347618 0.14121682941913605 0.012035289779305458 -0.16734206676483154 -0.20821622014045715 0.0007339615258388221 -0.1554613709449768 -0.10495217889547348 0.11591430008411407 0.09875477105379105 -0.09558387845754623 0.06505052000284195 0.09610845148563385 -0.1599394530057907 -0.26233959197998047 -0.10167443752288818 0.24552097916603088 -0.17147865891456604 0.004488654434680939 0.14580245316028595 -0.18756920099258423 0.04226703569293022 -0.25360968708992004 0.04253452271223068 0.13251538574695587 -0.021635189652442932 0.012412766925990582 -0.20731176435947418 0.08494026213884354 -0.3437187671661377 0.20729723572731018 0.06081481650471687 -0.012991087511181831 -0.005053632892668247 0.1217673197388649 -0.14221806824207306 -0.009844541549682617 -0.02193240076303482 0.08745924383401871 -0.16696837544441223 0.07365529984235764 0.16509677469730377 0.1511865258216858 0.14349465072155 0.02998724766075611 -0.06456741690635681 
-0.10487806051969528 -0.06808075308799744 -0.1162356585264206 0.17380641400814056 0.16819070279598236 -0.06320468336343765 0.16311265528202057 0.23477968573570251 0.18828628957271576 -0.09825292974710464 -0.16309335827827454 0.04041023552417755 0.13684648275375366 -0.09309203177690506 -0.12115787714719772 -0.008785095065832138 0.15551623702049255 0.07843315601348877 0.08295228332281113 0.011270404793322086 -0.05129636451601982 0.23269988596439362 0.18987353146076202 -0.0845702514052391 0.03346121311187744 0.06827498227357864 0.1259395182132721 -0.06497519463300705 -0.06482532620429993 0.05305568873882294 0.13253702223300934 0.19162097573280334 -0.07796520739793777 0.2265966385602951 -0.06819923222064972 0.04946290701627731 0.17353498935699463 0.16278675198554993 -0.0010088825365528464 -0.10195281356573105 -0.008504260331392288 -0.09034115076065063 -0.18283230066299438 0.043415170162916183 0.17194531857967377 0.09712675213813782 -0.21101035177707672 0.03239092230796814 -0.17284899950027466 0.12463841587305069 
-0.051776498556137085 -0.059423331171274185 -0.0004007304087281227 -0.1582614779472351 0.14134946465492249 0.05789460614323616 -0.134530171751976 -0.0008540780982002616 -0.0691518783569336 0.07393111288547516 0.07086461782455444 0.12495264410972595 -0.009845059365034103 -0.0538337416946888 -0.08908077329397202 -0.04486897960305214 -0.06573637574911118 0.02440543659031391 0.12899558246135712 -0.15464499592781067 -0.08701995015144348 -0.06023411080241203 0.2977583408355713 -0.0133447777479887 -0.07323510199785233 -0.13317300379276276 0.04268835484981537 -0.053098682314157486 -0.11842203885316849 0.08597974479198456 -0.06791271269321442 -0.19468308985233307 0.00853918306529522 0.10502930730581284 0.14936527609825134 -0.14939220249652863 -0.17850323021411896 -0.19007273018360138 0.05165670067071915 0.15038153529167175 0.09993331134319305 0.02806386724114418 -0.08655979484319687 -0.08376553654670715 0.10370402783155441 -0.1518528163433075 0.20497125387191772 -0.06516972929239273 0.049386102706193924 0.16773004829883575 
0.014674525707960129 0.13254663348197937 0.28210633993148804 0.2124018669128418 -0.06821469962596893 0.0596545971930027 0.06596775352954865 0.15613631904125214 -0.21215510368347168 -0.05400916188955307 -0.02985881268978119 -0.09772732108831406 0.0546671599149704 -0.11663369834423065 0.08461043238639832 -0.023033607751131058 -0.20217344164848328 0.05405324697494507 0.1080118715763092 0.20802141726016998 -0.14178545773029327 0.03762117773294449 0.01644756644964218 0.004471126943826675 0.0350862555205822 -0.13989238440990448 -0.12560297548770905 -0.08405357599258423 -0.09076102823019028 0.008742470294237137 -0.10222572833299637 0.1016349047422409 0.02575818821787834 0.053753674030303955 -0.09201713651418686 -0.0415157712996006 -0.10166577994823456 0.07624947279691696 -0.15862293541431427 -0.2359105795621872 0.15952928364276886 0.054470494389534 0.018592633306980133 0.009069587104022503 0.03857672959566116 -0.14234891533851624 -0.07723712921142578 -0.22642451524734497 -0.07678231596946716 0.07680905610322952 
